{"learner":{"attributes":{"scikit_learn":"{\"_estimator_type\": \"regressor\"}"},"feature_names":[],"feature_types":[],"gradient_booster":{"model":{"gbtree_model_param":{"num_parallel_tree":"1","num_trees":"500"},"iteration_indptr":[0,1,2,3,4,5,6,7,8,9,10,11,12,13,14,15,16,17,18,19,20,21,22,23,24,25,26,27,28,29,30,31,32,33,34,35,36,37,38,39,40,41,42,43,44,45,46,47,48,49,50,51,52,53,54,55,56,57,58,59,60,61,62,63,64,65,66,67,68,69,70,71,72,73,74,75,76,77,78,79,80,81,82,83,84,85,86,87,88,89,90,91,92,93,94,95,96,97,98,99,100,101,102,103,104,105,106,107,108,109,110,111,112,113,114,115,116,117,118,119,120,121,122,123,124,125,126,127,128,129,130,131,132,133,134,135,136,137,138,139,140,141,142,143,144,145,146,147,148,149,150,151,152,153,154,155,156,157,158,159,160,161,162,163,164,165,166,167,168,169,170,171,172,173,174,175,176,177,178,179,180,181,182,183,184,185,186,187,188,189,190,191,192,193,194,195,196,197,198,199,200,201,202,203,204,205,206,207,208,209,210,211,212,213,214,215,216,217,218,219,220,221,222,223,224,225,226,227,228,229,230,231,232,233,234,235,236,237,238,239,240,241,242,243,244,245,246,247,248,249,250,251,252,253,254,255,256,257,258,259,260,261,262,263,264,265,266,267,268,269,270,271,272,273,274,275,276,277,278,279,280,281,282,283,284,285,286,287,288,289,290,291,292,293,294,295,296,297,298,299,300,301,302,303,304,305,306,307,308,309,310,311,312,313,314,315,316,317,318,319,320,321,322,323,324,325,326,327,328,329,330,331,332,333,334,335,336,337,338,339,340,341,342,343,344,345,346,347,348,349,350,351,352,353,354,355,356,357,358,359,360,361,362,363,364,365,366,367,368,369,370,371,372,373,374,375,376,377,378,379,380,381,382,383,384,385,386,387,388,389,390,391,392,393,394,395,396,397,398,399,400,401,402,403,404,405,406,407,408,409,410,411,412,413,414,415,416,417,418,419,420,421,422,423,424,425,426,427,428,429,430,431,432,433,434,435,436,437,438,439,440,441,442,443,444,445,446,447,448,449,450,451,452,453,454,455,456,457,458,459,460,461,462,463,464,465,466,467,468,469,470,471,472,473,474,475,476,477,478,479,480,481,482,483,484,485,486,487,488,489,490,491,492,493,494,495,496,497,498,499,500],"tree_info":[0,0,0,0,0,0,0,0,0,0,0,0,0,0,0,0,0,0,0,0,0,0,0,0,0,0,0,0,0,0,0,0,0,0,0,0,0,0,0,0,0,0,0,0,0,0,0,0,0,0,0,0,0,0,0,0,0,0,0,0,0,0,0,0,0,0,0,0,0,0,0,0,0,0,0,0,0,0,0,0,0,0,0,0,0,0,0,0,0,0,0,0,0,0,0,0,0,0,0,0,0,0,0,0,0,0,0,0,0,0,0,0,0,0,0,0,0,0,0,0,0,0,0,0,0,0,0,0,0,0,0,0,0,0,0,0,0,0,0,0,0,0,0,0,0,0,0,0,0,0,0,0,0,0,0,0,0,0,0,0,0,0,0,0,0,0,0,0,0,0,0,0,0,0,0,0,0,0,0,0,0,0,0,0,0,0,0,0,0,0,0,0,0,0,0,0,0,0,0,0,0,0,0,0,0,0,0,0,0,0,0,0,0,0,0,0,0,0,0,0,0,0,0,0,0,0,0,0,0,0,0,0,0,0,0,0,0,0,0,0,0,0,0,0,0,0,0,0,0,0,0,0,0,0,0,0,0,0,0,0,0,0,0,0,0,0,0,0,0,0,0,0,0,0,0,0,0,0,0,0,0,0,0,0,0,0,0,0,0,0,0,0,0,0,0,0,0,0,0,0,0,0,0,0,0,0,0,0,0,0,0,0,0,0,0,0,0,0,0,0,0,0,0,0,0,0,0,0,0,0,0,0,0,0,0,0,0,0,0,0,0,0,0,0,0,0,0,0,0,0,0,0,0,0,0,0,0,0,0,0,0,0,0,0,0,0,0,0,0,0,0,0,0,0,0,0,0,0,0,0,0,0,0,0,0,0,0,0,0,0,0,0,0,0,0,0,0,0,0,0,0,0,0,0,0,0,0,0,0,0,0,0,0,0,0,0,0,0,0,0,0,0,0,0,0,0,0,0,0,0,0,0,0,0,0,0,0,0,0,0,0,0,0,0,0,0,0,0,0,0,0,0,0,0,0,0,0,0,0,0,0,0,0,0,0,0,0,0,0,0,0,0,0,0,0,0,0,0,0,0,0,0,0,0,0,0,0,0,0,0,0,0,0,0,0,0,0,0,0,0],"trees":[{"base_weights":[-1.08372085E-8,5.662916E-2,-1.1325835E-1,-5.4381066E-3,2.4555001E-2,-1.873778E-2,5.4549994E-3,5.8546662E-2,-1.10266685E-1,9.321666E-3,2.6575E-2,-1.9128336E-2,2.5883317E-3,-9.600003E-3,6.7550004E-3,-1.9950003E-3,5.5499974E-4],"categories":[],"categories_nodes":[],"categories_segments":[],"categories_sizes":[],"default_left":[0,0,0,0,0,0,0,0,0,0,0,0,0,0,0,0,0],"id":0,"left_children":[1,3,5,7,-1,-1,-1,9,11,-1,13,-1,-1,15,-1,-1,-1],"loss_changes":[7.6964706E-2,9.514174E-2,5.99729E-2,5.3407773E-2,0E0,0E0,0E0,3.0650534E-3,3.80423E-2,0E0,6.5775635E-3,0E0,0E0,5.811299E-4,0E0,0E0,0E0],"parents":[2147483647,0,0,1,1,2,2,3,3,7,7,8,8,10,10,13,13],"right_children":[2,4,6,8,-1,-1,-1,10,12,-1,14,-1,-1,16,-1,-1,-1],"split_conditions":[9.7407746E-1,9.673681E-1,1E0,9.653858E-1,2.4555001E-2,-1.873778E-2,5.4549994E-3,4.9100336E-1,9.6660566E-1,9.321666E-3,4.9649283E-1,-1.9128336E-2,2.5883317E-3,4.9420556E-1,6.7550004E-3,-1.9950003E-3,5.5499974E-4],"split_indices":[0,0,0,0,0,0,0,0,0,0,0,0,0,0,0,0,0],"split_type":[0,0,0,0,0,0,0,0,0,0,0,0,0,0,0,0,0],"sum_hessian":[1E1,7E0,3E0,6E0,1E0,2E0,1E0,4E0,2E0,1E0,3E0,1E0,1E0,2E0,1E0,1E0,1E0],"tree_param":{"num_deleted":"0","num_feature":"2","num_nodes":"17","size_leaf_vector":"1"}},{"base_weights":[8.51707E-4,5.37977E-2,-1.05253205E-1,-5.1661986E-3,2.332725E-2,-1.7488593E-2,5.1822485E-3,5.5619337E-2,-1.0475335E-1,8.855581E-3,2.5246263E-2,-1.817192E-2,2.458915E-3,-9.1199875E-3,6.4172507E-3,-1.8952489E-3,5.2725076E-4],"categories":[],"categories_nodes":[],"categories_segments":[],"categories_sizes":[],"default_left":[0,0,0,0,0,0,0,0,0,0,0,0,0,0,0,0,0],"id":1,"left_children":[1,3,5,7,-1,-1,-1,9,11,-1,13,-1,-1,15,-1,-1,-1],"loss_changes":[6.745851E-2,8.586541E-2,5.281345E-2,4.820052E-2,0E0,0E0,0E0,2.7662069E-3,3.433318E-2,0E0,5.9362487E-3,0E0,0E0,5.2446977E-4,0E0,0E0,0E0],"parents":[2147483647,0,0,1,1,2,2,3,3,7,7,8,8,10,10,13,13],"right_children":[2,4,6,8,-1,-1,-1,10,12,-1,14,-1,-1,16,-1,-1,-1],"split_conditions":[9.7407746E-1,9.673681E-1,1E0,9.653858E-1,2.332725E-2,-1.7488593E-2,5.1822485E-3,4.9100336E-1,9.6660566E-1,8.855581E-3,4.9649283E-1,-1.817192E-2,2.458915E-3,4.9420556E-1,6.4172507E-3,-1.8952489E-3,5.2725076E-4],"split_indices":[0,0,0,0,0,0,0,0,0,0,0,0,0,0,0,0,0],"split_type":[0,0,0,0,0,0,0,0,0,0,0,0,0,0,0,0,0],"sum_hessian":[1E1,7E0,3E0,6E0,1E0,2E0,1E0,4E0,2E0,1E0,3E0,1E0,1E0,2E0,1E0,1E0,1E0],"tree_param":{"num_deleted":"0","num_feature":"2","num_nodes":"17","size_leaf_vector":"1"}},{"base_weights":[1.6040531E-3,5.110781E-2,-9.780447E-2,-4.9078977E-3,2.2160888E-2,-1.6322685E-2,4.923135E-3,5.2838363E-2,-9.95157E-2,8.412803E-3,2.398394E-2,-1.7263323E-2,2.3359687E-3,-8.663992E-3,6.096387E-3,-1.8004865E-3,5.0088763E-4],"categories":[],"categories_nodes":[],"categories_segments":[],"categories_sizes":[],"default_left":[0,0,0,0,0,0,0,0,0,0,0,0,0,0,0,0,0],"id":2,"left_children":[1,3,5,7,-1,-1,-1,9,11,-1,13,-1,-1,15,-1,-1,-1],"loss_changes":[5.9130624E-2,7.749353E-2,4.6513617E-2,4.350097E-2,0E0,0E0,0E0,2.4965033E-3,3.0985694E-2,0E0,5.3574634E-3,0E0,0E0,4.733337E-4,0E0,0E0,0E0],"parents":[2147483647,0,0,1,1,2,2,3,3,7,7,8,8,10,10,13,13],"right_children":[2,4,6,8,-1,-1,-1,10,12,-1,14,-1,-1,16,-1,-1,-1],"split_conditions":[9.7407746E-1,9.673681E-1,1E0,9.653858E-1,2.2160888E-2,-1.6322685E-2,4.923135E-3,4.9100336E-1,9.6660566E-1,8.412803E-3,4.9649283E-1,-1.7263323E-2,2.3359687E-3,4.9420556E-1,6.096387E-3,-1.8004865E-3,5.0088763E-4],"split_indices":[0,0,0,0,0,0,0,0,0,0,0,0,0,0,0,0,0],"split_type":[0,0,0,0,0,0,0,0,0,0,0,0,0,0,0,0,0],"sum_hessian":[1E1,7E0,3E0,6E0,1E0,2E0,1E0,4E0,2E0,1E0,3E0,1E0,1E0,2E0,1E0,1E0,1E0],"tree_param":{"num_deleted":"0","num_feature":"2","num_nodes":"17","size_leaf_vector":"1"}},{"base_weights":[2.2657893E-3,4.8552424E-2,-9.087393E-2,-4.6624965E-3,2.1052843E-2,-1.5234508E-2,4.6769767E-3,5.0196446E-2,-9.45399E-2,7.992163E-3,2.278474E-2,-1.6400157E-2,2.2191703E-3,-8.230805E-3,5.7915687E-3,-1.7104626E-3,4.7584178E-4],"categories":[],"categories_nodes":[],"categories_segments":[],"categories_sizes":[],"default_left":[0,0,0,0,0,0,0,0,0,0,0,0,0,0,0,0,0],"id":3,"left_children":[1,3,5,7,-1,-1,-1,9,11,-1,13,-1,-1,15,-1,-1,-1],"loss_changes":[5.1834513E-2,6.9937915E-2,4.096961E-2,3.9259624E-2,0E0,0E0,0E0,2.2530975E-3,2.7964586E-2,0E0,4.835115E-3,0E0,0E0,4.271831E-4,0E0,0E0,0E0],"parents":[2147483647,0,0,1,1,2,2,3,3,7,7,8,8,10,10,13,13],"right_children":[2,4,6,8,-1,-1,-1,10,12,-1,14,-1,-1,16,-1,-1,-1],"split_conditions":[9.7407746E-1,9.673681E-1,1E0,9.653858E-1,2.1052843E-2,-1.5234508E-2,4.6769767E-3,4.9100336E-1,9.6660566E-1,7.992163E-3,4.9649283E-1,-1.6400157E-2,2.2191703E-3,4.9420556E-1,5.7915687E-3,-1.7104626E-3,4.7584178E-4],"split_indices":[0,0,0,0,0,0,0,0,0,0,0,0,0,0,0,0,0],"split_type":[0,0,0,0,0,0,0,0,0,0,0,0,0,0,0,0,0],"sum_hessian":[1E1,7E0,3E0,6E0,1E0,2E0,1E0,4E0,2E0,1E0,3E0,1E0,1E0,2E0,1E0,1E0,1E0],"tree_param":{"num_deleted":"0","num_feature":"2","num_nodes":"17","size_leaf_vector":"1"}},{"base_weights":[2.844984E-3,4.6124816E-2,-8.4425926E-2,-4.4293576E-3,2.0000203E-2,-1.4218874E-2,4.443127E-3,4.7686636E-2,-8.98129E-2,7.592556E-3,2.1645516E-2,-1.55801475E-2,2.1082133E-3,-7.819255E-3,5.5019916E-3,-1.6249389E-3,4.5205056E-4],"categories":[],"categories_nodes":[],"categories_segments":[],"categories_sizes":[],"default_left":[0,0,0,0,0,0,0,0,0,0,0,0,0,0,0,0,0],"id":4,"left_children":[1,3,5,7,-1,-1,-1,9,11,-1,13,-1,-1,15,-1,-1,-1],"loss_changes":[4.5441903E-2,6.3118964E-2,3.6090247E-2,3.5431813E-2,0E0,0E0,0E0,2.033419E-3,2.5238045E-2,0E0,4.363691E-3,0E0,0E0,3.8553297E-4,0E0,0E0,0E0],"parents":[2147483647,0,0,1,1,2,2,3,3,7,7,8,8,10,10,13,13],"right_children":[2,4,6,8,-1,-1,-1,10,12,-1,14,-1,-1,16,-1,-1,-1],"split_conditions":[9.7407746E-1,9.673681E-1,1E0,9.653858E-1,2.0000203E-2,-1.4218874E-2,4.443127E-3,4.9100336E-1,9.6660566E-1,7.592556E-3,4.9649283E-1,-1.55801475E-2,2.1082133E-3,4.9420556E-1,5.5019916E-3,-1.6249389E-3,4.5205056E-4],"split_indices":[0,0,0,0,0,0,0,0,0,0,0,0,0,0,0,0,0],"split_type":[0,0,0,0,0,0,0,0,0,0,0,0,0,0,0,0,0],"sum_hessian":[1E1,7E0,3E0,6E0,1E0,2E0,1E0,4E0,2E0,1E0,3E0,1E0,1E0,2E0,1E0,1E0,1E0],"tree_param":{"num_deleted":"0","num_feature":"2","num_nodes":"17","size_leaf_vector":"1"}},{"base_weights":[3.3490441E-3,4.381857E-2,-7.842727E-2,-4.207892E-3,1.9000191E-2,-1.3270951E-2,4.2209714E-3,4.530231E-2,-8.532226E-2,7.212928E-3,2.0563245E-2,-1.4801142E-2,2.0028024E-3,-7.4282885E-3,5.2268924E-3,-1.5436917E-3,4.294485E-4],"categories":[],"categories_nodes":[],"categories_segments":[],"categories_sizes":[],"default_left":[0,0,0,0,0,0,0,0,0,0,0,0,0,0,0,0,0],"id":5,"left_children":[1,3,5,7,-1,-1,-1,9,11,-1,13,-1,-1,15,-1,-1,-1],"loss_changes":[3.9840505E-2,5.6964856E-2,3.1795405E-2,3.1977214E-2,0E0,0E0,0E0,1.8351581E-3,2.2777341E-2,0E0,3.9382307E-3,0E0,0E0,3.4794363E-4,0E0,0E0,0E0],"parents":[2147483647,0,0,1,1,2,2,3,3,7,7,8,8,10,10,13,13],"right_children":[2,4,6,8,-1,-1,-1,10,12,-1,14,-1,-1,16,-1,-1,-1],"split_conditions":[9.7407746E-1,9.673681E-1,1E0,9.653858E-1,1.9000191E-2,-1.3270951E-2,4.2209714E-3,4.9100336E-1,9.6660566E-1,7.212928E-3,4.9649283E-1,-1.4801142E-2,2.0028024E-3,4.9420556E-1,5.2268924E-3,-1.5436917E-3,4.294485E-4],"split_indices":[0,0,0,0,0,0,0,0,0,0,0,0,0,0,0,0,0],"split_type":[0,0,0,0,0,0,0,0,0,0,0,0,0,0,0,0,0],"sum_hessian":[1E1,7E0,3E0,6E0,1E0,2E0,1E0,4E0,2E0,1E0,3E0,1E0,1E0,2E0,1E0,1E0,1E0],"tree_param":{"num_deleted":"0","num_feature":"2","num_nodes":"17","size_leaf_vector":"1"}},{"base_weights":[3.784819E-3,4.1627645E-2,-7.284704E-2,-3.9974963E-3,1.8050183E-2,-1.23862205E-2,4.0099234E-3,4.3037187E-2,-8.105614E-2,6.8522813E-3,1.953508E-2,-1.4061085E-2,1.9026637E-3,-7.056872E-3,4.965547E-3,-1.4665067E-3,4.0797592E-4],"categories":[],"categories_nodes":[],"categories_segments":[],"categories_sizes":[],"default_left":[0,0,0,0,0,0,0,0,0,0,0,0,0,0,0,0,0],"id":6,"left_children":[1,3,5,7,-1,-1,-1,9,11,-1,13,-1,-1,15,-1,-1,-1],"loss_changes":[3.4932077E-2,5.1410794E-2,2.8014675E-2,2.8859433E-2,0E0,0E0,0E0,1.6562305E-3,2.0556552E-2,0E0,3.5542515E-3,0E0,0E0,3.1401892E-4,0E0,0E0,0E0],"parents":[2147483647,0,0,1,1,2,2,3,3,7,7,8,8,10,10,13,13],"right_children":[2,4,6,8,-1,-1,-1,10,12,-1,14,-1,-1,16,-1,-1,-1],"split_conditions":[9.7407746E-1,9.673681E-1,1E0,9.653858E-1,1.8050183E-2,-1.23862205E-2,4.0099234E-3,4.9100336E-1,9.6660566E-1,6.8522813E-3,4.9649283E-1,-1.4061085E-2,1.9026637E-3,4.9420556E-1,4.965547E-3,-1.4665067E-3,4.0797592E-4],"split_indices":[0,0,0,0,0,0,0,0,0,0,0,0,0,0,0,0,0],"split_type":[0,0,0,0,0,0,0,0,0,0,0,0,0,0,0,0,0],"sum_hessian":[1E1,7E0,3E0,6E0,1E0,2E0,1E0,4E0,2E0,1E0,3E0,1E0,1E0,2E0,1E0,1E0,1E0],"tree_param":{"num_deleted":"0","num_feature":"2","num_nodes":"17","size_leaf_vector":"1"}},{"base_weights":[4.158594E-3,3.9546266E-2,-6.76564E-2,-3.7976163E-3,1.7147673E-2,-1.1560473E-2,3.8094283E-3,4.088533E-2,-7.700332E-2,6.5096677E-3,1.8558323E-2,-1.335803E-2,1.8075317E-3,-6.7040324E-3,4.7172694E-3,-1.3931812E-3,3.8757623E-4],"categories":[],"categories_nodes":[],"categories_segments":[],"categories_sizes":[],"default_left":[0,0,0,0,0,0,0,0,0,0,0,0,0,0,0,0,0],"id":7,"left_children":[1,3,5,7,-1,-1,-1,9,11,-1,13,-1,-1,15,-1,-1,-1],"loss_changes":[3.0630575E-2,4.6398226E-2,2.4686147E-2,2.6045633E-2,0E0,0E0,0E0,1.4947494E-3,1.855229E-2,0E0,3.2077134E-3,0E0,0E0,2.8340163E-4,0E0,0E0,0E0],"parents":[2147483647,0,0,1,1,2,2,3,3,7,7,8,8,10,10,13,13],"right_children":[2,4,6,8,-1,-1,-1,10,12,-1,14,-1,-1,16,-1,-1,-1],"split_conditions":[9.7407746E-1,9.673681E-1,1E0,9.653858E-1,1.7147673E-2,-1.1560473E-2,3.8094283E-3,4.9100336E-1,9.6660566E-1,6.5096677E-3,4.9649283E-1,-1.335803E-2,1.8075317E-3,4.9420556E-1,4.7172694E-3,-1.3931812E-3,3.8757623E-4],"split_indices":[0,0,0,0,0,0,0,0,0,0,0,0,0,0,0,0,0],"split_type":[0,0,0,0,0,0,0,0,0,0,0,0,0,0,0,0,0],"sum_hessian":[1E1,7E0,3E0,6E0,1E0,2E0,1E0,4E0,2E0,1E0,3E0,1E0,1E0,2E0,1E0,1E0,1E0],"tree_param":{"num_deleted":"0","num_feature":"2","num_nodes":"17","size_leaf_vector":"1"}},{"base_weights":[4.4761435E-3,3.756896E-2,-6.2828526E-2,-3.6077288E-3,1.629029E-2,-1.0789773E-2,3.6189556E-3,3.884106E-2,-7.315314E-2,6.1841845E-3,1.7630406E-2,-1.2690127E-2,1.7171561E-3,-6.3688257E-3,4.481405E-3,-1.3235227E-3,3.6819876E-4],"categories":[],"categories_nodes":[],"categories_segments":[],"categories_sizes":[],"default_left":[0,0,0,0,0,0,0,0,0,0,0,0,0,0,0,0,0],"id":8,"left_children":[1,3,5,7,-1,-1,-1,9,11,-1,13,-1,-1,15,-1,-1,-1],"loss_changes":[2.6860716E-2,4.1874398E-2,2.1755438E-2,2.3506176E-2,0E0,0E0,0E0,1.3490119E-3,1.6743446E-2,0E0,2.894959E-3,0E0,0E0,2.5577066E-4,0E0,0E0,0E0],"parents":[2147483647,0,0,1,1,2,2,3,3,7,7,8,8,10,10,13,13],"right_children":[2,4,6,8,-1,-1,-1,10,12,-1,14,-1,-1,16,-1,-1,-1],"split_conditions":[9.7407746E-1,9.673681E-1,1E0,9.653858E-1,1.629029E-2,-1.0789773E-2,3.6189556E-3,4.9100336E-1,9.6660566E-1,6.1841845E-3,4.9649283E-1,-1.2690127E-2,1.7171561E-3,4.9420556E-1,4.481405E-3,-1.3235227E-3,3.6819876E-4],"split_indices":[0,0,0,0,0,0,0,0,0,0,0,0,0,0,0,0,0],"split_type":[0,0,0,0,0,0,0,0,0,0,0,0,0,0,0,0,0],"sum_hessian":[1E1,7E0,3E0,6E0,1E0,2E0,1E0,4E0,2E0,1E0,3E0,1E0,1E0,2E0,1E0,1E0,1E0],"tree_param":{"num_deleted":"0","num_feature":"2","num_nodes":"17","size_leaf_vector":"1"}},{"base_weights":[4.7427863E-3,3.5690516E-2,-5.8338374E-2,-3.427333E-3,1.5475774E-2,-1.0070455E-2,3.4380078E-3,3.6899023E-2,-6.9495484E-2,5.8749765E-3,1.6748898E-2,-1.20556215E-2,1.6312987E-3,-6.050378E-3,4.2573363E-3,-1.2573466E-3,3.4978986E-4],"categories":[],"categories_nodes":[],"categories_segments":[],"categories_sizes":[],"default_left":[0,0,0,0,0,0,0,0,0,0,0,0,0,0,0,0,0],"id":9,"left_children":[1,3,5,7,-1,-1,-1,9,11,-1,13,-1,-1,15,-1,-1,-1],"loss_changes":[2.3556534E-2,3.7791636E-2,1.9174736E-2,2.121433E-2,0E0,0E0,0E0,1.2174821E-3,1.5110959E-2,0E0,2.6127016E-3,0E0,0E0,2.3083342E-4,0E0,0E0,0E0],"parents":[2147483647,0,0,1,1,2,2,3,3,7,7,8,8,10,10,13,13],"right_children":[2,4,6,8,-1,-1,-1,10,12,-1,14,-1,-1,16,-1,-1,-1],"split_conditions":[9.7407746E-1,9.673681E-1,1E0,9.653858E-1,1.5475774E-2,-1.0070455E-2,3.4380078E-3,4.9100336E-1,9.6660566E-1,5.8749765E-3,4.9649283E-1,-1.20556215E-2,1.6312987E-3,4.9420556E-1,4.2573363E-3,-1.2573466E-3,3.4978986E-4],"split_indices":[0,0,0,0,0,0,0,0,0,0,0,0,0,0,0,0,0],"split_type":[0,0,0,0,0,0,0,0,0,0,0,0,0,0,0,0,0],"sum_hessian":[1E1,7E0,3E0,6E0,1E0,2E0,1E0,4E0,2E0,1E0,3E0,1E0,1E0,2E0,1E0,1E0,1E0],"tree_param":{"num_deleted":"0","num_feature":"2","num_nodes":"17","size_leaf_vector":"1"}},{"base_weights":[4.9633994E-3,3.3905998E-2,-5.416265E-2,-3.2559612E-3,1.4701987E-2,-9.399093E-3,3.266108E-3,3.505408E-2,-6.602071E-2,5.581227E-3,1.5911467E-2,-1.145284E-2,1.5497328E-3,-5.747845E-3,4.0444704E-3,-1.1944786E-3,3.3230186E-4],"categories":[],"categories_nodes":[],"categories_segments":[],"categories_sizes":[],"default_left":[0,0,0,0,0,0,0,0,0,0,0,0,0,0,0,0,0],"id":10,"left_children":[1,3,5,7,-1,-1,-1,9,11,-1,13,-1,-1,15,-1,-1,-1],"loss_changes":[2.0660317E-2,3.4106955E-2,1.6902E-2,1.9145938E-2,0E0,0E0,0E0,1.0987748E-3,1.3637637E-2,0E0,2.3579618E-3,0E0,0E0,2.0832758E-4,0E0,0E0,0E0],"parents":[2147483647,0,0,1,1,2,2,3,3,7,7,8,8,10,10,13,13],"right_children":[2,4,6,8,-1,-1,-1,10,12,-1,14,-1,-1,16,-1,-1,-1],"split_conditions":[9.7407746E-1,9.673681E-1,1E0,9.653858E-1,1.4701987E-2,-9.399093E-3,3.266108E-3,4.9100336E-1,9.6660566E-1,5.581227E-3,4.9649283E-1,-1.145284E-2,1.5497328E-3,4.9420556E-1,4.0444704E-3,-1.1944786E-3,3.3230186E-4],"split_indices":[0,0,0,0,0,0,0,0,0,0,0,0,0,0,0,0,0],"split_type":[0,0,0,0,0,0,0,0,0,0,0,0,0,0,0,0,0],"sum_hessian":[1E1,7E0,3E0,6E0,1E0,2E0,1E0,4E0,2E0,1E0,3E0,1E0,1E0,2E0,1E0,1E0,1E0],"tree_param":{"num_deleted":"0","num_feature":"2","num_nodes":"17","size_leaf_vector":"1"}},{"base_weights":[5.142468E-3,3.2210708E-2,-5.0279632E-2,-3.0931553E-3,1.3966888E-2,-8.772487E-3,3.1028034E-3,3.3301383E-2,-6.2719665E-2,5.302167E-3,1.5115894E-2,-1.0880197E-2,1.4722467E-3,-5.460451E-3,3.8422465E-3,-1.1347547E-3,3.1568707E-4],"categories":[],"categories_nodes":[],"categories_segments":[],"categories_sizes":[],"default_left":[0,0,0,0,0,0,0,0,0,0,0,0,0,0,0,0,0],"id":11,"left_children":[1,3,5,7,-1,-1,-1,9,11,-1,13,-1,-1,15,-1,-1,-1],"loss_changes":[1.8121509E-2,3.078153E-2,1.4900268E-2,1.7279208E-2,0E0,0E0,0E0,9.916448E-4,1.2307969E-2,0E0,2.1280602E-3,0E0,0E0,1.8801575E-4,0E0,0E0,0E0],"parents":[2147483647,0,0,1,1,2,2,3,3,7,7,8,8,10,10,13,13],"right_children":[2,4,6,8,-1,-1,-1,10,12,-1,14,-1,-1,16,-1,-1,-1],"split_conditions":[9.7407746E-1,9.673681E-1,1E0,9.653858E-1,1.3966888E-2,-8.772487E-3,3.1028034E-3,4.9100336E-1,9.6660566E-1,5.302167E-3,4.9649283E-1,-1.0880197E-2,1.4722467E-3,4.9420556E-1,3.8422465E-3,-1.1347547E-3,3.1568707E-4],"split_indices":[0,0,0,0,0,0,0,0,0,0,0,0,0,0,0,0,0],"split_type":[0,0,0,0,0,0,0,0,0,0,0,0,0,0,0,0,0],"sum_hessian":[1E1,7E0,3E0,6E0,1E0,2E0,1E0,4E0,2E0,1E0,3E0,1E0,1E0,2E0,1E0,1E0,1E0],"tree_param":{"num_deleted":"0","num_feature":"2","num_nodes":"17","size_leaf_vector":"1"}},{"base_weights":[5.2840966E-3,3.0600173E-2,-4.666908E-2,-2.938494E-3,1.32685425E-2,-8.187654E-3,2.9476644E-3,3.1636316E-2,-5.958368E-2,5.0370577E-3,1.43601075E-2,-1.0336187E-2,1.398635E-3,-5.187422E-3,3.650135E-3,-1.078017E-3,2.9990377E-4],"categories":[],"categories_nodes":[],"categories_segments":[],"categories_sizes":[],"default_left":[0,0,0,0,0,0,0,0,0,0,0,0,0,0,0,0,0],"id":12,"left_children":[1,3,5,7,-1,-1,-1,9,11,-1,13,-1,-1,15,-1,-1,-1],"loss_changes":[1.5895838E-2,2.7780322E-2,1.3137035E-2,1.5594484E-2,0E0,0E0,0E0,8.9495815E-4,1.1107941E-2,0E0,1.9205741E-3,0E0,0E0,1.6968459E-4,0E0,0E0,0E0],"parents":[2147483647,0,0,1,1,2,2,3,3,7,7,8,8,10,10,13,13],"right_children":[2,4,6,8,-1,-1,-1,10,12,-1,14,-1,-1,16,-1,-1,-1],"split_conditions":[9.7407746E-1,9.673681E-1,1E0,9.653858E-1,1.32685425E-2,-8.187654E-3,2.9476644E-3,4.9100336E-1,9.6660566E-1,5.0370577E-3,4.9649283E-1,-1.0336187E-2,1.398635E-3,4.9420556E-1,3.650135E-3,-1.078017E-3,2.9990377E-4],"split_indices":[0,0,0,0,0,0,0,0,0,0,0,0,0,0,0,0,0],"split_type":[0,0,0,0,0,0,0,0,0,0,0,0,0,0,0,0,0],"sum_hessian":[1E1,7E0,3E0,6E0,1E0,2E0,1E0,4E0,2E0,1E0,3E0,1E0,1E0,2E0,1E0,1E0,1E0],"tree_param":{"num_deleted":"0","num_feature":"2","num_nodes":"17","size_leaf_vector":"1"}},{"base_weights":[5.392054E-3,2.9070163E-2,-4.3312177E-2,-2.7915728E-3,1.2605116E-2,-7.6418105E-3,2.80028E-3,3.0054491E-2,-5.660449E-2,4.785204E-3,1.3642095E-2,-9.819377E-3,1.3287038E-3,-4.928062E-3,3.4676285E-3,-1.0241166E-3,2.8490723E-4],"categories":[],"categories_nodes":[],"categories_segments":[],"categories_sizes":[],"default_left":[0,0,0,0,0,0,0,0,0,0,0,0,0,0,0,0,0],"id":13,"left_children":[1,3,5,7,-1,-1,-1,9,11,-1,13,-1,-1,15,-1,-1,-1],"loss_changes":[1.3944556E-2,2.5071742E-2,1.1583713E-2,1.4074016E-2,0E0,0E0,0E0,8.077002E-4,1.002492E-2,0E0,1.7333196E-3,0E0,0E0,1.5313998E-4,0E0,0E0,0E0],"parents":[2147483647,0,0,1,1,2,2,3,3,7,7,8,8,10,10,13,13],"right_children":[2,4,6,8,-1,-1,-1,10,12,-1,14,-1,-1,16,-1,-1,-1],"split_conditions":[9.7407746E-1,9.673681E-1,1E0,9.653858E-1,1.2605116E-2,-7.6418105E-3,2.80028E-3,4.9100336E-1,9.6660566E-1,4.785204E-3,4.9649283E-1,-9.819377E-3,1.3287038E-3,4.9420556E-1,3.4676285E-3,-1.0241166E-3,2.8490723E-4],"split_indices":[0,0,0,0,0,0,0,0,0,0,0,0,0,0,0,0,0],"split_type":[0,0,0,0,0,0,0,0,0,0,0,0,0,0,0,0,0],"sum_hessian":[1E1,7E0,3E0,6E0,1E0,2E0,1E0,4E0,2E0,1E0,3E0,1E0,1E0,2E0,1E0,1E0,1E0],"tree_param":{"num_deleted":"0","num_feature":"2","num_nodes":"17","size_leaf_vector":"1"}},{"base_weights":[5.469811E-3,2.761666E-2,-4.0191337E-2,-2.6519874E-3,1.1974859E-2,-7.132355E-3,2.6602657E-3,2.8551776E-2,-5.3774264E-2,4.545945E-3,1.2959994E-2,-9.328408E-3,1.2622684E-3,-4.6816566E-3,3.2942474E-3,-9.7291026E-4,2.7066172E-4],"categories":[],"categories_nodes":[],"categories_segments":[],"categories_sizes":[],"default_left":[0,0,0,0,0,0,0,0,0,0,0,0,0,0,0,0,0],"id":14,"left_children":[1,3,5,7,-1,-1,-1,9,11,-1,13,-1,-1,15,-1,-1,-1],"loss_changes":[1.2233706E-2,2.2627244E-2,1.0215176E-2,1.2701802E-2,0E0,0E0,0E0,7.2894944E-4,9.047491E-3,0E0,1.5643211E-3,0E0,0E0,1.3820868E-4,0E0,0E0,0E0],"parents":[2147483647,0,0,1,1,2,2,3,3,7,7,8,8,10,10,13,13],"right_children":[2,4,6,8,-1,-1,-1,10,12,-1,14,-1,-1,16,-1,-1,-1],"split_conditions":[9.7407746E-1,9.673681E-1,1E0,9.653858E-1,1.1974859E-2,-7.132355E-3,2.6602657E-3,4.9100336E-1,9.6660566E-1,4.545945E-3,4.9649283E-1,-9.328408E-3,1.2622684E-3,4.9420556E-1,3.2942474E-3,-9.7291026E-4,2.7066172E-4],"split_indices":[0,0,0,0,0,0,0,0,0,0,0,0,0,0,0,0,0],"split_type":[0,0,0,0,0,0,0,0,0,0,0,0,0,0,0,0,0],"sum_hessian":[1E1,7E0,3E0,6E0,1E0,2E0,1E0,4E0,2E0,1E0,3E0,1E0,1E0,2E0,1E0,1E0,1E0],"tree_param":{"num_deleted":"0","num_feature":"2","num_nodes":"17","size_leaf_vector":"1"}},{"base_weights":[5.5205184E-3,2.6235828E-2,-3.729023E-2,-2.519384E-3,1.13761155E-2,-6.656865E-3,2.5272518E-3,2.712419E-2,-5.1085547E-2,4.3186485E-3,1.2311995E-2,-8.861988E-3,1.199156E-3,-4.4475794E-3,3.129536E-3,-9.242654E-4,2.5712847E-4],"categories":[],"categories_nodes":[],"categories_segments":[],"categories_sizes":[],"default_left":[0,0,0,0,0,0,0,0,0,0,0,0,0,0,0,0,0],"id":15,"left_children":[1,3,5,7,-1,-1,-1,9,11,-1,13,-1,-1,15,-1,-1,-1],"loss_changes":[1.0733558E-2,2.0421084E-2,9.009312E-3,1.1463378E-2,0E0,0E0,0E0,6.578774E-4,8.16536E-3,0E0,1.4118012E-3,0E0,0E0,1.2473341E-4,0E0,0E0,0E0],"parents":[2147483647,0,0,1,1,2,2,3,3,7,7,8,8,10,10,13,13],"right_children":[2,4,6,8,-1,-1,-1,10,12,-1,14,-1,-1,16,-1,-1,-1],"split_conditions":[9.7407746E-1,9.673681E-1,1E0,9.653858E-1,1.13761155E-2,-6.656865E-3,2.5272518E-3,4.9100336E-1,9.6660566E-1,4.3186485E-3,4.9649283E-1,-8.861988E-3,1.199156E-3,4.9420556E-1,3.129536E-3,-9.242654E-4,2.5712847E-4],"split_indices":[0,0,0,0,0,0,0,0,0,0,0,0,0,0,0,0,0],"split_type":[0,0,0,0,0,0,0,0,0,0,0,0,0,0,0,0,0],"sum_hessian":[1E1,7E0,3E0,6E0,1E0,2E0,1E0,4E0,2E0,1E0,3E0,1E0,1E0,2E0,1E0,1E0,1E0],"tree_param":{"num_deleted":"0","num_feature":"2","num_nodes":"17","size_leaf_vector":"1"}},{"base_weights":[5.5470695E-3,2.4924027E-2,-3.4593612E-2,-2.3934224E-3,1.0807308E-2,-6.213075E-3,2.40089E-3,2.5767976E-2,-4.853128E-2,4.1027158E-3,1.1696391E-2,-8.418889E-3,1.1391968E-3,-4.2252042E-3,2.973059E-3,-8.7805244E-4,2.4427177E-4],"categories":[],"categories_nodes":[],"categories_segments":[],"categories_sizes":[],"default_left":[0,0,0,0,0,0,0,0,0,0,0,0,0,0,0,0,0],"id":16,"left_children":[1,3,5,7,-1,-1,-1,9,11,-1,13,-1,-1,15,-1,-1,-1],"loss_changes":[9.418059E-3,1.8430026E-2,7.946672E-3,1.0345699E-2,0E0,0E0,0E0,5.937349E-4,7.369236E-3,0E0,1.2741507E-3,0E0,0E0,1.12571885E-4,0E0,0E0,0E0],"parents":[2147483647,0,0,1,1,2,2,3,3,7,7,8,8,10,10,13,13],"right_children":[2,4,6,8,-1,-1,-1,10,12,-1,14,-1,-1,16,-1,-1,-1],"split_conditions":[9.7407746E-1,9.673681E-1,1E0,9.653858E-1,1.0807308E-2,-6.213075E-3,2.40089E-3,4.9100336E-1,9.6660566E-1,4.1027158E-3,4.9649283E-1,-8.418889E-3,1.1391968E-3,4.9420556E-1,2.973059E-3,-8.7805244E-4,2.4427177E-4],"split_indices":[0,0,0,0,0,0,0,0,0,0,0,0,0,0,0,0,0],"split_type":[0,0,0,0,0,0,0,0,0,0,0,0,0,0,0,0,0],"sum_hessian":[1E1,7E0,3E0,6E0,1E0,2E0,1E0,4E0,2E0,1E0,3E0,1E0,1E0,2E0,1E0,1E0,1E0],"tree_param":{"num_deleted":"0","num_feature":"2","num_nodes":"17","size_leaf_vector":"1"}},{"base_weights":[5.552125E-3,2.367782E-2,-3.2087296E-2,-2.2737533E-3,1.0266942E-2,-5.79887E-3,2.2808462E-3,2.447958E-2,-4.6104725E-2,3.8975806E-3,1.1111572E-2,-7.997944E-3,1.0822356E-3,-4.0139356E-3,2.824405E-3,-8.3414913E-4,2.3205877E-4],"categories":[],"categories_nodes":[],"categories_segments":[],"categories_sizes":[],"default_left":[0,0,0,0,0,0,0,0,0,0,0,0,0,0,0,0,0],"id":17,"left_children":[1,3,5,7,-1,-1,-1,9,11,-1,13,-1,-1,15,-1,-1,-1],"loss_changes":[8.264405E-3,1.6633095E-2,7.0101433E-3,9.336997E-3,0E0,0E0,0E0,5.3584576E-4,6.650733E-3,0E0,1.1499195E-3,0E0,0E0,1.0159616E-4,0E0,0E0,0E0],"parents":[2147483647,0,0,1,1,2,2,3,3,7,7,8,8,10,10,13,13],"right_children":[2,4,6,8,-1,-1,-1,10,12,-1,14,-1,-1,16,-1,-1,-1],"split_conditions":[9.7407746E-1,9.673681E-1,1E0,9.653858E-1,1.0266942E-2,-5.79887E-3,2.2808462E-3,4.9100336E-1,9.6660566E-1,3.8975806E-3,4.9649283E-1,-7.997944E-3,1.0822356E-3,4.9420556E-1,2.824405E-3,-8.3414913E-4,2.3205877E-4],"split_indices":[0,0,0,0,0,0,0,0,0,0,0,0,0,0,0,0,0],"split_type":[0,0,0,0,0,0,0,0,0,0,0,0,0,0,0,0,0],"sum_hessian":[1E1,7E0,3E0,6E0,1E0,2E0,1E0,4E0,2E0,1E0,3E0,1E0,1E0,2E0,1E0,1E0,1E0],"tree_param":{"num_deleted":"0","num_feature":"2","num_nodes":"17","size_leaf_vector":"1"}},{"base_weights":[5.538099E-3,2.249392E-2,-2.9758066E-2,-2.1600744E-3,9.753594E-3,-5.4122787E-3,2.1668046E-3,2.3255592E-2,-4.3799493E-2,3.7027001E-3,1.055599E-2,-7.5980476E-3,1.0281235E-3,-3.813237E-3,2.6831836E-3,-7.924423E-4,2.2045673E-4],"categories":[],"categories_nodes":[],"categories_segments":[],"categories_sizes":[],"default_left":[0,0,0,0,0,0,0,0,0,0,0,0,0,0,0,0,0],"id":18,"left_children":[1,3,5,7,-1,-1,-1,9,11,-1,13,-1,-1,15,-1,-1,-1],"loss_changes":[7.2526056E-3,1.5011368E-2,6.1846664E-3,8.426639E-3,0E0,0E0,0E0,4.836002E-4,6.002286E-3,0E0,1.0378014E-3,0E0,0E0,9.169085E-5,0E0,0E0,0E0],"parents":[2147483647,0,0,1,1,2,2,3,3,7,7,8,8,10,10,13,13],"right_children":[2,4,6,8,-1,-1,-1,10,12,-1,14,-1,-1,16,-1,-1,-1],"split_conditions":[9.7407746E-1,9.673681E-1,1E0,9.653858E-1,9.753594E-3,-5.4122787E-3,2.1668046E-3,4.9100336E-1,9.6660566E-1,3.7027001E-3,4.9649283E-1,-7.5980476E-3,1.0281235E-3,4.9420556E-1,2.6831836E-3,-7.924423E-4,2.2045673E-4],"split_indices":[0,0,0,0,0,0,0,0,0,0,0,0,0,0,0,0,0],"split_type":[0,0,0,0,0,0,0,0,0,0,0,0,0,0,0,0,0],"sum_hessian":[1E1,7E0,3E0,6E0,1E0,2E0,1E0,4E0,2E0,1E0,3E0,1E0,1E0,2E0,1E0,1E0,1E0],"tree_param":{"num_deleted":"0","num_feature":"2","num_nodes":"17","size_leaf_vector":"1"}},{"base_weights":[5.507208E-3,2.1369224E-2,-2.7593628E-2,-2.0520708E-3,9.265915E-3,-5.0514597E-3,2.0584643E-3,2.2092814E-2,-4.1609522E-2,3.517565E-3,1.0028191E-2,-7.2181458E-3,9.767174E-4,-3.6225815E-3,2.5490255E-3,-7.528201E-4,2.0943284E-4],"categories":[],"categories_nodes":[],"categories_segments":[],"categories_sizes":[],"default_left":[0,0,0,0,0,0,0,0,0,0,0,0,0,0,0,0,0],"id":19,"left_children":[1,3,5,7,-1,-1,-1,9,11,-1,13,-1,-1,15,-1,-1,-1],"loss_changes":[6.365161E-3,1.3547761E-2,5.456995E-3,7.605042E-3,0E0,0E0,0E0,4.364492E-4,5.417064E-3,0E0,9.36617E-4,0E0,0E0,8.275075E-5,0E0,0E0,0E0],"parents":[2147483647,0,0,1,1,2,2,3,3,7,7,8,8,10,10,13,13],"right_children":[2,4,6,8,-1,-1,-1,10,12,-1,14,-1,-1,16,-1,-1,-1],"split_conditions":[9.7407746E-1,9.673681E-1,1E0,9.653858E-1,9.265915E-3,-5.0514597E-3,2.0584643E-3,4.9100336E-1,9.6660566E-1,3.517565E-3,4.9649283E-1,-7.2181458E-3,9.767174E-4,4.9420556E-1,2.5490255E-3,-7.528201E-4,2.0943284E-4],"split_indices":[0,0,0,0,0,0,0,0,0,0,0,0,0,0,0,0,0],"split_type":[0,0,0,0,0,0,0,0,0,0,0,0,0,0,0,0,0],"sum_hessian":[1E1,7E0,3E0,6E0,1E0,2E0,1E0,4E0,2E0,1E0,3E0,1E0,1E0,2E0,1E0,1E0,1E0],"tree_param":{"num_deleted":"0","num_feature":"2","num_nodes":"17","size_leaf_vector":"1"}},{"base_weights":[5.461456E-3,2.0300755E-2,-2.5582507E-2,-1.9494785E-3,8.80262E-3,-4.7146957E-3,1.955542E-3,2.098816E-2,-3.952905E-2,3.3416867E-3,9.526767E-3,-6.8572382E-3,9.278804E-4,-3.441463E-3,2.4215728E-3,-7.151798E-4,1.989603E-4],"categories":[],"categories_nodes":[],"categories_segments":[],"categories_sizes":[],"default_left":[0,0,0,0,0,0,0,0,0,0,0,0,0,0,0,0,0],"id":20,"left_children":[1,3,5,7,-1,-1,-1,9,11,-1,13,-1,-1,15,-1,-1,-1],"loss_changes":[5.5867215E-3,1.2226861E-2,4.8154765E-3,6.8635484E-3,0E0,0E0,0E0,3.9389683E-4,4.8888973E-3,0E0,8.452969E-4,0E0,0E0,7.468245E-5,0E0,0E0,0E0],"parents":[2147483647,0,0,1,1,2,2,3,3,7,7,8,8,10,10,13,13],"right_children":[2,4,6,8,-1,-1,-1,10,12,-1,14,-1,-1,16,-1,-1,-1],"split_conditions":[9.7407746E-1,9.673681E-1,1E0,9.653858E-1,8.80262E-3,-4.7146957E-3,1.955542E-3,4.9100336E-1,9.6660566E-1,3.3416867E-3,4.9649283E-1,-6.8572382E-3,9.278804E-4,4.9420556E-1,2.4215728E-3,-7.151798E-4,1.989603E-4],"split_indices":[0,0,0,0,0,0,0,0,0,0,0,0,0,0,0,0,0],"split_type":[0,0,0,0,0,0,0,0,0,0,0,0,0,0,0,0,0],"sum_hessian":[1E1,7E0,3E0,6E0,1E0,2E0,1E0,4E0,2E0,1E0,3E0,1E0,1E0,2E0,1E0,1E0,1E0],"tree_param":{"num_deleted":"0","num_feature":"2","num_nodes":"17","size_leaf_vector":"1"}},{"base_weights":[5.402691E-3,1.9285725E-2,-2.371405E-2,-1.8519993E-3,8.36249E-3,-4.4003826E-2,1.8577635E-3,1.9938756E-2,-3.755259E-2,-1.3419539E-3,-5.25862E-3,3.174603E-3,9.050429E-3,-6.5143756E-3,8.8148715E-4,-3.2693942E-3,2.300495E-3,-6.794214E-4,1.890123E-4],"categories":[],"categories_nodes":[],"categories_segments":[],"categories_sizes":[],"default_left":[0,0,0,0,0,0,0,0,0,0,0,0,0,0,0,0,0,0,0],"id":21,"left_children":[1,3,5,7,-1,9,-1,11,13,-1,-1,-1,15,-1,-1,17,-1,-1,-1],"loss_changes":[4.9038585E-3,1.1034744E-2,4.249842E-3,6.1943512E-3,0E0,8.177478E-5,0E0,3.5549235E-4,4.4122315E-3,0E0,0E0,0E0,7.628811E-4,0E0,0E0,6.740101E-5,0E0,0E0,0E0],"parents":[2147483647,0,0,1,1,2,2,3,3,5,5,7,7,8,8,12,12,15,15],"right_children":[2,4,6,8,-1,10,-1,12,14,-1,-1,-1,16,-1,-1,18,-1,-1,-1],"split_conditions":[9.7407746E-1,9.673681E-1,1E0,9.653858E-1,8.36249E-3,9.882586E-1,1.8577635E-3,4.9100336E-1,9.6660566E-1,-1.3419539E-3,-5.25862E-3,3.174603E-3,4.9649283E-1,-6.5143756E-3,8.8148715E-4,4.9420556E-1,2.300495E-3,-6.794214E-4,1.890123E-4],"split_indices":[0,0,0,0,0,0,0,0,0,0,0,0,0,0,0,0,0,0,0],"split_type":[0,0,0,0,0,0,0,0,0,0,0,0,0,0,0,0,0,0,0],"sum_hessian":[1E1,7E0,3E0,6E0,1E0,2E0,1E0,4E0,2E0,1E0,1E0,1E0,3E0,1E0,1E0,2E0,1E0,1E0,1E0],"tree_param":{"num_deleted":"0","num_feature":"2","num_nodes":"19","size_leaf_vector":"1"}},{"base_weights":[5.1325574E-3,1.8321441E-2,-2.252835E-2,-1.7593993E-3,7.944367E-3,-4.180364E-2,1.7648757E-3,1.894182E-2,-3.5674963E-2,-1.274857E-3,-4.995689E-3,3.0158728E-3,8.59791E-3,-6.188657E-3,8.374125E-4,-3.1059186E-3,2.18547E-3,-6.454498E-4,1.7956198E-4],"categories":[],"categories_nodes":[],"categories_segments":[],"categories_sizes":[],"default_left":[0,0,0,0,0,0,0,0,0,0,0,0,0,0,0,0,0,0,0],"id":22,"left_children":[1,3,5,7,-1,9,-1,11,13,-1,-1,-1,15,-1,-1,17,-1,-1,-1],"loss_changes":[4.4257334E-3,9.958858E-3,3.8354835E-3,5.5904035E-3,0E0,7.3800795E-5,0E0,3.208313E-4,3.9820382E-3,0E0,0E0,0E0,6.884996E-4,0E0,0E0,6.0829392E-5,0E0,0E0,0E0],"parents":[2147483647,0,0,1,1,2,2,3,3,5,5,7,7,8,8,12,12,15,15],"right_children":[2,4,6,8,-1,10,-1,12,14,-1,-1,-1,16,-1,-1,18,-1,-1,-1],"split_conditions":[9.7407746E-1,9.673681E-1,1E0,9.653858E-1,7.944367E-3,9.882586E-1,1.7648757E-3,4.9100336E-1,9.6660566E-1,-1.274857E-3,-4.995689E-3,3.0158728E-3,4.9649283E-1,-6.188657E-3,8.374125E-4,4.9420556E-1,2.18547E-3,-6.454498E-4,1.7956198E-4],"split_indices":[0,0,0,0,0,0,0,0,0,0,0,0,0,0,0,0,0,0,0],"split_type":[0,0,0,0,0,0,0,0,0,0,0,0,0,0,0,0,0,0,0],"sum_hessian":[1E1,7E0,3E0,6E0,1E0,2E0,1E0,4E0,2E0,1E0,1E0,1E0,3E0,1E0,1E0,2E0,1E0,1E0,1E0],"tree_param":{"num_deleted":"0","num_feature":"2","num_nodes":"19","size_leaf_vector":"1"}},{"base_weights":[4.8759324E-3,1.7405374E-2,-2.1401934E-2,-1.671427E-3,7.547149E-3,-3.9713454E-2,1.676631E-3,1.7994726E-2,-3.3891205E-2,-1.2111142E-3,-4.745904E-3,2.865079E-3,8.168012E-3,-5.8792243E-3,7.955432E-4,-2.9506285E-3,2.0761967E-3,-6.1317685E-4,1.7058254E-4],"categories":[],"categories_nodes":[],"categories_segments":[],"categories_sizes":[],"default_left":[0,0,0,0,0,0,0,0,0,0,0,0,0,0,0,0,0,0,0],"id":23,"left_children":[1,3,5,7,-1,9,-1,11,13,-1,-1,-1,15,-1,-1,17,-1,-1,-1],"loss_changes":[3.9942255E-3,8.987872E-3,3.461522E-3,5.0453367E-3,0E0,6.660493E-5,0E0,2.895504E-4,3.5937915E-3,0E0,0E0,0E0,6.2137144E-4,0E0,0E0,5.4898213E-5,0E0,0E0,0E0],"parents":[2147483647,0,0,1,1,2,2,3,3,5,5,7,7,8,8,12,12,15,15],"right_children":[2,4,6,8,-1,10,-1,12,14,-1,-1,-1,16,-1,-1,18,-1,-1,-1],"split_conditions":[9.7407746E-1,9.673681E-1,1E0,9.653858E-1,7.547149E-3,9.882586E-1,1.676631E-3,4.9100336E-1,9.6660566E-1,-1.2111142E-3,-4.745904E-3,2.865079E-3,4.9649283E-1,-5.8792243E-3,7.955432E-4,4.9420556E-1,2.0761967E-3,-6.1317685E-4,1.7058254E-4],"split_indices":[0,0,0,0,0,0,0,0,0,0,0,0,0,0,0,0,0,0,0],"split_type":[0,0,0,0,0,0,0,0,0,0,0,0,0,0,0,0,0,0,0],"sum_hessian":[1E1,7E0,3E0,6E0,1E0,2E0,1E0,4E0,2E0,1E0,1E0,1E0,3E0,1E0,1E0,2E0,1E0,1E0,1E0],"tree_param":{"num_deleted":"0","num_feature":"2","num_nodes":"19","size_leaf_vector":"1"}},{"base_weights":[4.632136E-3,1.6535105E-2,-2.0331837E-2,-1.5878571E-3,7.169792E-3,-3.7727784E-2,1.5928E-3,1.7094988E-2,-3.2196645E-2,-1.1505589E-3,-4.5086085E-3,2.7218254E-3,7.7596083E-3,-5.585263E-3,7.5576606E-4,-2.8030972E-3,1.9723864E-3,-5.825177E-4,1.6205311E-4],"categories":[],"categories_nodes":[],"categories_segments":[],"categories_sizes":[],"default_left":[0,0,0,0,0,0,0,0,0,0,0,0,0,0,0,0,0,0,0],"id":24,"left_children":[1,3,5,7,-1,9,-1,11,13,-1,-1,-1,15,-1,-1,17,-1,-1,-1],"loss_changes":[3.6047886E-3,8.111555E-3,3.1240247E-3,4.5534163E-3,0E0,6.011082E-5,0E0,2.6131968E-4,3.2433968E-3,0E0,0E0,0E0,5.607875E-4,0E0,0E0,4.9545553E-5,0E0,0E0,0E0],"parents":[2147483647,0,0,1,1,2,2,3,3,5,5,7,7,8,8,12,12,15,15],"right_children":[2,4,6,8,-1,10,-1,12,14,-1,-1,-1,16,-1,-1,18,-1,-1,-1],"split_conditions":[9.7407746E-1,9.673681E-1,1E0,9.653858E-1,7.169792E-3,9.882586E-1,1.5928E-3,4.9100336E-1,9.6660566E-1,-1.1505589E-3,-4.5086085E-3,2.7218254E-3,4.9649283E-1,-5.585263E-3,7.5576606E-4,4.9420556E-1,1.9723864E-3,-5.825177E-4,1.6205311E-4],"split_indices":[0,0,0,0,0,0,0,0,0,0,0,0,0,0,0,0,0,0,0],"split_type":[0,0,0,0,0,0,0,0,0,0,0,0,0,0,0,0,0,0,0],"sum_hessian":[1E1,7E0,3E0,6E0,1E0,2E0,1E0,4E0,2E0,1E0,1E0,1E0,3E0,1E0,1E0,2E0,1E0,1E0,1E0],"tree_param":{"num_deleted":"0","num_feature":"2","num_nodes":"19","size_leaf_vector":"1"}},{"base_weights":[4.4005243E-3,1.5708346E-2,-1.931525E-2,-1.50847E-3,6.811303E-3,-3.5841394E-2,1.5131593E-3,1.6240234E-2,-3.0586818E-2,-1.0930315E-3,-4.283178E-3,2.585733E-3,7.371627E-3,-5.3059994E-3,7.179767E-4,-2.6629467E-3,1.8737674E-3,-5.533919E-4,1.5394986E-4],"categories":[],"categories_nodes":[],"categories_segments":[],"categories_sizes":[],"default_left":[0,0,0,0,0,0,0,0,0,0,0,0,0,0,0,0,0,0,0],"id":25,"left_children":[1,3,5,7,-1,9,-1,11,13,-1,-1,-1,15,-1,-1,17,-1,-1,-1],"loss_changes":[3.253322E-3,7.3206807E-3,2.8194315E-3,4.109458E-3,0E0,5.4249307E-5,0E0,2.3584056E-4,2.9271638E-3,0E0,0E0,0E0,5.061112E-4,0E0,0E0,4.471477E-5,0E0,0E0,0E0],"parents":[2147483647,0,0,1,1,2,2,3,3,5,5,7,7,8,8,12,12,15,15],"right_children":[2,4,6,8,-1,10,-1,12,14,-1,-1,-1,16,-1,-1,18,-1,-1,-1],"split_conditions":[9.7407746E-1,9.673681E-1,1E0,9.653858E-1,6.811303E-3,9.882586E-1,1.5131593E-3,4.9100336E-1,9.6660566E-1,-1.0930315E-3,-4.283178E-3,2.585733E-3,4.9649283E-1,-5.3059994E-3,7.179767E-4,4.9420556E-1,1.8737674E-3,-5.533919E-4,1.5394986E-4],"split_indices":[0,0,0,0,0,0,0,0,0,0,0,0,0,0,0,0,0,0,0],"split_type":[0,0,0,0,0,0,0,0,0,0,0,0,0,0,0,0,0,0,0],"sum_hessian":[1E1,7E0,3E0,6E0,1E0,2E0,1E0,4E0,2E0,1E0,1E0,1E0,3E0,1E0,1E0,2E0,1E0,1E0,1E0],"tree_param":{"num_deleted":"0","num_feature":"2","num_nodes":"19","size_leaf_vector":"1"}},{"base_weights":[4.1804938E-3,1.4922924E-2,-1.8349491E-2,-1.433049E-3,6.470737E-3,-3.404932E-2,1.4375001E-3,1.5428221E-2,-2.9057482E-2,-1.03838E-3,-4.0690186E-3,2.4564476E-3,7.003039E-3,-5.040699E-3,6.8207685E-4,-2.5298E-3,1.7800778E-3,-5.2572193E-4,1.4625191E-4],"categories":[],"categories_nodes":[],"categories_segments":[],"categories_sizes":[],"default_left":[0,0,0,0,0,0,0,0,0,0,0,0,0,0,0,0,0,0,0],"id":26,"left_children":[1,3,5,7,-1,9,-1,11,13,-1,-1,-1,15,-1,-1,17,-1,-1,-1],"loss_changes":[2.936123E-3,6.606913E-3,2.5445353E-3,3.7087863E-3,0E0,4.8959628E-5,0E0,2.1284702E-4,2.6417638E-3,0E0,0E0,0E0,4.5676483E-4,0E0,0E0,4.0354964E-5,0E0,0E0,0E0],"parents":[2147483647,0,0,1,1,2,2,3,3,5,5,7,7,8,8,12,12,15,15],"right_children":[2,4,6,8,-1,10,-1,12,14,-1,-1,-1,16,-1,-1,18,-1,-1,-1],"split_conditions":[9.7407746E-1,9.673681E-1,1E0,9.653858E-1,6.470737E-3,9.882586E-1,1.4375001E-3,4.9100336E-1,9.6660566E-1,-1.03838E-3,-4.0690186E-3,2.4564476E-3,4.9649283E-1,-5.040699E-3,6.8207685E-4,4.9420556E-1,1.7800778E-3,-5.2572193E-4,1.4625191E-4],"split_indices":[0,0,0,0,0,0,0,0,0,0,0,0,0,0,0,0,0,0,0],"split_type":[0,0,0,0,0,0,0,0,0,0,0,0,0,0,0,0,0,0,0],"sum_hessian":[1E1,7E0,3E0,6E0,1E0,2E0,1E0,4E0,2E0,1E0,1E0,1E0,3E0,1E0,1E0,2E0,1E0,1E0,1E0],"tree_param":{"num_deleted":"0","num_feature":"2","num_nodes":"19","size_leaf_vector":"1"}},{"base_weights":[3.971471E-3,1.41767785E-2,-1.7432012E-2,-1.3613956E-3,6.1472E-3,-3.2346856E-2,1.3656259E-3,1.4656806E-2,-2.76046E-2,-9.864614E-4,-3.8655668E-3,2.3336262E-3,6.6528767E-3,-4.788664E-3,6.47974E-4,-2.4033189E-3,1.6910732E-3,-4.994363E-4,1.3893843E-4],"categories":[],"categories_nodes":[],"categories_segments":[],"categories_sizes":[],"default_left":[0,0,0,0,0,0,0,0,0,0,0,0,0,0,0,0,0,0,0],"id":27,"left_children":[1,3,5,7,-1,9,-1,11,13,-1,-1,-1,15,-1,-1,17,-1,-1,-1],"loss_changes":[2.6498502E-3,5.962739E-3,2.2964436E-3,3.347178E-3,0E0,4.41859E-5,0E0,1.9209541E-4,2.384193E-3,0E0,0E0,0E0,4.1223044E-4,0E0,0E0,3.6420264E-5,0E0,0E0,0E0],"parents":[2147483647,0,0,1,1,2,2,3,3,5,5,7,7,8,8,12,12,15,15],"right_children":[2,4,6,8,-1,10,-1,12,14,-1,-1,-1,16,-1,-1,18,-1,-1,-1],"split_conditions":[9.7407746E-1,9.673681E-1,1E0,9.653858E-1,6.1472E-3,9.882586E-1,1.3656259E-3,4.9100336E-1,9.6660566E-1,-9.864614E-4,-3.8655668E-3,2.3336262E-3,4.9649283E-1,-4.788664E-3,6.47974E-4,4.9420556E-1,1.6910732E-3,-4.994363E-4,1.3893843E-4],"split_indices":[0,0,0,0,0,0,0,0,0,0,0,0,0,0,0,0,0,0,0],"split_type":[0,0,0,0,0,0,0,0,0,0,0,0,0,0,0,0,0,0,0],"sum_hessian":[1E1,7E0,3E0,6E0,1E0,2E0,1E0,4E0,2E0,1E0,1E0,1E0,3E0,1E0,1E0,2E0,1E0,1E0,1E0],"tree_param":{"num_deleted":"0","num_feature":"2","num_nodes":"19","size_leaf_vector":"1"}},{"base_weights":[3.772901E-3,1.3467941E-2,-1.6560405E-2,-1.2933229E-3,5.8398396E-3,-3.0729512E-2,1.2973457E-3,1.3923967E-2,-2.6224365E-2,-9.371385E-4,-3.6722885E-3,2.2169442E-3,6.320238E-3,-4.549231E-3,6.1557593E-4,-2.283156E-3,1.6065211E-3,-4.744649E-4,1.319915E-4],"categories":[],"categories_nodes":[],"categories_segments":[],"categories_sizes":[],"default_left":[0,0,0,0,0,0,0,0,0,0,0,0,0,0,0,0,0,0,0],"id":28,"left_children":[1,3,5,7,-1,9,-1,11,13,-1,-1,-1,15,-1,-1,17,-1,-1,-1],"loss_changes":[2.391489E-3,5.3813704E-3,2.072542E-3,3.0208274E-3,0E0,3.987737E-5,0E0,1.733657E-4,2.1517347E-3,0E0,0E0,0E0,3.720387E-4,0E0,0E0,3.2869335E-5,0E0,0E0,0E0],"parents":[2147483647,0,0,1,1,2,2,3,3,5,5,7,7,8,8,12,12,15,15],"right_children":[2,4,6,8,-1,10,-1,12,14,-1,-1,-1,16,-1,-1,18,-1,-1,-1],"split_conditions":[9.7407746E-1,9.673681E-1,1E0,9.653858E-1,5.8398396E-3,9.882586E-1,1.2973457E-3,4.9100336E-1,9.6660566E-1,-9.371385E-4,-3.6722885E-3,2.2169442E-3,4.9649283E-1,-4.549231E-3,6.1557593E-4,4.9420556E-1,1.6065211E-3,-4.744649E-4,1.319915E-4],"split_indices":[0,0,0,0,0,0,0,0,0,0,0,0,0,0,0,0,0,0,0],"split_type":[0,0,0,0,0,0,0,0,0,0,0,0,0,0,0,0,0,0,0],"sum_hessian":[1E1,7E0,3E0,6E0,1E0,2E0,1E0,4E0,2E0,1E0,1E0,1E0,3E0,1E0,1E0,2E0,1E0,1E0,1E0],"tree_param":{"num_deleted":"0","num_feature":"2","num_nodes":"19","size_leaf_vector":"1"}},{"base_weights":[3.5842576E-3,1.2794547E-2,-1.5732385E-2,-1.228656E-3,5.5478485E-3,-2.9193034E-2,1.2324781E-3,1.3227773E-2,-2.4913153E-2,-8.902818E-4,-3.4886734E-3,2.1060973E-3,6.004229E-3,-4.321769E-3,5.847961E-4,-2.1689932E-3,1.5261949E-3,-4.5074226E-4,1.2539327E-4],"categories":[],"categories_nodes":[],"categories_segments":[],"categories_sizes":[],"default_left":[0,0,0,0,0,0,0,0,0,0,0,0,0,0,0,0,0,0,0],"id":29,"left_children":[1,3,5,7,-1,9,-1,11,13,-1,-1,-1,15,-1,-1,17,-1,-1,-1],"loss_changes":[2.1583193E-3,4.856688E-3,1.8704683E-3,2.726298E-3,0E0,3.59891E-5,0E0,1.5646243E-4,1.941939E-3,0E0,0E0,0E0,3.3576463E-4,0E0,0E0,2.9664814E-5,0E0,0E0,0E0],"parents":[2147483647,0,0,1,1,2,2,3,3,5,5,7,7,8,8,12,12,15,15],"right_children":[2,4,6,8,-1,10,-1,12,14,-1,-1,-1,16,-1,-1,18,-1,-1,-1],"split_conditions":[9.7407746E-1,9.673681E-1,1E0,9.653858E-1,5.5478485E-3,9.882586E-1,1.2324781E-3,4.9100336E-1,9.6660566E-1,-8.902818E-4,-3.4886734E-3,2.1060973E-3,4.9649283E-1,-4.321769E-3,5.847961E-4,4.9420556E-1,1.5261949E-3,-4.5074226E-4,1.2539327E-4],"split_indices":[0,0,0,0,0,0,0,0,0,0,0,0,0,0,0,0,0,0,0],"split_type":[0,0,0,0,0,0,0,0,0,0,0,0,0,0,0,0,0,0,0],"sum_hessian":[1E1,7E0,3E0,6E0,1E0,2E0,1E0,4E0,2E0,1E0,1E0,1E0,3E0,1E0,1E0,2E0,1E0,1E0,1E0],"tree_param":{"num_deleted":"0","num_feature":"2","num_nodes":"19","size_leaf_vector":"1"}},{"base_weights":[3.4050466E-3,1.2154827E-2,-1.4945775E-2,-1.1672186E-3,5.2704574E-3,-2.7733386E-2,1.1708528E-3,1.2566388E-2,-2.366749E-2,-8.4576756E-4,-3.3142404E-3,2.0007938E-3,5.7040155E-3,-4.1056806E-3,5.55557E-4,-2.0605524E-3,1.449886E-3,-4.2820573E-4,1.19122866E-4],"categories":[],"categories_nodes":[],"categories_segments":[],"categories_sizes":[],"default_left":[0,0,0,0,0,0,0,0,0,0,0,0,0,0,0,0,0,0,0],"id":30,"left_children":[1,3,5,7,-1,9,-1,11,13,-1,-1,-1,15,-1,-1,17,-1,-1,-1],"loss_changes":[1.9478855E-3,4.383162E-3,1.6880964E-3,2.460484E-3,0E0,3.248034E-5,0E0,1.4120789E-4,1.7526009E-3,0E0,0E0,0E0,3.0302833E-4,0E0,0E0,2.6772454E-5,0E0,0E0,0E0],"parents":[2147483647,0,0,1,1,2,2,3,3,5,5,7,7,8,8,12,12,15,15],"right_children":[2,4,6,8,-1,10,-1,12,14,-1,-1,-1,16,-1,-1,18,-1,-1,-1],"split_conditions":[9.7407746E-1,9.673681E-1,1E0,9.653858E-1,5.2704574E-3,9.882586E-1,1.1708528E-3,4.9100336E-1,9.6660566E-1,-8.4576756E-4,-3.3142404E-3,2.0007938E-3,4.9649283E-1,-4.1056806E-3,5.55557E-4,4.9420556E-1,1.449886E-3,-4.2820573E-4,1.19122866E-4],"split_indices":[0,0,0,0,0,0,0,0,0,0,0,0,0,0,0,0,0,0,0],"split_type":[0,0,0,0,0,0,0,0,0,0,0,0,0,0,0,0,0,0,0],"sum_hessian":[1E1,7E0,3E0,6E0,1E0,2E0,1E0,4E0,2E0,1E0,1E0,1E0,3E0,1E0,1E0,2E0,1E0,1E0,1E0],"tree_param":{"num_deleted":"0","num_feature":"2","num_nodes":"19","size_leaf_vector":"1"}},{"base_weights":[3.2347848E-3,1.1547076E-2,-1.4198493E-2,-1.1088656E-3,5.006933E-3,-2.6346719E-2,1.1123092E-3,1.193806E-2,-2.2484118E-2,-8.034796E-4,-3.1485283E-3,1.9007534E-3,5.4188073E-3,-3.9003962E-3,5.277783E-4,-1.9575357E-3,1.3773919E-3,-4.0679573E-4,1.1316538E-4],"categories":[],"categories_nodes":[],"categories_segments":[],"categories_sizes":[],"default_left":[0,0,0,0,0,0,0,0,0,0,0,0,0,0,0,0,0,0,0],"id":31,"left_children":[1,3,5,7,-1,9,-1,11,13,-1,-1,-1,15,-1,-1,17,-1,-1,-1],"loss_changes":[1.7579664E-3,3.955804E-3,1.5235061E-3,2.220586E-3,0E0,2.9313145E-5,0E0,1.2744026E-4,1.5817211E-3,0E0,0E0,0E0,2.734836E-4,0E0,0E0,2.4161996E-5,0E0,0E0,0E0],"parents":[2147483647,0,0,1,1,2,2,3,3,5,5,7,7,8,8,12,12,15,15],"right_children":[2,4,6,8,-1,10,-1,12,14,-1,-1,-1,16,-1,-1,18,-1,-1,-1],"split_conditions":[9.7407746E-1,9.673681E-1,1E0,9.653858E-1,5.006933E-3,9.882586E-1,1.1123092E-3,4.9100336E-1,9.6660566E-1,-8.034796E-4,-3.1485283E-3,1.9007534E-3,4.9649283E-1,-3.9003962E-3,5.277783E-4,4.9420556E-1,1.3773919E-3,-4.0679573E-4,1.1316538E-4],"split_indices":[0,0,0,0,0,0,0,0,0,0,0,0,0,0,0,0,0,0,0],"split_type":[0,0,0,0,0,0,0,0,0,0,0,0,0,0,0,0,0,0,0],"sum_hessian":[1E1,7E0,3E0,6E0,1E0,2E0,1E0,4E0,2E0,1E0,1E0,1E0,3E0,1E0,1E0,2E0,1E0,1E0,1E0],"tree_param":{"num_deleted":"0","num_feature":"2","num_nodes":"19","size_leaf_vector":"1"}},{"base_weights":[3.0730462E-3,1.0969721E-2,-1.3488565E-2,-1.053427E-3,4.756588E-3,-2.5029385E-2,1.056695E-3,1.1341155E-2,-2.135992E-2,-7.6330604E-4,-2.991102E-3,1.8057168E-3,5.1478595E-3,-3.7053765E-3,5.0138833E-4,-1.8596649E-3,1.3085216E-3,-3.8645565E-4,1.0750592E-4],"categories":[],"categories_nodes":[],"categories_segments":[],"categories_sizes":[],"default_left":[0,0,0,0,0,0,0,0,0,0,0,0,0,0,0,0,0,0,0],"id":32,"left_children":[1,3,5,7,-1,9,-1,11,13,-1,-1,-1,15,-1,-1,17,-1,-1,-1],"loss_changes":[1.5865639E-3,3.5701154E-3,1.3749658E-3,2.0040795E-3,0E0,2.64548E-5,0E0,1.15015486E-4,1.4275025E-3,0E0,0E0,0E0,2.46819E-4,0E0,0E0,2.1806038E-5,0E0,0E0,0E0],"parents":[2147483647,0,0,1,1,2,2,3,3,5,5,7,7,8,8,12,12,15,15],"right_children":[2,4,6,8,-1,10,-1,12,14,-1,-1,-1,16,-1,-1,18,-1,-1,-1],"split_conditions":[9.7407746E-1,9.673681E-1,1E0,9.653858E-1,4.756588E-3,9.882586E-1,1.056695E-3,4.9100336E-1,9.6660566E-1,-7.6330604E-4,-2.991102E-3,1.8057168E-3,4.9649283E-1,-3.7053765E-3,5.0138833E-4,4.9420556E-1,1.3085216E-3,-3.8645565E-4,1.0750592E-4],"split_indices":[0,0,0,0,0,0,0,0,0,0,0,0,0,0,0,0,0,0,0],"split_type":[0,0,0,0,0,0,0,0,0,0,0,0,0,0,0,0,0,0,0],"sum_hessian":[1E1,7E0,3E0,6E0,1E0,2E0,1E0,4E0,2E0,1E0,1E0,1E0,3E0,1E0,1E0,2E0,1E0,1E0,1E0],"tree_param":{"num_deleted":"0","num_feature":"2","num_nodes":"19","size_leaf_vector":"1"}},{"base_weights":[2.9193948E-3,1.0421235E-2,-1.2814134E-2,-1.0007577E-3,4.5187594E-3,-2.3777923E-2,1.0038614E-3,1.0774094E-2,-2.0291924E-2,-7.251412E-4,-2.8415471E-3,1.7154306E-3,4.8904642E-3,-3.5201074E-3,4.7631862E-4,-1.7666916E-3,1.2430967E-3,-3.6713333E-4,1.0212958E-4],"categories":[],"categories_nodes":[],"categories_segments":[],"categories_sizes":[],"default_left":[0,0,0,0,0,0,0,0,0,0,0,0,0,0,0,0,0,0,0],"id":33,"left_children":[1,3,5,7,-1,9,-1,11,13,-1,-1,-1,15,-1,-1,17,-1,-1,-1],"loss_changes":[1.4318738E-3,3.2220304E-3,1.2409082E-3,1.8086814E-3,0E0,2.387527E-5,0E0,1.0380155E-4,1.2883203E-3,0E0,0E0,0E0,2.2275487E-4,0E0,0E0,1.9679868E-5,0E0,0E0,0E0],"parents":[2147483647,0,0,1,1,2,2,3,3,5,5,7,7,8,8,12,12,15,15],"right_children":[2,4,6,8,-1,10,-1,12,14,-1,-1,-1,16,-1,-1,18,-1,-1,-1],"split_conditions":[9.7407746E-1,9.673681E-1,1E0,9.653858E-1,4.5187594E-3,9.882586E-1,1.0038614E-3,4.9100336E-1,9.6660566E-1,-7.251412E-4,-2.8415471E-3,1.7154306E-3,4.9649283E-1,-3.5201074E-3,4.7631862E-4,4.9420556E-1,1.2430967E-3,-3.6713333E-4,1.0212958E-4],"split_indices":[0,0,0,0,0,0,0,0,0,0,0,0,0,0,0,0,0,0,0],"split_type":[0,0,0,0,0,0,0,0,0,0,0,0,0,0,0,0,0,0,0],"sum_hessian":[1E1,7E0,3E0,6E0,1E0,2E0,1E0,4E0,2E0,1E0,1E0,1E0,3E0,1E0,1E0,2E0,1E0,1E0,1E0],"tree_param":{"num_deleted":"0","num_feature":"2","num_nodes":"19","size_leaf_vector":"1"}},{"base_weights":[2.77343E-3,9.900179E-3,-1.2173425E-2,-9.507154E-4,4.292822E-3,-2.2589022E-2,9.536684E-4,1.0235393E-2,-1.9277325E-2,-6.8888365E-4,-2.69947E-3,1.6296596E-3,4.6459436E-3,-3.3441023E-3,4.5250356E-4,-1.6783476E-3,1.1809409E-3,-3.4877658E-4,9.7024444E-5],"categories":[],"categories_nodes":[],"categories_segments":[],"categories_sizes":[],"default_left":[0,0,0,0,0,0,0,0,0,0,0,0,0,0,0,0,0,0,0],"id":34,"left_children":[1,3,5,7,-1,9,-1,11,13,-1,-1,-1,15,-1,-1,17,-1,-1,-1],"loss_changes":[1.2922664E-3,2.9078824E-3,1.1199196E-3,1.632335E-3,0E0,2.1547545E-5,0E0,9.3680865E-5,1.1627103E-3,0E0,0E0,0E0,2.0103567E-4,0E0,0E0,1.7761216E-5,0E0,0E0,0E0],"parents":[2147483647,0,0,1,1,2,2,3,3,5,5,7,7,8,8,12,12,15,15],"right_children":[2,4,6,8,-1,10,-1,12,14,-1,-1,-1,16,-1,-1,18,-1,-1,-1],"split_conditions":[9.7407746E-1,9.673681E-1,1E0,9.653858E-1,4.292822E-3,9.882586E-1,9.536684E-4,4.9100336E-1,9.6660566E-1,-6.8888365E-4,-2.69947E-3,1.6296596E-3,4.9649283E-1,-3.3441023E-3,4.5250356E-4,4.9420556E-1,1.1809409E-3,-3.4877658E-4,9.7024444E-5],"split_indices":[0,0,0,0,0,0,0,0,0,0,0,0,0,0,0,0,0,0,0],"split_type":[0,0,0,0,0,0,0,0,0,0,0,0,0,0,0,0,0,0,0],"sum_hessian":[1E1,7E0,3E0,6E0,1E0,2E0,1E0,4E0,2E0,1E0,1E0,1E0,3E0,1E0,1E0,2E0,1E0,1E0,1E0],"tree_param":{"num_deleted":"0","num_feature":"2","num_nodes":"19","size_leaf_vector":"1"}},{"base_weights":[2.6347528E-3,9.405164E-3,-1.1564758E-2,-9.031828E-4,4.0781796E-3,-2.1459574E-2,9.0598466E-4,9.723621E-3,-1.8313462E-2,-6.544396E-4,-2.5644966E-3,1.548177E-3,4.413642E-3,-3.176897E-3,4.2987763E-4,-1.5944341E-3,1.1218935E-3,-3.3133777E-4,9.2172624E-5],"categories":[],"categories_nodes":[],"categories_segments":[],"categories_sizes":[],"default_left":[0,0,0,0,0,0,0,0,0,0,0,0,0,0,0,0,0,0,0],"id":35,"left_children":[1,3,5,7,-1,9,-1,11,13,-1,-1,-1,15,-1,-1,17,-1,-1,-1],"loss_changes":[1.1662702E-3,2.6243632E-3,1.0107273E-3,1.4731827E-3,0E0,1.9446714E-5,0E0,8.45473E-5,1.0493454E-3,0E0,0E0,0E0,1.8143473E-4,0E0,0E0,1.6029438E-5,0E0,0E0,0E0],"parents":[2147483647,0,0,1,1,2,2,3,3,5,5,7,7,8,8,12,12,15,15],"right_children":[2,4,6,8,-1,10,-1,12,14,-1,-1,-1,16,-1,-1,18,-1,-1,-1],"split_conditions":[9.7407746E-1,9.673681E-1,1E0,9.653858E-1,4.0781796E-3,9.882586E-1,9.0598466E-4,4.9100336E-1,9.6660566E-1,-6.544396E-4,-2.5644966E-3,1.548177E-3,4.9649283E-1,-3.176897E-3,4.2987763E-4,4.9420556E-1,1.1218935E-3,-3.3133777E-4,9.2172624E-5],"split_indices":[0,0,0,0,0,0,0,0,0,0,0,0,0,0,0,0,0,0,0],"split_type":[0,0,0,0,0,0,0,0,0,0,0,0,0,0,0,0,0,0,0],"sum_hessian":[1E1,7E0,3E0,6E0,1E0,2E0,1E0,4E0,2E0,1E0,1E0,1E0,3E0,1E0,1E0,2E0,1E0,1E0,1E0],"tree_param":{"num_deleted":"0","num_feature":"2","num_nodes":"19","size_leaf_vector":"1"}},{"base_weights":[2.5030212E-3,8.934917E-3,-1.0986526E-2,-8.5801526E-4,3.874272E-3,-2.03866E-2,8.6068513E-4,9.237451E-3,-1.7397786E-2,-6.217182E-4,-2.436272E-3,1.4707685E-3,4.1929707E-3,-3.018052E-3,4.0838422E-4,-1.514703E-3,1.0657996E-3,-3.1477064E-4,8.756518E-5],"categories":[],"categories_nodes":[],"categories_segments":[],"categories_sizes":[],"default_left":[0,0,0,0,0,0,0,0,0,0,0,0,0,0,0,0,0,0,0],"id":36,"left_children":[1,3,5,7,-1,9,-1,11,13,-1,-1,-1,15,-1,-1,17,-1,-1,-1],"loss_changes":[1.0525606E-3,2.368488E-3,9.1218133E-4,1.329548E-3,0E0,1.7550425E-5,0E0,7.630352E-5,9.470344E-4,0E0,0E0,0E0,1.637447E-4,0E0,0E0,1.44666665E-5,0E0,0E0,0E0],"parents":[2147483647,0,0,1,1,2,2,3,3,5,5,7,7,8,8,12,12,15,15],"right_children":[2,4,6,8,-1,10,-1,12,14,-1,-1,-1,16,-1,-1,18,-1,-1,-1],"split_conditions":[9.7407746E-1,9.673681E-1,1E0,9.653858E-1,3.874272E-3,9.882586E-1,8.6068513E-4,4.9100336E-1,9.6660566E-1,-6.217182E-4,-2.436272E-3,1.4707685E-3,4.9649283E-1,-3.018052E-3,4.0838422E-4,4.9420556E-1,1.0657996E-3,-3.1477064E-4,8.756518E-5],"split_indices":[0,0,0,0,0,0,0,0,0,0,0,0,0,0,0,0,0,0,0],"split_type":[0,0,0,0,0,0,0,0,0,0,0,0,0,0,0,0,0,0,0],"sum_hessian":[1E1,7E0,3E0,6E0,1E0,2E0,1E0,4E0,2E0,1E0,1E0,1E0,3E0,1E0,1E0,2E0,1E0,1E0,1E0],"tree_param":{"num_deleted":"0","num_feature":"2","num_nodes":"19","size_leaf_vector":"1"}},{"base_weights":[2.3778663E-3,8.488169E-3,-1.0437205E-2,-8.1511267E-4,3.680557E-3,-1.9367278E-2,8.176506E-4,8.775586E-3,-1.6527906E-2,-5.9063284E-4,-2.3144588E-3,1.3972312E-3,3.9833263E-3,-2.8671497E-3,3.8796366E-4,-1.4389654E-3,1.01251E-3,-2.9903205E-4,8.3187224E-5],"categories":[],"categories_nodes":[],"categories_segments":[],"categories_sizes":[],"default_left":[0,0,0,0,0,0,0,0,0,0,0,0,0,0,0,0,0,0,0],"id":37,"left_children":[1,3,5,7,-1,9,-1,11,13,-1,-1,-1,15,-1,-1,17,-1,-1,-1],"loss_changes":[9.4993645E-4,2.1375588E-3,8.2324375E-4,1.1999187E-3,0E0,1.5839003E-5,0E0,6.886403E-5,8.546975E-4,0E0,0E0,0E0,1.4777963E-4,0E0,0E0,1.3056191E-5,0E0,0E0,0E0],"parents":[2147483647,0,0,1,1,2,2,3,3,5,5,7,7,8,8,12,12,15,15],"right_children":[2,4,6,8,-1,10,-1,12,14,-1,-1,-1,16,-1,-1,18,-1,-1,-1],"split_conditions":[9.7407746E-1,9.673681E-1,1E0,9.653858E-1,3.680557E-3,9.882586E-1,8.176506E-4,4.9100336E-1,9.6660566E-1,-5.9063284E-4,-2.3144588E-3,1.3972312E-3,4.9649283E-1,-2.8671497E-3,3.8796366E-4,4.9420556E-1,1.01251E-3,-2.9903205E-4,8.3187224E-5],"split_indices":[0,0,0,0,0,0,0,0,0,0,0,0,0,0,0,0,0,0,0],"split_type":[0,0,0,0,0,0,0,0,0,0,0,0,0,0,0,0,0,0,0],"sum_hessian":[1E1,7E0,3E0,6E0,1E0,2E0,1E0,4E0,2E0,1E0,1E0,1E0,3E0,1E0,1E0,2E0,1E0,1E0,1E0],"tree_param":{"num_deleted":"0","num_feature":"2","num_nodes":"19","size_leaf_vector":"1"}},{"base_weights":[2.258966E-3,8.063752E-3,-9.915348E-3,-7.7436224E-4,3.4965277E-3,-1.8398916E-2,7.7676773E-4,8.3368E-3,-1.5701512E-2,-5.6110177E-4,-2.1987357E-3,1.3273687E-3,3.7841573E-3,-2.7237923E-3,3.6856532E-4,-1.3670226E-3,9.6188486E-4,-2.8408022E-4,7.902682E-5],"categories":[],"categories_nodes":[],"categories_segments":[],"categories_sizes":[],"default_left":[0,0,0,0,0,0,0,0,0,0,0,0,0,0,0,0,0,0,0],"id":38,"left_children":[1,3,5,7,-1,9,-1,11,13,-1,-1,-1,15,-1,-1,17,-1,-1,-1],"loss_changes":[8.573171E-4,1.9291458E-3,7.429775E-4,1.0829262E-3,0E0,1.42944045E-5,0E0,6.214969E-5,7.713644E-4,0E0,0E0,0E0,1.3337136E-4,0E0,0E0,1.1783108E-5,0E0,0E0,0E0],"parents":[2147483647,0,0,1,1,2,2,3,3,5,5,7,7,8,8,12,12,15,15],"right_children":[2,4,6,8,-1,10,-1,12,14,-1,-1,-1,16,-1,-1,18,-1,-1,-1],"split_conditions":[9.7407746E-1,9.673681E-1,1E0,9.653858E-1,3.4965277E-3,9.882586E-1,7.7676773E-4,4.9100336E-1,9.6660566E-1,-5.6110177E-4,-2.1987357E-3,1.3273687E-3,4.9649283E-1,-2.7237923E-3,3.6856532E-4,4.9420556E-1,9.6188486E-4,-2.8408022E-4,7.902682E-5],"split_indices":[0,0,0,0,0,0,0,0,0,0,0,0,0,0,0,0,0,0,0],"split_type":[0,0,0,0,0,0,0,0,0,0,0,0,0,0,0,0,0,0,0],"sum_hessian":[1E1,7E0,3E0,6E0,1E0,2E0,1E0,4E0,2E0,1E0,1E0,1E0,3E0,1E0,1E0,2E0,1E0,1E0,1E0],"tree_param":{"num_deleted":"0","num_feature":"2","num_nodes":"19","size_leaf_vector":"1"}},{"base_weights":[2.1460152E-3,7.660562E-3,-9.419583E-3,-7.356469E-4,3.3217014E-3,-1.7478973E-2,7.3792937E-4,7.9199495E-3,-1.4916425E-2,-5.330473E-4,-2.0887987E-3,1.2609989E-3,3.5949424E-3,-2.5876022E-3,3.5013855E-4,-1.2986759E-3,9.137899E-4,-2.6987641E-4,7.507503E-5],"categories":[],"categories_nodes":[],"categories_segments":[],"categories_sizes":[],"default_left":[0,0,0,0,0,0,0,0,0,0,0,0,0,0,0,0,0,0,0],"id":39,"left_children":[1,3,5,7,-1,9,-1,11,13,-1,-1,-1,15,-1,-1,17,-1,-1,-1],"loss_changes":[7.737287E-4,1.7410545E-3,6.705373E-4,9.773389E-4,0E0,1.2900331E-5,0E0,5.6090095E-5,6.961573E-4,0E0,0E0,0E0,1.2036761E-4,0E0,0E0,1.063423E-5,0E0,0E0,0E0],"parents":[2147483647,0,0,1,1,2,2,3,3,5,5,7,7,8,8,12,12,15,15],"right_children":[2,4,6,8,-1,10,-1,12,14,-1,-1,-1,16,-1,-1,18,-1,-1,-1],"split_conditions":[9.7407746E-1,9.673681E-1,1E0,9.653858E-1,3.3217014E-3,9.882586E-1,7.3792937E-4,4.9100336E-1,9.6660566E-1,-5.330473E-4,-2.0887987E-3,1.2609989E-3,4.9649283E-1,-2.5876022E-3,3.5013855E-4,4.9420556E-1,9.137899E-4,-2.6987641E-4,7.507503E-5],"split_indices":[0,0,0,0,0,0,0,0,0,0,0,0,0,0,0,0,0,0,0],"split_type":[0,0,0,0,0,0,0,0,0,0,0,0,0,0,0,0,0,0,0],"sum_hessian":[1E1,7E0,3E0,6E0,1E0,2E0,1E0,4E0,2E0,1E0,1E0,1E0,3E0,1E0,1E0,2E0,1E0,1E0,1E0],"tree_param":{"num_deleted":"0","num_feature":"2","num_nodes":"19","size_leaf_vector":"1"}},{"base_weights":[2.0387159E-3,7.2775334E-3,-8.948598E-3,-6.9886446E-4,3.1556159E-3,-1.6605025E-2,7.010341E-4,7.523948E-3,-1.4170597E-2,-5.063951E-4,-1.9843585E-3,1.197949E-3,3.4151897E-3,-2.4582222E-3,3.3263266E-4,-1.2337466E-3,8.680999E-4,-2.5638193E-4,7.131994E-5],"categories":[],"categories_nodes":[],"categories_segments":[],"categories_sizes":[],"default_left":[0,0,0,0,0,0,0,0,0,0,0,0,0,0,0,0,0,0,0],"id":40,"left_children":[1,3,5,7,-1,9,-1,11,13,-1,-1,-1,15,-1,-1,17,-1,-1,-1],"loss_changes":[6.982896E-4,1.5713013E-3,6.051606E-4,8.820475E-4,0E0,1.16424635E-5,0E0,5.0621515E-5,6.282827E-4,0E0,0E0,0E0,1.0863181E-4,0E0,0E0,9.597252E-6,0E0,0E0,0E0],"parents":[2147483647,0,0,1,1,2,2,3,3,5,5,7,7,8,8,12,12,15,15],"right_children":[2,4,6,8,-1,10,-1,12,14,-1,-1,-1,16,-1,-1,18,-1,-1,-1],"split_conditions":[9.7407746E-1,9.673681E-1,1E0,9.653858E-1,3.1556159E-3,9.882586E-1,7.010341E-4,4.9100336E-1,9.6660566E-1,-5.063951E-4,-1.9843585E-3,1.197949E-3,4.9649283E-1,-2.4582222E-3,3.3263266E-4,4.9420556E-1,8.680999E-4,-2.5638193E-4,7.131994E-5],"split_indices":[0,0,0,0,0,0,0,0,0,0,0,0,0,0,0,0,0,0,0],"split_type":[0,0,0,0,0,0,0,0,0,0,0,0,0,0,0,0,0,0,0],"sum_hessian":[1E1,7E0,3E0,6E0,1E0,2E0,1E0,4E0,2E0,1E0,1E0,1E0,3E0,1E0,1E0,2E0,1E0,1E0,1E0],"tree_param":{"num_deleted":"0","num_feature":"2","num_nodes":"19","size_leaf_vector":"1"}},{"base_weights":[1.9367852E-3,6.91366E-3,-8.501161E-3,-6.6392124E-4,2.9978366E-3,-1.5774772E-2,6.659836E-4,7.147753E-3,-1.3462071E-2,-4.8107505E-4,-1.8851407E-3,1.1380523E-3,3.2444298E-3,-2.3353107E-3,3.16E-4,-1.1720657E-3,8.2469586E-4,-2.4356246E-4,6.7752604E-5],"categories":[],"categories_nodes":[],"categories_segments":[],"categories_sizes":[],"default_left":[0,0,0,0,0,0,0,0,0,0,0,0,0,0,0,0,0,0,0],"id":41,"left_children":[1,3,5,7,-1,9,-1,11,13,-1,-1,-1,15,-1,-1,17,-1,-1,-1],"loss_changes":[6.30206E-4,1.4181008E-3,5.461582E-4,7.9604844E-4,0E0,1.0507472E-5,0E0,4.568603E-5,5.670243E-4,0E0,0E0,0E0,9.804056E-5,0E0,0E0,8.661404E-6,0E0,0E0,0E0],"parents":[2147483647,0,0,1,1,2,2,3,3,5,5,7,7,8,8,12,12,15,15],"right_children":[2,4,6,8,-1,10,-1,12,14,-1,-1,-1,16,-1,-1,18,-1,-1,-1],"split_conditions":[9.7407746E-1,9.673681E-1,1E0,9.653858E-1,2.9978366E-3,9.882586E-1,6.659836E-4,4.9100336E-1,9.6660566E-1,-4.8107505E-4,-1.8851407E-3,1.1380523E-3,4.9649283E-1,-2.3353107E-3,3.16E-4,4.9420556E-1,8.2469586E-4,-2.4356246E-4,6.7752604E-5],"split_indices":[0,0,0,0,0,0,0,0,0,0,0,0,0,0,0,0,0,0,0],"split_type":[0,0,0,0,0,0,0,0,0,0,0,0,0,0,0,0,0,0,0],"sum_hessian":[1E1,7E0,3E0,6E0,1E0,2E0,1E0,4E0,2E0,1E0,1E0,1E0,3E0,1E0,1E0,2E0,1E0,1E0,1E0],"tree_param":{"num_deleted":"0","num_feature":"2","num_nodes":"19","size_leaf_vector":"1"}},{"base_weights":[1.8399493E-3,6.567979E-3,-8.076098E-3,-6.307257E-4,2.8479458E-3,-1.4986034E-2,6.3268543E-4,6.7903697E-3,-1.2788977E-2,-4.570216E-4,-1.7908834E-3,1.0811508E-3,3.0822083E-3,-2.2185452E-3,3.001988E-4,-1.1134645E-3,7.834613E-4,-2.3138375E-4,6.4364074E-5],"categories":[],"categories_nodes":[],"categories_segments":[],"categories_sizes":[],"default_left":[0,0,0,0,0,0,0,0,0,0,0,0,0,0,0,0,0,0,0],"id":42,"left_children":[1,3,5,7,-1,9,-1,11,13,-1,-1,-1,15,-1,-1,17,-1,-1,-1],"loss_changes":[5.687607E-4,1.2798368E-3,4.9290835E-4,7.1843463E-4,0E0,9.482785E-6,0E0,4.123182E-5,5.1173876E-4,0E0,0E0,0E0,8.8481705E-5,0E0,0E0,7.816824E-6,0E0,0E0,0E0],"parents":[2147483647,0,0,1,1,2,2,3,3,5,5,7,7,8,8,12,12,15,15],"right_children":[2,4,6,8,-1,10,-1,12,14,-1,-1,-1,16,-1,-1,18,-1,-1,-1],"split_conditions":[9.7407746E-1,9.673681E-1,1E0,9.653858E-1,2.8479458E-3,9.882586E-1,6.3268543E-4,4.9100336E-1,9.6660566E-1,-4.570216E-4,-1.7908834E-3,1.0811508E-3,4.9649283E-1,-2.2185452E-3,3.001988E-4,4.9420556E-1,7.834613E-4,-2.3138375E-4,6.4364074E-5],"split_indices":[0,0,0,0,0,0,0,0,0,0,0,0,0,0,0,0,0,0,0],"split_type":[0,0,0,0,0,0,0,0,0,0,0,0,0,0,0,0,0,0,0],"sum_hessian":[1E1,7E0,3E0,6E0,1E0,2E0,1E0,4E0,2E0,1E0,1E0,1E0,3E0,1E0,1E0,2E0,1E0,1E0,1E0],"tree_param":{"num_deleted":"0","num_feature":"2","num_nodes":"19","size_leaf_vector":"1"}},{"base_weights":[1.7479442E-3,6.2395725E-3,-7.6722987E-3,-5.9919484E-4,2.7055473E-3,-1.4236733E-2,6.0105027E-4,6.4508496E-3,-1.2149538E-2,-4.3417068E-4,-1.7013394E-3,1.0270923E-3,2.9281005E-3,-2.1076181E-3,2.8518736E-4,-1.0577937E-3,7.442892E-4,-2.1981448E-4,6.114542E-5],"categories":[],"categories_nodes":[],"categories_segments":[],"categories_sizes":[],"default_left":[0,0,0,0,0,0,0,0,0,0,0,0,0,0,0,0,0,0,0],"id":43,"left_children":[1,3,5,7,-1,9,-1,11,13,-1,-1,-1,15,-1,-1,17,-1,-1,-1],"loss_changes":[5.133064E-4,1.1550523E-3,4.448493E-4,6.483879E-4,0E0,8.558214E-6,0E0,3.7211503E-5,4.618433E-4,0E0,0E0,0E0,7.985496E-5,0E0,0E0,7.054652E-6,0E0,0E0,0E0],"parents":[2147483647,0,0,1,1,2,2,3,3,5,5,7,7,8,8,12,12,15,15],"right_children":[2,4,6,8,-1,10,-1,12,14,-1,-1,-1,16,-1,-1,18,-1,-1,-1],"split_conditions":[9.7407746E-1,9.673681E-1,1E0,9.653858E-1,2.7055473E-3,9.882586E-1,6.0105027E-4,4.9100336E-1,9.6660566E-1,-4.3417068E-4,-1.7013394E-3,1.0270923E-3,4.9649283E-1,-2.1076181E-3,2.8518736E-4,4.9420556E-1,7.442892E-4,-2.1981448E-4,6.114542E-5],"split_indices":[0,0,0,0,0,0,0,0,0,0,0,0,0,0,0,0,0,0,0],"split_type":[0,0,0,0,0,0,0,0,0,0,0,0,0,0,0,0,0,0,0],"sum_hessian":[1E1,7E0,3E0,6E0,1E0,2E0,1E0,4E0,2E0,1E0,1E0,1E0,3E0,1E0,1E0,2E0,1E0,1E0,1E0],"tree_param":{"num_deleted":"0","num_feature":"2","num_nodes":"19","size_leaf_vector":"1"}},{"base_weights":[1.6605407E-3,5.927587E-3,-7.288687E-3,-5.6923926E-4,2.5702685E-3,-1.35249E-2,5.709976E-4,6.128305E-3,-1.1542067E-2,-4.1246266E-4,-1.6162724E-3,9.75737E-4,2.7816966E-3,-2.0022371E-3,2.7092695E-4,-1.0049045E-3,7.07075E-4,-2.0882339E-4,5.8087706E-5],"categories":[],"categories_nodes":[],"categories_segments":[],"categories_sizes":[],"default_left":[0,0,0,0,0,0,0,0,0,0,0,0,0,0,0,0,0,0,0],"id":44,"left_children":[1,3,5,7,-1,9,-1,11,13,-1,-1,-1,15,-1,-1,17,-1,-1,-1],"loss_changes":[4.632588E-4,1.042434E-3,4.0147657E-4,5.851703E-4,0E0,7.723633E-6,0E0,3.3583245E-5,4.1681298E-4,0E0,0E0,0E0,7.206916E-5,0E0,0E0,6.3667776E-6,0E0,0E0,0E0],"parents":[2147483647,0,0,1,1,2,2,3,3,5,5,7,7,8,8,12,12,15,15],"right_children":[2,4,6,8,-1,10,-1,12,14,-1,-1,-1,16,-1,-1,18,-1,-1,-1],"split_conditions":[9.7407746E-1,9.673681E-1,1E0,9.653858E-1,2.5702685E-3,9.882586E-1,5.709976E-4,4.9100336E-1,9.6660566E-1,-4.1246266E-4,-1.6162724E-3,9.75737E-4,4.9649283E-1,-2.0022371E-3,2.7092695E-4,4.9420556E-1,7.07075E-4,-2.0882339E-4,5.8087706E-5],"split_indices":[0,0,0,0,0,0,0,0,0,0,0,0,0,0,0,0,0,0,0],"split_type":[0,0,0,0,0,0,0,0,0,0,0,0,0,0,0,0,0,0,0],"sum_hessian":[1E1,7E0,3E0,6E0,1E0,2E0,1E0,4E0,2E0,1E0,1E0,1E0,3E0,1E0,1E0,2E0,1E0,1E0,1E0],"tree_param":{"num_deleted":"0","num_feature":"2","num_nodes":"19","size_leaf_vector":"1"}},{"base_weights":[1.5775114E-3,5.6312066E-3,-6.9242567E-3,-5.4077804E-4,2.441755E-3,-1.2848656E-2,5.42447E-4,5.8218837E-3,-1.0964955E-2,-3.9183945E-4,-1.5354588E-3,9.269506E-4,2.6426017E-3,-1.9021251E-3,2.573818E-4,-9.5466775E-4,6.7172054E-4,-1.9838214E-4,5.518198E-5],"categories":[],"categories_nodes":[],"categories_segments":[],"categories_sizes":[],"default_left":[0,0,0,0,0,0,0,0,0,0,0,0,0,0,0,0,0,0,0],"id":45,"left_children":[1,3,5,7,-1,9,-1,11,13,-1,-1,-1,15,-1,-1,17,-1,-1,-1],"loss_changes":[4.1809125E-4,9.4079657E-4,3.6233227E-4,5.2811526E-4,0E0,6.9706E-6,0E0,3.0309195E-5,3.7617426E-4,0E0,0E0,0E0,6.5042484E-5,0E0,0E0,5.745934E-6,0E0,0E0,0E0],"parents":[2147483647,0,0,1,1,2,2,3,3,5,5,7,7,8,8,12,12,15,15],"right_children":[2,4,6,8,-1,10,-1,12,14,-1,-1,-1,16,-1,-1,18,-1,-1,-1],"split_conditions":[9.7407746E-1,9.673681E-1,1E0,9.653858E-1,2.441755E-3,9.882586E-1,5.42447E-4,4.9100336E-1,9.6660566E-1,-3.9183945E-4,-1.5354588E-3,9.269506E-4,4.9649283E-1,-1.9021251E-3,2.573818E-4,4.9420556E-1,6.7172054E-4,-1.9838214E-4,5.518198E-5],"split_indices":[0,0,0,0,0,0,0,0,0,0,0,0,0,0,0,0,0,0,0],"split_type":[0,0,0,0,0,0,0,0,0,0,0,0,0,0,0,0,0,0,0],"sum_hessian":[1E1,7E0,3E0,6E0,1E0,2E0,1E0,4E0,2E0,1E0,1E0,1E0,3E0,1E0,1E0,2E0,1E0,1E0,1E0],"tree_param":{"num_deleted":"0","num_feature":"2","num_nodes":"19","size_leaf_vector":"1"}},{"base_weights":[1.4986302E-3,5.34964E-3,-6.578047E-3,-5.137452E-4,2.3196668E-3,-1.2206222E-2,5.153239E-4,5.5307806E-3,-1.0416706E-2,-3.722474E-4,-1.4586858E-3,8.80602E-4,2.5104657E-3,-1.8070191E-3,2.4451315E-4,-9.069343E-4,6.381333E-4,-1.8846244E-4,5.2422285E-5],"categories":[],"categories_nodes":[],"categories_segments":[],"categories_sizes":[],"default_left":[0,0,0,0,0,0,0,0,0,0,0,0,0,0,0,0,0,0,0],"id":46,"left_children":[1,3,5,7,-1,9,-1,11,13,-1,-1,-1,15,-1,-1,17,-1,-1,-1],"loss_changes":[3.7732715E-4,8.4906904E-4,3.2700447E-4,4.7662345E-4,0E0,6.2909676E-6,0E0,2.7354065E-5,3.3949758E-4,0E0,0E0,0E0,5.8700658E-5,0E0,0E0,5.1856473E-6,0E0,0E0,0E0],"parents":[2147483647,0,0,1,1,2,2,3,3,5,5,7,7,8,8,12,12,15,15],"right_children":[2,4,6,8,-1,10,-1,12,14,-1,-1,-1,16,-1,-1,18,-1,-1,-1],"split_conditions":[9.7407746E-1,9.673681E-1,1E0,9.653858E-1,2.3196668E-3,9.882586E-1,5.153239E-4,4.9100336E-1,9.6660566E-1,-3.722474E-4,-1.4586858E-3,8.80602E-4,4.9649283E-1,-1.8070191E-3,2.4451315E-4,4.9420556E-1,6.381333E-4,-1.8846244E-4,5.2422285E-5],"split_indices":[0,0,0,0,0,0,0,0,0,0,0,0,0,0,0,0,0,0,0],"split_type":[0,0,0,0,0,0,0,0,0,0,0,0,0,0,0,0,0,0,0],"sum_hessian":[1E1,7E0,3E0,6E0,1E0,2E0,1E0,4E0,2E0,1E0,1E0,1E0,3E0,1E0,1E0,2E0,1E0,1E0,1E0],"tree_param":{"num_deleted":"0","num_feature":"2","num_nodes":"19","size_leaf_vector":"1"}},{"base_weights":[1.4236962E-3,5.0821546E-3,-6.2491447E-3,-4.8805773E-4,2.2036822E-3,-1.1595905E-2,4.895568E-4,5.254239E-3,-9.895866E-3,-3.5363436E-4,-1.3857514E-3,8.365721E-4,2.3849383E-3,-1.7166681E-3,2.3228825E-4,-8.615951E-4,6.062269E-4,-1.7903895E-4,4.979968E-5],"categories":[],"categories_nodes":[],"categories_segments":[],"categories_sizes":[],"default_left":[0,0,0,0,0,0,0,0,0,0,0,0,0,0,0,0,0,0,0],"id":47,"left_children":[1,3,5,7,-1,9,-1,11,13,-1,-1,-1,15,-1,-1,17,-1,-1,-1],"loss_changes":[3.405376E-4,7.6628395E-4,2.9512096E-4,4.3015223E-4,0E0,5.677779E-6,0E0,2.468715E-5,3.06397E-4,0E0,0E0,0E0,5.2977535E-5,0E0,0E0,4.6799523E-6,0E0,0E0,0E0],"parents":[2147483647,0,0,1,1,2,2,3,3,5,5,7,7,8,8,12,12,15,15],"right_children":[2,4,6,8,-1,10,-1,12,14,-1,-1,-1,16,-1,-1,18,-1,-1,-1],"split_conditions":[9.7407746E-1,9.673681E-1,1E0,9.653858E-1,2.2036822E-3,9.882586E-1,4.895568E-4,4.9100336E-1,9.6660566E-1,-3.5363436E-4,-1.3857514E-3,8.365721E-4,4.9649283E-1,-1.7166681E-3,2.3228825E-4,4.9420556E-1,6.062269E-4,-1.7903895E-4,4.979968E-5],"split_indices":[0,0,0,0,0,0,0,0,0,0,0,0,0,0,0,0,0,0,0],"split_type":[0,0,0,0,0,0,0,0,0,0,0,0,0,0,0,0,0,0,0],"sum_hessian":[1E1,7E0,3E0,6E0,1E0,2E0,1E0,4E0,2E0,1E0,1E0,1E0,3E0,1E0,1E0,2E0,1E0,1E0,1E0],"tree_param":{"num_deleted":"0","num_feature":"2","num_nodes":"19","size_leaf_vector":"1"}},{"base_weights":[1.352512E-3,4.828045E-3,-5.936682E-3,-4.6365388E-4,2.093497E-3,-1.1016111E-2,4.6508014E-4,4.9915253E-3,-9.401068E-3,-3.3595265E-4,-1.3164639E-3,7.947445E-4,2.2656843E-3,-1.6308345E-3,2.2067428E-4,-8.185208E-4,5.75915E-4,-1.7008632E-4,4.7308207E-5],"categories":[],"categories_nodes":[],"categories_segments":[],"categories_sizes":[],"default_left":[0,0,0,0,0,0,0,0,0,0,0,0,0,0,0,0,0,0,0],"id":48,"left_children":[1,3,5,7,-1,9,-1,11,13,-1,-1,-1,15,-1,-1,17,-1,-1,-1],"loss_changes":[3.0733476E-4,6.915705E-4,2.663472E-4,3.8821207E-4,0E0,5.124224E-6,0E0,2.2280437E-5,2.7652344E-4,0E0,0E0,0E0,4.7812242E-5,0E0,0E0,4.223556E-6,0E0,0E0,0E0],"parents":[2147483647,0,0,1,1,2,2,3,3,5,5,7,7,8,8,12,12,15,15],"right_children":[2,4,6,8,-1,10,-1,12,14,-1,-1,-1,16,-1,-1,18,-1,-1,-1],"split_conditions":[9.7407746E-1,9.673681E-1,1E0,9.653858E-1,2.093497E-3,9.882586E-1,4.6508014E-4,4.9100336E-1,9.6660566E-1,-3.3595265E-4,-1.3164639E-3,7.947445E-4,4.9649283E-1,-1.6308345E-3,2.2067428E-4,4.9420556E-1,5.75915E-4,-1.7008632E-4,4.7308207E-5],"split_indices":[0,0,0,0,0,0,0,0,0,0,0,0,0,0,0,0,0,0,0],"split_type":[0,0,0,0,0,0,0,0,0,0,0,0,0,0,0,0,0,0,0],"sum_hessian":[1E1,7E0,3E0,6E0,1E0,2E0,1E0,4E0,2E0,1E0,1E0,1E0,3E0,1E0,1E0,2E0,1E0,1E0,1E0],"tree_param":{"num_deleted":"0","num_feature":"2","num_nodes":"19","size_leaf_vector":"1"}},{"base_weights":[1.2848838E-3,4.5866407E-3,-5.639851E-3,-4.4047408E-4,1.9888224E-3,-1.0465304E-2,4.418254E-4,4.741943E-3,-8.931011E-3,-3.1915455E-4,-1.2506411E-3,7.550061E-4,2.1523982E-3,-1.5492932E-3,2.0964145E-4,-7.776022E-4,5.4712E-4,-1.6158224E-4,4.4941902E-5],"categories":[],"categories_nodes":[],"categories_segments":[],"categories_sizes":[],"default_left":[0,0,0,0,0,0,0,0,0,0,0,0,0,0,0,0,0,0,0],"id":49,"left_children":[1,3,5,7,-1,9,-1,11,13,-1,-1,-1,15,-1,-1,17,-1,-1,-1],"loss_changes":[2.773697E-4,6.2414265E-4,2.4037804E-4,3.5036085E-4,0E0,4.624744E-6,0E0,2.010799E-5,2.495629E-4,0E0,0E0,0E0,4.3150772E-5,0E0,0E0,3.8117228E-6,0E0,0E0,0E0],"parents":[2147483647,0,0,1,1,2,2,3,3,5,5,7,7,8,8,12,12,15,15],"right_children":[2,4,6,8,-1,10,-1,12,14,-1,-1,-1,16,-1,-1,18,-1,-1,-1],"split_conditions":[9.7407746E-1,9.673681E-1,1E0,9.653858E-1,1.9888224E-3,9.882586E-1,4.418254E-4,4.9100336E-1,9.6660566E-1,-3.1915455E-4,-1.2506411E-3,7.550061E-4,4.9649283E-1,-1.5492932E-3,2.0964145E-4,4.9420556E-1,5.4712E-4,-1.6158224E-4,4.4941902E-5],"split_indices":[0,0,0,0,0,0,0,0,0,0,0,0,0,0,0,0,0,0,0],"split_type":[0,0,0,0,0,0,0,0,0,0,0,0,0,0,0,0,0,0,0],"sum_hessian":[1E1,7E0,3E0,6E0,1E0,2E0,1E0,4E0,2E0,1E0,1E0,1E0,3E0,1E0,1E0,2E0,1E0,1E0,1E0],"tree_param":{"num_deleted":"0","num_feature":"2","num_nodes":"19","size_leaf_vector":"1"}},{"base_weights":[1.220638E-3,4.35731E-3,-5.3578652E-3,-4.1844803E-4,1.8893809E-3,-9.94204E-3,4.1973294E-4,4.5048473E-3,-8.484458E-3,-3.0319692E-4,-1.188109E-3,7.1725546E-4,2.044782E-3,-1.4718287E-3,1.9915999E-4,-7.387201E-4,5.1976444E-4,-1.5350283E-4,4.2694806E-5],"categories":[],"categories_nodes":[],"categories_segments":[],"categories_sizes":[],"default_left":[0,0,0,0,0,0,0,0,0,0,0,0,0,0,0,0,0,0,0],"id":50,"left_children":[1,3,5,7,-1,9,-1,11,13,-1,-1,-1,15,-1,-1,17,-1,-1,-1],"loss_changes":[2.5032656E-4,5.632884E-4,2.1694072E-4,3.1620066E-4,0E0,4.1738385E-6,0E0,1.8147366E-5,2.2523077E-4,0E0,0E0,0E0,3.89436E-5,0E0,0E0,3.44007E-6,0E0,0E0,0E0],"parents":[2147483647,0,0,1,1,2,2,3,3,5,5,7,7,8,8,12,12,15,15],"right_children":[2,4,6,8,-1,10,-1,12,14,-1,-1,-1,16,-1,-1,18,-1,-1,-1],"split_conditions":[9.7407746E-1,9.673681E-1,1E0,9.653858E-1,1.8893809E-3,9.882586E-1,4.1973294E-4,4.9100336E-1,9.6660566E-1,-3.0319692E-4,-1.188109E-3,7.1725546E-4,4.9649283E-1,-1.4718287E-3,1.9915999E-4,4.9420556E-1,5.1976444E-4,-1.5350283E-4,4.2694806E-5],"split_indices":[0,0,0,0,0,0,0,0,0,0,0,0,0,0,0,0,0,0,0],"split_type":[0,0,0,0,0,0,0,0,0,0,0,0,0,0,0,0,0,0,0],"sum_hessian":[1E1,7E0,3E0,6E0,1E0,2E0,1E0,4E0,2E0,1E0,1E0,1E0,3E0,1E0,1E0,2E0,1E0,1E0,1E0],"tree_param":{"num_deleted":"0","num_feature":"2","num_nodes":"19","size_leaf_vector":"1"}},{"base_weights":[1.1596084E-3,4.1394457E-3,-5.0899684E-3,-3.975204E-4,1.7949104E-3,-9.444932E-3,3.9874614E-4,4.2796074E-3,-8.060227E-3,-2.8803648E-4,-1.1287034E-3,6.813914E-4,1.9425526E-3,-1.3982371E-3,1.8920303E-4,-7.0177513E-4,4.937768E-4,-1.4582723E-4,4.056096E-5],"categories":[],"categories_nodes":[],"categories_segments":[],"categories_sizes":[],"default_left":[0,0,0,0,0,0,0,0,0,0,0,0,0,0,0,0,0,0,0],"id":51,"left_children":[1,3,5,7,-1,9,-1,11,13,-1,-1,-1,15,-1,-1,17,-1,-1,-1],"loss_changes":[2.2591959E-4,5.083668E-4,1.957888E-4,2.8537083E-4,0E0,3.7670252E-6,0E0,1.6377671E-5,2.0327116E-4,0E0,0E0,0E0,3.5146524E-5,0E0,0E0,3.1046898E-6,0E0,0E0,0E0],"parents":[2147483647,0,0,1,1,2,2,3,3,5,5,7,7,8,8,12,12,15,15],"right_children":[2,4,6,8,-1,10,-1,12,14,-1,-1,-1,16,-1,-1,18,-1,-1,-1],"split_conditions":[9.7407746E-1,9.673681E-1,1E0,9.653858E-1,1.7949104E-3,9.882586E-1,3.9874614E-4,4.9100336E-1,9.6660566E-1,-2.8803648E-4,-1.1287034E-3,6.813914E-4,4.9649283E-1,-1.3982371E-3,1.8920303E-4,4.9420556E-1,4.937768E-4,-1.4582723E-4,4.056096E-5],"split_indices":[0,0,0,0,0,0,0,0,0,0,0,0,0,0,0,0,0,0,0],"split_type":[0,0,0,0,0,0,0,0,0,0,0,0,0,0,0,0,0,0,0],"sum_hessian":[1E1,7E0,3E0,6E0,1E0,2E0,1E0,4E0,2E0,1E0,1E0,1E0,3E0,1E0,1E0,2E0,1E0,1E0,1E0],"tree_param":{"num_deleted":"0","num_feature":"2","num_nodes":"19","size_leaf_vector":"1"}},{"base_weights":[1.1016293E-3,3.932476E-3,-4.8354715E-3,-3.77638E-4,1.7051637E-3,-8.972685E-3,3.7880838E-4,4.065633E-3,-7.65721E-3,-2.736345E-4,-1.0722682E-3,6.4732134E-4,1.8454343E-3,-1.3283252E-3,1.7974377E-4,-6.6667795E-4,4.6908855E-4,-1.385361E-4,3.8534403E-5],"categories":[],"categories_nodes":[],"categories_segments":[],"categories_sizes":[],"default_left":[0,0,0,0,0,0,0,0,0,0,0,0,0,0,0,0,0,0,0],"id":52,"left_children":[1,3,5,7,-1,9,-1,11,13,-1,-1,-1,15,-1,-1,17,-1,-1,-1],"loss_changes":[2.0389262E-4,4.5879997E-4,1.7669922E-4,2.575472E-4,0E0,3.3997785E-6,0E0,1.4780642E-5,1.8345259E-4,0E0,0E0,0E0,3.1719683E-5,0E0,0E0,2.8020518E-6,0E0,0E0,0E0],"parents":[2147483647,0,0,1,1,2,2,3,3,5,5,7,7,8,8,12,12,15,15],"right_children":[2,4,6,8,-1,10,-1,12,14,-1,-1,-1,16,-1,-1,18,-1,-1,-1],"split_conditions":[9.7407746E-1,9.673681E-1,1E0,9.653858E-1,1.7051637E-3,9.882586E-1,3.7880838E-4,4.9100336E-1,9.6660566E-1,-2.736345E-4,-1.0722682E-3,6.4732134E-4,4.9649283E-1,-1.3283252E-3,1.7974377E-4,4.9420556E-1,4.6908855E-4,-1.385361E-4,3.8534403E-5],"split_indices":[0,0,0,0,0,0,0,0,0,0,0,0,0,0,0,0,0,0,0],"split_type":[0,0,0,0,0,0,0,0,0,0,0,0,0,0,0,0,0,0,0],"sum_hessian":[1E1,7E0,3E0,6E0,1E0,2E0,1E0,4E0,2E0,1E0,1E0,1E0,3E0,1E0,1E0,2E0,1E0,1E0,1E0],"tree_param":{"num_deleted":"0","num_feature":"2","num_nodes":"19","size_leaf_vector":"1"}},{"base_weights":[1.0465506E-3,3.7358515E-3,-4.593689E-3,-3.587561E-4,1.6199052E-3,-8.524045E-3,3.59869E-4,3.8623572E-3,-7.2743595E-3,-2.5995224E-4,-1.0186546E-3,6.14956E-4,1.7531663E-3,-1.2619094E-3,1.7075539E-4,-6.333391E-4,4.4563413E-4,-1.3161004E-4,3.6609174E-5],"categories":[],"categories_nodes":[],"categories_segments":[],"categories_sizes":[],"default_left":[0,0,0,0,0,0,0,0,0,0,0,0,0,0,0,0,0,0,0],"id":53,"left_children":[1,3,5,7,-1,9,-1,11,13,-1,-1,-1,15,-1,-1,17,-1,-1,-1],"loss_changes":[1.8401265E-4,4.1406686E-4,1.5947127E-4,2.32437E-4,0E0,3.0684168E-6,0E0,1.3339537E-5,1.6556557E-4,0E0,0E0,0E0,2.8626942E-5,0E0,0E0,2.5289314E-6,0E0,0E0,0E0],"parents":[2147483647,0,0,1,1,2,2,3,3,5,5,7,7,8,8,12,12,15,15],"right_children":[2,4,6,8,-1,10,-1,12,14,-1,-1,-1,16,-1,-1,18,-1,-1,-1],"split_conditions":[9.7407746E-1,9.673681E-1,1E0,9.653858E-1,1.6199052E-3,9.882586E-1,3.59869E-4,4.9100336E-1,9.6660566E-1,-2.5995224E-4,-1.0186546E-3,6.14956E-4,4.9649283E-1,-1.2619094E-3,1.7075539E-4,4.9420556E-1,4.4563413E-4,-1.3161004E-4,3.6609174E-5],"split_indices":[0,0,0,0,0,0,0,0,0,0,0,0,0,0,0,0,0,0,0],"split_type":[0,0,0,0,0,0,0,0,0,0,0,0,0,0,0,0,0,0,0],"sum_hessian":[1E1,7E0,3E0,6E0,1E0,2E0,1E0,4E0,2E0,1E0,1E0,1E0,3E0,1E0,1E0,2E0,1E0,1E0,1E0],"tree_param":{"num_deleted":"0","num_feature":"2","num_nodes":"19","size_leaf_vector":"1"}},{"base_weights":[9.942177E-4,3.5490524E-3,-4.364006E-3,-3.4082148E-4,1.5389085E-3,-8.097838E-3,3.4187437E-4,3.6692382E-3,-6.910647E-3,-2.4695398E-4,-9.6772163E-4,5.84209E-4,1.6655028E-3,-1.1988141E-3,1.6221702E-4,-6.0166913E-4,4.2335092E-4,-1.2502969E-4,3.477931E-5],"categories":[],"categories_nodes":[],"categories_segments":[],"categories_sizes":[],"default_left":[0,0,0,0,0,0,0,0,0,0,0,0,0,0,0,0,0,0,0],"id":54,"left_children":[1,3,5,7,-1,9,-1,11,13,-1,-1,-1,15,-1,-1,17,-1,-1,-1],"loss_changes":[1.6607123E-4,3.7369478E-4,1.4392233E-4,2.0977455E-4,0E0,2.769375E-6,0E0,1.2039076E-5,1.4942278E-4,0E0,0E0,0E0,2.583562E-5,0E0,0E0,2.2823874E-6,0E0,0E0,0E0],"parents":[2147483647,0,0,1,1,2,2,3,3,5,5,7,7,8,8,12,12,15,15],"right_children":[2,4,6,8,-1,10,-1,12,14,-1,-1,-1,16,-1,-1,18,-1,-1,-1],"split_conditions":[9.7407746E-1,9.673681E-1,1E0,9.653858E-1,1.5389085E-3,9.882586E-1,3.4187437E-4,4.9100336E-1,9.6660566E-1,-2.4695398E-4,-9.6772163E-4,5.84209E-4,4.9649283E-1,-1.1988141E-3,1.6221702E-4,4.9420556E-1,4.2335092E-4,-1.2502969E-4,3.477931E-5],"split_indices":[0,0,0,0,0,0,0,0,0,0,0,0,0,0,0,0,0,0,0],"split_type":[0,0,0,0,0,0,0,0,0,0,0,0,0,0,0,0,0,0,0],"sum_hessian":[1E1,7E0,3E0,6E0,1E0,2E0,1E0,4E0,2E0,1E0,1E0,1E0,3E0,1E0,1E0,2E0,1E0,1E0,1E0],"tree_param":{"num_deleted":"0","num_feature":"2","num_nodes":"19","size_leaf_vector":"1"}},{"base_weights":[9.4449654E-4,3.371589E-3,-4.1458122E-3,-3.2378946E-4,1.4619619E-3,-7.692948E-3,3.2477974E-4,3.485769E-3,-6.565124E-3,-2.3460686E-4,-9.1933535E-4,5.5499974E-4,1.5822127E-3,-1.1388734E-3,1.5410483E-4,-5.715986E-4,4.0218234E-4,-1.1877865E-4,3.3038854E-5],"categories":[],"categories_nodes":[],"categories_segments":[],"categories_sizes":[],"default_left":[0,0,0,0,0,0,0,0,0,0,0,0,0,0,0,0,0,0,0],"id":55,"left_children":[1,3,5,7,-1,9,-1,11,13,-1,-1,-1,15,-1,-1,17,-1,-1,-1],"loss_changes":[1.4987912E-4,3.372595E-4,1.298897E-4,1.8932161E-4,0E0,2.4992187E-6,0E0,1.0865595E-5,1.3485362E-4,0E0,0E0,0E0,2.3316712E-5,0E0,0E0,2.0598115E-6,0E0,0E0,0E0],"parents":[2147483647,0,0,1,1,2,2,3,3,5,5,7,7,8,8,12,12,15,15],"right_children":[2,4,6,8,-1,10,-1,12,14,-1,-1,-1,16,-1,-1,18,-1,-1,-1],"split_conditions":[9.7407746E-1,9.673681E-1,1E0,9.653858E-1,1.4619619E-3,9.882586E-1,3.2477974E-4,4.9100336E-1,9.6660566E-1,-2.3460686E-4,-9.1933535E-4,5.5499974E-4,4.9649283E-1,-1.1388734E-3,1.5410483E-4,4.9420556E-1,4.0218234E-4,-1.1877865E-4,3.3038854E-5],"split_indices":[0,0,0,0,0,0,0,0,0,0,0,0,0,0,0,0,0,0,0],"split_type":[0,0,0,0,0,0,0,0,0,0,0,0,0,0,0,0,0,0,0],"sum_hessian":[1E1,7E0,3E0,6E0,1E0,2E0,1E0,4E0,2E0,1E0,1E0,1E0,3E0,1E0,1E0,2E0,1E0,1E0,1E0],"tree_param":{"num_deleted":"0","num_feature":"2","num_nodes":"19","size_leaf_vector":"1"}},{"base_weights":[8.972802E-4,3.2030214E-3,-3.938522E-3,-3.075834E-4,1.3888627E-3,-7.308299E-3,3.0854048E-4,3.311497E-3,-6.2368563E-3,-2.2287667E-4,-8.7336823E-4,5.2725076E-4,1.5031174E-3,-1.0819294E-3,1.4640093E-4,-5.4300827E-4,3.820747E-4,-1.1283904E-4,3.1387808E-5],"categories":[],"categories_nodes":[],"categories_segments":[],"categories_sizes":[],"default_left":[0,0,0,0,0,0,0,0,0,0,0,0,0,0,0,0,0,0,0],"id":56,"left_children":[1,3,5,7,-1,9,-1,11,13,-1,-1,-1,15,-1,-1,17,-1,-1,-1],"loss_changes":[1.3526638E-4,3.0437543E-4,1.1722533E-4,1.7086293E-4,0E0,2.2555032E-6,0E0,9.806059E-6,1.2170574E-4,0E0,0E0,0E0,2.1043343E-5,0E0,0E0,1.8589949E-6,0E0,0E0,0E0],"parents":[2147483647,0,0,1,1,2,2,3,3,5,5,7,7,8,8,12,12,15,15],"right_children":[2,4,6,8,-1,10,-1,12,14,-1,-1,-1,16,-1,-1,18,-1,-1,-1],"split_conditions":[9.7407746E-1,9.673681E-1,1E0,9.653858E-1,1.3888627E-3,9.882586E-1,3.0854048E-4,4.9100336E-1,9.6660566E-1,-2.2287667E-4,-8.7336823E-4,5.2725076E-4,4.9649283E-1,-1.0819294E-3,1.4640093E-4,4.9420556E-1,3.820747E-4,-1.1283904E-4,3.1387808E-5],"split_indices":[0,0,0,0,0,0,0,0,0,0,0,0,0,0,0,0,0,0,0],"split_type":[0,0,0,0,0,0,0,0,0,0,0,0,0,0,0,0,0,0,0],"sum_hessian":[1E1,7E0,3E0,6E0,1E0,2E0,1E0,4E0,2E0,1E0,1E0,1E0,3E0,1E0,1E0,2E0,1E0,1E0,1E0],"tree_param":{"num_deleted":"0","num_feature":"2","num_nodes":"19","size_leaf_vector":"1"}},{"base_weights":[8.5241685E-4,3.0428693E-3,-3.7415922E-3,-2.9220752E-4,1.3194204E-3,-6.9428883E-3,2.9311478E-4,3.1459152E-3,-5.9250095E-3,-2.1173358E-4,-8.296996E-4,5.0088763E-4,1.4279559E-3,-1.027833E-3,1.3908149E-4,-5.1586825E-4,3.6297142E-4,-1.0719746E-4,2.9817224E-5],"categories":[],"categories_nodes":[],"categories_segments":[],"categories_sizes":[],"default_left":[0,0,0,0,0,0,0,0,0,0,0,0,0,0,0,0,0,0,0],"id":57,"left_children":[1,3,5,7,-1,9,-1,11,13,-1,-1,-1,15,-1,-1,17,-1,-1,-1],"loss_changes":[1.2207772E-4,2.746993E-4,1.0579629E-4,1.5420344E-4,0E0,2.0354346E-6,0E0,8.850002E-6,1.0983962E-4,0E0,0E0,0E0,1.899178E-5,0E0,0E0,1.6777124E-6,0E0,0E0,0E0],"parents":[2147483647,0,0,1,1,2,2,3,3,5,5,7,7,8,8,12,12,15,15],"right_children":[2,4,6,8,-1,10,-1,12,14,-1,-1,-1,16,-1,-1,18,-1,-1,-1],"split_conditions":[9.7407746E-1,9.673681E-1,1E0,9.653858E-1,1.3194204E-3,9.882586E-1,2.9311478E-4,4.9100336E-1,9.6660566E-1,-2.1173358E-4,-8.296996E-4,5.0088763E-4,4.9649283E-1,-1.027833E-3,1.3908149E-4,4.9420556E-1,3.6297142E-4,-1.0719746E-4,2.9817224E-5],"split_indices":[0,0,0,0,0,0,0,0,0,0,0,0,0,0,0,0,0,0,0],"split_type":[0,0,0,0,0,0,0,0,0,0,0,0,0,0,0,0,0,0,0],"sum_hessian":[1E1,7E0,3E0,6E0,1E0,2E0,1E0,4E0,2E0,1E0,1E0,1E0,3E0,1E0,1E0,2E0,1E0,1E0,1E0],"tree_param":{"num_deleted":"0","num_feature":"2","num_nodes":"19","size_leaf_vector":"1"}},{"base_weights":[8.0980087E-4,2.890734E-3,-3.5545155E-3,-2.7758948E-4,1.2534499E-3,-6.5957406E-3,2.78458E-4,2.9886246E-3,-5.6287497E-3,-2.0114631E-4,-7.882148E-4,4.7584475E-4,1.356557E-3,-9.764411E-4,1.321286E-4,-4.900694E-4,3.448218E-4,-1.0183752E-4,2.8327107E-5],"categories":[],"categories_nodes":[],"categories_segments":[],"categories_sizes":[],"default_left":[0,0,0,0,0,0,0,0,0,0,0,0,0,0,0,0,0,0,0],"id":58,"left_children":[1,3,5,7,-1,9,-1,11,13,-1,-1,-1,15,-1,-1,17,-1,-1,-1],"loss_changes":[1.1017551E-4,2.4791597E-4,9.5480835E-5,1.3916846E-4,0E0,1.8371065E-6,0E0,7.987248E-6,9.9130535E-5,0E0,0E0,0E0,1.7139932E-5,0E0,0E0,1.5141568E-6,0E0,0E0,0E0],"parents":[2147483647,0,0,1,1,2,2,3,3,5,5,7,7,8,8,12,12,15,15],"right_children":[2,4,6,8,-1,10,-1,12,14,-1,-1,-1,16,-1,-1,18,-1,-1,-1],"split_conditions":[9.7407746E-1,9.673681E-1,1E0,9.653858E-1,1.2534499E-3,9.882586E-1,2.78458E-4,4.9100336E-1,9.6660566E-1,-2.0114631E-4,-7.882148E-4,4.7584475E-4,4.9649283E-1,-9.764411E-4,1.321286E-4,4.9420556E-1,3.448218E-4,-1.0183752E-4,2.8327107E-5],"split_indices":[0,0,0,0,0,0,0,0,0,0,0,0,0,0,0,0,0,0,0],"split_type":[0,0,0,0,0,0,0,0,0,0,0,0,0,0,0,0,0,0,0],"sum_hessian":[1E1,7E0,3E0,6E0,1E0,2E0,1E0,4E0,2E0,1E0,1E0,1E0,3E0,1E0,1E0,2E0,1E0,1E0,1E0],"tree_param":{"num_deleted":"0","num_feature":"2","num_nodes":"19","size_leaf_vector":"1"}},{"base_weights":[7.693131E-4,2.746204E-3,-3.3767968E-3,-2.6370585E-4,1.1907787E-3,-6.2659583E-3,2.6453435E-4,2.8392016E-3,-5.3473166E-3,-1.9108951E-4,-7.4880425E-4,4.5205356E-4,1.2887344E-3,-9.276189E-4,1.2552143E-4,-4.6556196E-4,3.2758116E-4,-9.674579E-5,2.6911497E-5],"categories":[],"categories_nodes":[],"categories_segments":[],"categories_sizes":[],"default_left":[0,0,0,0,0,0,0,0,0,0,0,0,0,0,0,0,0,0,0],"id":59,"left_children":[1,3,5,7,-1,9,-1,11,13,-1,-1,-1,15,-1,-1,17,-1,-1,-1],"loss_changes":[9.943384E-5,2.2374446E-4,8.617135E-5,1.2559992E-4,0E0,1.6578924E-6,0E0,7.2084986E-6,8.946511E-5,0E0,0E0,0E0,1.5468782E-5,0E0,0E0,1.3665515E-6,0E0,0E0,0E0],"parents":[2147483647,0,0,1,1,2,2,3,3,5,5,7,7,8,8,12,12,15,15],"right_children":[2,4,6,8,-1,10,-1,12,14,-1,-1,-1,16,-1,-1,18,-1,-1,-1],"split_conditions":[9.7407746E-1,9.673681E-1,1E0,9.653858E-1,1.1907787E-3,9.882586E-1,2.6453435E-4,4.9100336E-1,9.6660566E-1,-1.9108951E-4,-7.4880425E-4,4.5205356E-4,4.9649283E-1,-9.276189E-4,1.2552143E-4,4.9420556E-1,3.2758116E-4,-9.674579E-5,2.6911497E-5],"split_indices":[0,0,0,0,0,0,0,0,0,0,0,0,0,0,0,0,0,0,0],"split_type":[0,0,0,0,0,0,0,0,0,0,0,0,0,0,0,0,0,0,0],"sum_hessian":[1E1,7E0,3E0,6E0,1E0,2E0,1E0,4E0,2E0,1E0,1E0,1E0,3E0,1E0,1E0,2E0,1E0,1E0,1E0],"tree_param":{"num_deleted":"0","num_feature":"2","num_nodes":"19","size_leaf_vector":"1"}},{"base_weights":[7.308437E-4,2.6088879E-3,-3.2079555E-3,-2.5052685E-4,1.1312396E-3,-5.9526614E-3,2.5130808E-4,2.6972354E-3,-5.079955E-3,-1.815349E-4,-7.113643E-4,4.2945147E-4,1.2242869E-3,-8.812383E-4,1.1924505E-4,-4.4229627E-4,3.1120182E-4,-9.190887E-5,2.5564432E-5],"categories":[],"categories_nodes":[],"categories_segments":[],"categories_sizes":[],"default_left":[0,0,0,0,0,0,0,0,0,0,0,0,0,0,0,0,0,0,0],"id":60,"left_children":[1,3,5,7,-1,9,-1,11,13,-1,-1,-1,15,-1,-1,17,-1,-1,-1],"loss_changes":[8.973882E-5,2.0192955E-4,7.776976E-5,1.13353875E-4,0E0,1.4962934E-6,0E0,6.5058302E-6,8.074224E-5,0E0,0E0,0E0,1.396068E-5,0E0,0E0,1.2332782E-6,0E0,0E0,0E0],"parents":[2147483647,0,0,1,1,2,2,3,3,5,5,7,7,8,8,12,12,15,15],"right_children":[2,4,6,8,-1,10,-1,12,14,-1,-1,-1,16,-1,-1,18,-1,-1,-1],"split_conditions":[9.7407746E-1,9.673681E-1,1E0,9.653858E-1,1.1312396E-3,9.882586E-1,2.5130808E-4,4.9100336E-1,9.6660566E-1,-1.815349E-4,-7.113643E-4,4.2945147E-4,4.9649283E-1,-8.812383E-4,1.1924505E-4,4.9420556E-1,3.1120182E-4,-9.190887E-5,2.5564432E-5],"split_indices":[0,0,0,0,0,0,0,0,0,0,0,0,0,0,0,0,0,0,0],"split_type":[0,0,0,0,0,0,0,0,0,0,0,0,0,0,0,0,0,0,0],"sum_hessian":[1E1,7E0,3E0,6E0,1E0,2E0,1E0,4E0,2E0,1E0,1E0,1E0,3E0,1E0,1E0,2E0,1E0,1E0,1E0],"tree_param":{"num_deleted":"0","num_feature":"2","num_nodes":"19","size_leaf_vector":"1"}},{"base_weights":[6.9430063E-4,2.4784412E-3,-3.0475557E-3,-2.3800347E-4,1.0746777E-3,-5.6550303E-3,2.3874342E-4,2.5623739E-3,-4.8259646E-3,-1.7245859E-4,-6.75796E-4,4.079789E-4,1.1630729E-3,-8.371763E-4,1.1328161E-4,-4.2018294E-4,2.9564204E-4,-8.7313354E-5,2.4285913E-5],"categories":[],"categories_nodes":[],"categories_segments":[],"categories_sizes":[],"default_left":[0,0,0,0,0,0,0,0,0,0,0,0,0,0,0,0,0,0,0],"id":61,"left_children":[1,3,5,7,-1,9,-1,11,13,-1,-1,-1,15,-1,-1,17,-1,-1,-1],"loss_changes":[8.0989164E-5,1.822416E-4,7.018741E-5,1.0230209E-4,0E0,1.3503231E-6,0E0,5.8715086E-6,7.286957E-5,0E0,0E0,0E0,1.25995475E-5,0E0,0E0,1.1130244E-6,0E0,0E0,0E0],"parents":[2147483647,0,0,1,1,2,2,3,3,5,5,7,7,8,8,12,12,15,15],"right_children":[2,4,6,8,-1,10,-1,12,14,-1,-1,-1,16,-1,-1,18,-1,-1,-1],"split_conditions":[9.7407746E-1,9.673681E-1,1E0,9.653858E-1,1.0746777E-3,9.882586E-1,2.3874342E-4,4.9100336E-1,9.6660566E-1,-1.7245859E-4,-6.75796E-4,4.079789E-4,4.9649283E-1,-8.371763E-4,1.1328161E-4,4.9420556E-1,2.9564204E-4,-8.7313354E-5,2.4285913E-5],"split_indices":[0,0,0,0,0,0,0,0,0,0,0,0,0,0,0,0,0,0,0],"split_type":[0,0,0,0,0,0,0,0,0,0,0,0,0,0,0,0,0,0,0],"sum_hessian":[1E1,7E0,3E0,6E0,1E0,2E0,1E0,4E0,2E0,1E0,1E0,1E0,3E0,1E0,1E0,2E0,1E0,1E0,1E0],"tree_param":{"num_deleted":"0","num_feature":"2","num_nodes":"19","size_leaf_vector":"1"}},{"base_weights":[6.595891E-4,2.3545194E-3,-2.895169E-3,-2.2610383E-4,1.0209441E-3,-5.372276E-3,2.2680759E-4,2.4342597E-3,-4.584675E-3,-1.6383528E-4,-6.420061E-4,3.875792E-4,1.1049286E-3,-7.9531746E-4,1.07616186E-4,-3.9916238E-4,2.8086008E-4,-8.2947314E-5,2.3072958E-5],"categories":[],"categories_nodes":[],"categories_segments":[],"categories_sizes":[],"default_left":[0,0,0,0,0,0,0,0,0,0,0,0,0,0,0,0,0,0,0],"id":62,"left_children":[1,3,5,7,-1,9,-1,11,13,-1,-1,-1,15,-1,-1,17,-1,-1,-1],"loss_changes":[7.309247E-5,1.6447315E-4,6.334436E-5,9.232797E-5,0E0,1.2187229E-6,0E0,5.298896E-6,6.576448E-5,0E0,0E0,0E0,1.1370999E-5,0E0,0E0,1.0045319E-6,0E0,0E0,0E0],"parents":[2147483647,0,0,1,1,2,2,3,3,5,5,7,7,8,8,12,12,15,15],"right_children":[2,4,6,8,-1,10,-1,12,14,-1,-1,-1,16,-1,-1,18,-1,-1,-1],"split_conditions":[9.7407746E-1,9.673681E-1,1E0,9.653858E-1,1.0209441E-3,9.882586E-1,2.2680759E-4,4.9100336E-1,9.6660566E-1,-1.6383528E-4,-6.420061E-4,3.875792E-4,4.9649283E-1,-7.9531746E-4,1.07616186E-4,4.9420556E-1,2.8086008E-4,-8.2947314E-5,2.3072958E-5],"split_indices":[0,0,0,0,0,0,0,0,0,0,0,0,0,0,0,0,0,0,0],"split_type":[0,0,0,0,0,0,0,0,0,0,0,0,0,0,0,0,0,0,0],"sum_hessian":[1E1,7E0,3E0,6E0,1E0,2E0,1E0,4E0,2E0,1E0,1E0,1E0,3E0,1E0,1E0,2E0,1E0,1E0,1E0],"tree_param":{"num_deleted":"0","num_feature":"2","num_nodes":"19","size_leaf_vector":"1"}},{"base_weights":[6.266074E-4,2.236791E-3,-2.7504116E-3,-2.1479811E-4,9.6989574E-4,-5.1036677E-3,2.1546781E-4,2.312541E-3,-4.3554306E-3,-1.5564413E-4,-6.0990604E-4,3.6819876E-4,1.0496825E-3,-7.5555145E-4,1.0223687E-4,-3.7920476E-5,2.6681722E-4],"categories":[],"categories_nodes":[],"categories_segments":[],"categories_sizes":[],"default_left":[0,0,0,0,0,0,0,0,0,0,0,0,0,0,0,0,0],"id":63,"left_children":[1,3,5,7,-1,9,-1,11,13,-1,-1,-1,15,-1,-1,-1,-1],"loss_changes":[6.596591E-5,1.4843664E-4,5.7168487E-5,8.332559E-5,0E0,1.0998192E-6,0E0,4.7821704E-6,5.9352747E-5,0E0,0E0,0E0,1.026234E-5,0E0,0E0,0E0,0E0],"parents":[2147483647,0,0,1,1,2,2,3,3,5,5,7,7,8,8,12,12],"right_children":[2,4,6,8,-1,10,-1,12,14,-1,-1,-1,16,-1,-1,-1,-1],"split_conditions":[9.7407746E-1,9.673681E-1,1E0,9.653858E-1,9.6989574E-4,9.882586E-1,2.1546781E-4,4.9100336E-1,9.6660566E-1,-1.5564413E-4,-6.0990604E-4,3.6819876E-4,4.9649283E-1,-7.5555145E-4,1.0223687E-4,-3.7920476E-5,2.6681722E-4],"split_indices":[0,0,0,0,0,0,0,0,0,0,0,0,0,0,0,0,0],"split_type":[0,0,0,0,0,0,0,0,0,0,0,0,0,0,0,0,0],"sum_hessian":[1E1,7E0,3E0,6E0,1E0,2E0,1E0,4E0,2E0,1E0,1E0,1E0,3E0,1E0,1E0,2E0,1E0],"tree_param":{"num_deleted":"0","num_feature":"2","num_nodes":"17","size_leaf_vector":"1"}},{"base_weights":[5.9700554E-4,2.127327E-3,-2.6128888E-3,-2.0134449E-4,9.2140137E-4,-4.8484802E-4,2.0469427E-4,2.2007108E-3,-4.1376553E-3,3.4978986E-4,1.0019392E-3,-7.1777403E-4,9.712577E-5,-3.5393237E-5,2.534777E-4],"categories":[],"categories_nodes":[],"categories_segments":[],"categories_sizes":[],"default_left":[0,0,0,0,0,0,0,0,0,0,0,0,0,0,0],"id":64,"left_children":[1,3,5,7,-1,-1,-1,9,11,-1,13,-1,-1,-1,-1],"loss_changes":[5.959234E-5,1.3387571E-4,5.1594478E-5,7.529243E-5,0E0,0E0,0E0,4.270478E-6,5.3566033E-5,0E0,9.210464E-6,0E0,0E0,0E0,0E0],"parents":[2147483647,0,0,1,1,2,2,3,3,7,7,8,8,10,10],"right_children":[2,4,6,8,-1,-1,-1,10,12,-1,14,-1,-1,-1,-1],"split_conditions":[9.7407746E-1,9.673681E-1,1E0,9.653858E-1,9.2140137E-4,-4.8484802E-4,2.0469427E-4,4.9100336E-1,9.6660566E-1,3.4978986E-4,4.9649283E-1,-7.1777403E-4,9.712577E-5,-3.5393237E-5,2.534777E-4],"split_indices":[0,0,0,0,0,0,0,0,0,0,0,0,0,0,0],"split_type":[0,0,0,0,0,0,0,0,0,0,0,0,0,0,0],"sum_hessian":[1E1,7E0,3E0,6E0,1E0,2E0,1E0,4E0,2E0,1E0,3E0,1E0,1E0,2E0,1E0],"tree_param":{"num_deleted":"0","num_feature":"2","num_nodes":"15","size_leaf_vector":"1"}},{"base_weights":[5.908026E-4,2.0231698E-3,-2.4216324E-3,-1.8874875E-4,8.7533E-4,-4.5252442E-3,1.9446015E-4,2.0942092E-3,-3.9307624E-3,-1.2361855E-4,-5.551681E-4,3.322989E-4,9.562671E-4,-6.8188534E-4,9.227097E-5,-3.3032895E-5,2.4080276E-4],"categories":[],"categories_nodes":[],"categories_segments":[],"categories_sizes":[],"default_left":[0,0,0,0,0,0,0,0,0,0,0,0,0,0,0,0,0],"id":65,"left_children":[1,3,5,7,-1,9,-1,11,13,-1,-1,-1,15,-1,-1,-1,-1],"loss_changes":[5.2363415E-5,1.2074417E-4,4.5539244E-5,6.8031855E-5,0E0,3.2651224E-6,0E0,3.813735E-6,4.8343623E-5,0E0,0E0,0E0,8.266759E-6,0E0,0E0,0E0,0E0],"parents":[2147483647,0,0,1,1,2,2,3,3,5,5,7,7,8,8,12,12],"right_children":[2,4,6,8,-1,10,-1,12,14,-1,-1,-1,16,-1,-1,-1,-1],"split_conditions":[9.7407746E-1,9.673681E-1,1E0,9.653858E-1,8.7533E-4,9.882586E-1,1.9446015E-4,4.9100336E-1,9.6660566E-1,-1.2361855E-4,-5.551681E-4,3.322989E-4,4.9649283E-1,-6.8188534E-4,9.227097E-5,-3.3032895E-5,2.4080276E-4],"split_indices":[0,0,0,0,0,0,0,0,0,0,0,0,0,0,0,0,0],"split_type":[0,0,0,0,0,0,0,0,0,0,0,0,0,0,0,0,0],"sum_hessian":[1E1,7E0,3E0,6E0,1E0,2E0,1E0,4E0,2E0,1E0,1E0,1E0,3E0,1E0,1E0,2E0,1E0],"tree_param":{"num_deleted":"0","num_feature":"2","num_nodes":"17","size_leaf_vector":"1"}},{"base_weights":[5.627586E-4,1.9240715E-3,-2.3005567E-3,-1.7695341E-4,8.3156227E-4,-4.29898E-3,1.8473566E-4,1.992798E-3,-3.734221E-3,-1.1743754E-4,-5.274095E-4,3.156841E-4,9.125769E-4,-6.4779073E-4,8.765757E-5,-3.0831496E-5,2.2876263E-4],"categories":[],"categories_nodes":[],"categories_segments":[],"categories_sizes":[],"default_left":[0,0,0,0,0,0,0,0,0,0,0,0,0,0,0,0,0],"id":66,"left_children":[1,3,5,7,-1,9,-1,11,13,-1,-1,-1,15,-1,-1,-1,-1],"loss_changes":[4.7302983E-5,1.08901935E-4,4.1098898E-5,6.147025E-5,0E0,2.9467774E-6,0E0,3.4062577E-6,4.3630112E-5,0E0,0E0,0E0,7.4204563E-6,0E0,0E0,0E0,0E0],"parents":[2147483647,0,0,1,1,2,2,3,3,5,5,7,7,8,8,12,12],"right_children":[2,4,6,8,-1,10,-1,12,14,-1,-1,-1,16,-1,-1,-1,-1],"split_conditions":[9.7407746E-1,9.673681E-1,1E0,9.653858E-1,8.3156227E-4,9.882586E-1,1.8473566E-4,4.9100336E-1,9.6660566E-1,-1.1743754E-4,-5.274095E-4,3.156841E-4,4.9649283E-1,-6.4779073E-4,8.765757E-5,-3.0831496E-5,2.2876263E-4],"split_indices":[0,0,0,0,0,0,0,0,0,0,0,0,0,0,0,0,0],"split_type":[0,0,0,0,0,0,0,0,0,0,0,0,0,0,0,0,0],"sum_hessian":[1E1,7E0,3E0,6E0,1E0,2E0,1E0,4E0,2E0,1E0,1E0,1E0,3E0,1E0,1E0,2E0,1E0],"tree_param":{"num_deleted":"0","num_feature":"2","num_nodes":"17","size_leaf_vector":"1"}},{"base_weights":[5.360273E-4,1.8297974E-3,-2.1855198E-3,-1.6590314E-4,7.8998506E-4,-4.084026E-3,1.7549992E-4,1.8962442E-3,-3.5475146E-3,-1.11564994E-4,-5.010389E-4,2.9990077E-4,8.708015E-4,-6.1540084E-4,8.327365E-5,-2.877613E-5,2.173245E-4],"categories":[],"categories_nodes":[],"categories_segments":[],"categories_sizes":[],"default_left":[0,0,0,0,0,0,0,0,0,0,0,0,0,0,0,0,0],"id":67,"left_children":[1,3,5,7,-1,9,-1,11,13,-1,-1,-1,15,-1,-1,-1,-1],"loss_changes":[4.2730677E-5,9.8222685E-5,3.7091857E-5,5.5540622E-5,0E0,2.6595444E-6,0E0,3.0425617E-6,3.937596E-5,0E0,0E0,0E0,6.6612256E-6,0E0,0E0,0E0,0E0],"parents":[2147483647,0,0,1,1,2,2,3,3,5,5,7,7,8,8,12,12],"right_children":[2,4,6,8,-1,10,-1,12,14,-1,-1,-1,16,-1,-1,-1,-1],"split_conditions":[9.7407746E-1,9.673681E-1,1E0,9.653858E-1,7.8998506E-4,9.882586E-1,1.7549992E-4,4.9100336E-1,9.6660566E-1,-1.11564994E-4,-5.010389E-4,2.9990077E-4,4.9649283E-1,-6.1540084E-4,8.327365E-5,-2.877613E-5,2.173245E-4],"split_indices":[0,0,0,0,0,0,0,0,0,0,0,0,0,0,0,0,0],"split_type":[0,0,0,0,0,0,0,0,0,0,0,0,0,0,0,0,0],"sum_hessian":[1E1,7E0,3E0,6E0,1E0,2E0,1E0,4E0,2E0,1E0,1E0,1E0,3E0,1E0,1E0,2E0,1E0],"tree_param":{"num_deleted":"0","num_feature":"2","num_nodes":"17","size_leaf_vector":"1"}},{"base_weights":[5.1054225E-4,1.7401129E-3,-2.0762347E-3,-1.5554258E-4,7.5048505E-4,-3.8798202E-3,1.6672611E-4,1.804322E-3,-3.370136E-3,-1.05986E-4,-4.7598706E-4,2.8490723E-4,8.308664E-4,-5.846307E-4,7.9110265E-5,-2.685686E-5,2.0645857E-4],"categories":[],"categories_nodes":[],"categories_segments":[],"categories_sizes":[],"default_left":[0,0,0,0,0,0,0,0,0,0,0,0,0,0,0,0,0],"id":68,"left_children":[1,3,5,7,-1,9,-1,11,13,-1,-1,-1,15,-1,-1,-1,-1],"loss_changes":[3.859976E-5,8.859098E-5,3.3475535E-5,5.0181985E-5,0E0,2.4003202E-6,0E0,2.717894E-6,3.5536843E-5,0E0,0E0,0E0,5.9800595E-6,0E0,0E0,0E0,0E0],"parents":[2147483647,0,0,1,1,2,2,3,3,5,5,7,7,8,8,12,12],"right_children":[2,4,6,8,-1,10,-1,12,14,-1,-1,-1,16,-1,-1,-1,-1],"split_conditions":[9.7407746E-1,9.673681E-1,1E0,9.653858E-1,7.5048505E-4,9.882586E-1,1.6672611E-4,4.9100336E-1,9.6660566E-1,-1.05986E-4,-4.7598706E-4,2.8490723E-4,4.9649283E-1,-5.846307E-4,7.9110265E-5,-2.685686E-5,2.0645857E-4],"split_indices":[0,0,0,0,0,0,0,0,0,0,0,0,0,0,0,0,0],"split_type":[0,0,0,0,0,0,0,0,0,0,0,0,0,0,0,0,0],"sum_hessian":[1E1,7E0,3E0,6E0,1E0,2E0,1E0,4E0,2E0,1E0,1E0,1E0,3E0,1E0,1E0,2E0,1E0],"tree_param":{"num_deleted":"0","num_feature":"2","num_nodes":"17","size_leaf_vector":"1"}},{"base_weights":[4.8623842E-4,1.6547889E-3,-1.972422E-3,-1.4584405E-4,7.1296096E-4,-3.685832E-3,1.5839041E-4,1.7167926E-3,-3.2016237E-3,-1.00687146E-4,-4.5218767E-4,2.7066172E-4,7.9268217E-4,-5.5539905E-4,7.51555E-5,-2.5065741E-5,1.9613505E-4],"categories":[],"categories_nodes":[],"categories_segments":[],"categories_sizes":[],"default_left":[0,0,0,0,0,0,0,0,0,0,0,0,0,0,0,0,0],"id":69,"left_children":[1,3,5,7,-1,9,-1,11,13,-1,-1,-1,15,-1,-1,-1,-1],"loss_changes":[3.4867695E-5,7.9904945E-5,3.0211782E-5,4.533917E-5,0E0,2.1662418E-6,0E0,2.428049E-6,3.2072112E-5,0E0,0E0,0E0,5.368898E-6,0E0,0E0,0E0,0E0],"parents":[2147483647,0,0,1,1,2,2,3,3,5,5,7,7,8,8,12,12],"right_children":[2,4,6,8,-1,10,-1,12,14,-1,-1,-1,16,-1,-1,-1,-1],"split_conditions":[9.7407746E-1,9.673681E-1,1E0,9.653858E-1,7.1296096E-4,9.882586E-1,1.5839041E-4,4.9100336E-1,9.6660566E-1,-1.00687146E-4,-4.5218767E-4,2.7066172E-4,4.9649283E-1,-5.5539905E-4,7.51555E-5,-2.5065741E-5,1.9613505E-4],"split_indices":[0,0,0,0,0,0,0,0,0,0,0,0,0,0,0,0,0],"split_type":[0,0,0,0,0,0,0,0,0,0,0,0,0,0,0,0,0],"sum_hessian":[1E1,7E0,3E0,6E0,1E0,2E0,1E0,4E0,2E0,1E0,1E0,1E0,3E0,1E0,1E0,2E0,1E0],"tree_param":{"num_deleted":"0","num_feature":"2","num_nodes":"17","size_leaf_vector":"1"}},{"base_weights":[4.6306307E-4,1.573611E-3,-1.8737987E-3,-1.3676286E-4,6.7731144E-4,-3.5015445E-3,1.5047193E-4,1.6334594E-3,-3.0415456E-3,-9.565354E-5,-4.2957813E-4,2.5712847E-4,7.561818E-4,-5.276293E-4,7.139742E-5,-6.790608E-5,1.4609496E-4],"categories":[],"categories_nodes":[],"categories_segments":[],"categories_sizes":[],"default_left":[0,0,0,0,0,0,0,0,0,0,0,0,0,0,0,0,0],"id":70,"left_children":[1,3,5,7,-1,9,-1,11,13,-1,-1,-1,15,-1,-1,-1,-1],"loss_changes":[3.1495798E-5,7.207107E-5,2.7266313E-5,4.096302E-5,0E0,1.9549552E-6,0E0,2.1693068E-6,2.8945047E-5,0E0,0E0,0E0,5.038125E-6,0E0,0E0,0E0,0E0],"parents":[2147483647,0,0,1,1,2,2,3,3,5,5,7,7,8,8,12,12],"right_children":[2,4,6,8,-1,10,-1,12,14,-1,-1,-1,16,-1,-1,-1,-1],"split_conditions":[9.7407746E-1,9.673681E-1,1E0,9.653858E-1,6.7731144E-4,9.882586E-1,1.5047193E-4,4.9100336E-1,9.6660566E-1,-9.565354E-5,-4.2957813E-4,2.5712847E-4,4.9420556E-1,-5.276293E-4,7.139742E-5,-6.790608E-5,1.4609496E-4],"split_indices":[0,0,0,0,0,0,0,0,0,0,0,0,0,0,0,0,0],"split_type":[0,0,0,0,0,0,0,0,0,0,0,0,0,0,0,0,0],"sum_hessian":[1E1,7E0,3E0,6E0,1E0,2E0,1E0,4E0,2E0,1E0,1E0,1E0,3E0,1E0,1E0,1E0,2E0],"tree_param":{"num_deleted":"0","num_feature":"2","num_nodes":"17","size_leaf_vector":"1"}},{"base_weights":[4.3327024E-4,1.4858041E-3,-1.7801151E-3,-1.403583E-4,6.4344704E-4,-3.3264656E-3,1.4294684E-4,1.5371799E-3,-2.8894693E-3,-9.0870264E-5,-4.080996E-4,2.4427177E-4,7.0011616E-4,-5.0124753E-4,6.782711E-5,-2.5999547E-5,1.7902255E-4],"categories":[],"categories_nodes":[],"categories_segments":[],"categories_sizes":[],"default_left":[0,0,0,0,0,0,0,0,0,0,0,0,0,0,0,0,0],"id":71,"left_children":[1,3,5,7,-1,9,-1,11,13,-1,-1,-1,15,-1,-1,-1,-1],"loss_changes":[2.8271195E-5,6.528181E-5,2.4607645E-5,3.6723806E-5,0E0,1.7644124E-6,0E0,2.079778E-6,2.6122816E-5,0E0,0E0,0E0,4.651957E-6,0E0,0E0,0E0,0E0],"parents":[2147483647,0,0,1,1,2,2,3,3,5,5,7,7,8,8,12,12],"right_children":[2,4,6,8,-1,10,-1,12,14,-1,-1,-1,16,-1,-1,-1,-1],"split_conditions":[9.7407746E-1,9.673681E-1,1E0,9.653858E-1,6.4344704E-4,9.882586E-1,1.4294684E-4,4.9100336E-1,9.6660566E-1,-9.0870264E-5,-4.080996E-4,2.4427177E-4,4.9649283E-1,-5.0124753E-4,6.782711E-5,-2.5999547E-5,1.7902255E-4],"split_indices":[0,0,0,0,0,0,0,0,0,0,0,0,0,0,0,0,0],"split_type":[0,0,0,0,0,0,0,0,0,0,0,0,0,0,0,0,0],"sum_hessian":[1E1,7E0,3E0,6E0,1E0,2E0,1E0,4E0,2E0,1E0,1E0,1E0,3E0,1E0,1E0,2E0,1E0],"tree_param":{"num_deleted":"0","num_feature":"2","num_nodes":"17","size_leaf_vector":"1"}},{"base_weights":[4.1279197E-4,1.4131423E-3,-1.6911067E-3,-1.3148146E-4,6.1127543E-4,-3.160144E-3,1.3580025E-4,1.4629245E-3,-2.7449976E-3,-8.63269E-5,-3.876947E-4,2.3205877E-4,6.683618E-4,-4.7618523E-4,6.4435604E-5,-6.3210726E-5,1.312554E-4],"categories":[],"categories_nodes":[],"categories_segments":[],"categories_sizes":[],"default_left":[0,0,0,0,0,0,0,0,0,0,0,0,0,0,0,0,0],"id":72,"left_children":[1,3,5,7,-1,9,-1,11,13,-1,-1,-1,15,-1,-1,-1,-1],"loss_changes":[2.5540769E-5,5.8876773E-5,2.2208502E-5,3.3184766E-5,0E0,1.5923706E-6,0E0,1.8563433E-6,2.3575833E-5,0E0,0E0,0E0,4.1806825E-6,0E0,0E0,0E0,0E0],"parents":[2147483647,0,0,1,1,2,2,3,3,5,5,7,7,8,8,12,12],"right_children":[2,4,6,8,-1,10,-1,12,14,-1,-1,-1,16,-1,-1,-1,-1],"split_conditions":[9.7407746E-1,9.673681E-1,1E0,9.653858E-1,6.1127543E-4,9.882586E-1,1.3580025E-4,4.9100336E-1,9.6660566E-1,-8.63269E-5,-3.876947E-4,2.3205877E-4,4.9420556E-1,-4.7618523E-4,6.4435604E-5,-6.3210726E-5,1.312554E-4],"split_indices":[0,0,0,0,0,0,0,0,0,0,0,0,0,0,0,0,0],"split_type":[0,0,0,0,0,0,0,0,0,0,0,0,0,0,0,0,0],"sum_hessian":[1E1,7E0,3E0,6E0,1E0,2E0,1E0,4E0,2E0,1E0,1E0,1E0,3E0,1E0,1E0,1E0,2E0],"tree_param":{"num_deleted":"0","num_feature":"2","num_nodes":"17","size_leaf_vector":"1"}},{"base_weights":[3.8618932E-4,1.3342816E-3,-1.6065426E-3,-1.3427863E-4,5.807102E-4,-3.002132E-3,1.2901127E-4,1.3766587E-3,-2.607748E-3,-8.201003E-5,-3.6830976E-4,2.2045673E-4,6.1853975E-4,-4.5237617E-4,6.121397E-5,-2.6534995E-5,1.6351044E-4],"categories":[],"categories_nodes":[],"categories_segments":[],"categories_sizes":[],"default_left":[0,0,0,0,0,0,0,0,0,0,0,0,0,0,0,0,0],"id":73,"left_children":[1,3,5,7,-1,9,-1,11,13,-1,-1,-1,15,-1,-1,-1,-1],"loss_changes":[2.2925811E-5,5.3328615E-5,2.0043255E-5,2.9750778E-5,0E0,1.4371544E-6,0E0,1.7746534E-6,2.127722E-5,0E0,0E0,0E0,4.0279992E-6,0E0,0E0,0E0,0E0],"parents":[2147483647,0,0,1,1,2,2,3,3,5,5,7,7,8,8,12,12],"right_children":[2,4,6,8,-1,10,-1,12,14,-1,-1,-1,16,-1,-1,-1,-1],"split_conditions":[9.7407746E-1,9.673681E-1,1E0,9.653858E-1,5.807102E-4,9.882586E-1,1.2901127E-4,4.9100336E-1,9.6660566E-1,-8.201003E-5,-3.6830976E-4,2.2045673E-4,4.9649283E-1,-4.5237617E-4,6.121397E-5,-2.6534995E-5,1.6351044E-4],"split_indices":[0,0,0,0,0,0,0,0,0,0,0,0,0,0,0,0,0],"split_type":[0,0,0,0,0,0,0,0,0,0,0,0,0,0,0,0,0],"sum_hessian":[1E1,7E0,3E0,6E0,1E0,2E0,1E0,4E0,2E0,1E0,1E0,1E0,3E0,1E0,1E0,2E0,1E0],"tree_param":{"num_deleted":"0","num_feature":"2","num_nodes":"17","size_leaf_vector":"1"}},{"base_weights":[3.680844E-4,1.2692194E-3,-1.5262067E-3,-1.2567427E-4,5.5167376E-4,-2.8520226E-3,1.2256205E-4,1.3104737E-3,-2.4773628E-3,-7.790923E-5,-3.4989417E-4,2.0943284E-4,5.909279E-4,-4.297577E-4,5.8153273E-5,-2.4766723E-5,1.5533567E-4],"categories":[],"categories_nodes":[],"categories_segments":[],"categories_sizes":[],"default_left":[0,0,0,0,0,0,0,0,0,0,0,0,0,0,0,0,0],"id":74,"left_children":[1,3,5,7,-1,9,-1,11,13,-1,-1,-1,15,-1,-1,-1,-1],"loss_changes":[2.0714224E-5,4.8092006E-5,1.8089164E-5,2.6888127E-5,0E0,1.2970559E-6,0E0,1.5824999E-6,1.9202718E-5,0E0,0E0,0E0,3.613068E-6,0E0,0E0,0E0,0E0],"parents":[2147483647,0,0,1,1,2,2,3,3,5,5,7,7,8,8,12,12],"right_children":[2,4,6,8,-1,10,-1,12,14,-1,-1,-1,16,-1,-1,-1,-1],"split_conditions":[9.7407746E-1,9.673681E-1,1E0,9.653858E-1,5.5167376E-4,9.882586E-1,1.2256205E-4,4.9100336E-1,9.6660566E-1,-7.790923E-5,-3.4989417E-4,2.0943284E-4,4.9649283E-1,-4.297577E-4,5.8153273E-5,-2.4766723E-5,1.5533567E-4],"split_indices":[0,0,0,0,0,0,0,0,0,0,0,0,0,0,0,0,0],"split_type":[0,0,0,0,0,0,0,0,0,0,0,0,0,0,0,0,0],"sum_hessian":[1E1,7E0,3E0,6E0,1E0,2E0,1E0,4E0,2E0,1E0,1E0,1E0,3E0,1E0,1E0,2E0,