{"learner":{"attributes":{"scikit_learn":"{\"_estimator_type\": \"regressor\"}"},"feature_names":[],"feature_types":[],"gradient_booster":{"model":{"gbtree_model_param":{"num_parallel_tree":"1","num_trees":"500"},"iteration_indptr":[0,1,2,3,4,5,6,7,8,9,10,11,12,13,14,15,16,17,18,19,20,21,22,23,24,25,26,27,28,29,30,31,32,33,34,35,36,37,38,39,40,41,42,43,44,45,46,47,48,49,50,51,52,53,54,55,56,57,58,59,60,61,62,63,64,65,66,67,68,69,70,71,72,73,74,75,76,77,78,79,80,81,82,83,84,85,86,87,88,89,90,91,92,93,94,95,96,97,98,99,100,101,102,103,104,105,106,107,108,109,110,111,112,113,114,115,116,117,118,119,120,121,122,123,124,125,126,127,128,129,130,131,132,133,134,135,136,137,138,139,140,141,142,143,144,145,146,147,148,149,150,151,152,153,154,155,156,157,158,159,160,161,162,163,164,165,166,167,168,169,170,171,172,173,174,175,176,177,178,179,180,181,182,183,184,185,186,187,188,189,190,191,192,193,194,195,196,197,198,199,200,201,202,203,204,205,206,207,208,209,210,211,212,213,214,215,216,217,218,219,220,221,222,223,224,225,226,227,228,229,230,231,232,233,234,235,236,237,238,239,240,241,242,243,244,245,246,247,248,249,250,251,252,253,254,255,256,257,258,259,260,261,262,263,264,265,266,267,268,269,270,271,272,273,274,275,276,277,278,279,280,281,282,283,284,285,286,287,288,289,290,291,292,293,294,295,296,297,298,299,300,301,302,303,304,305,306,307,308,309,310,311,312,313,314,315,316,317,318,319,320,321,322,323,324,325,326,327,328,329,330,331,332,333,334,335,336,337,338,339,340,341,342,343,344,345,346,347,348,349,350,351,352,353,354,355,356,357,358,359,360,361,362,363,364,365,366,367,368,369,370,371,372,373,374,375,376,377,378,379,380,381,382,383,384,385,386,387,388,389,390,391,392,393,394,395,396,397,398,399,400,401,402,403,404,405,406,407,408,409,410,411,412,413,414,415,416,417,418,419,420,421,422,423,424,425,426,427,428,429,430,431,432,433,434,435,436,437,438,439,440,441,442,443,444,445,446,447,448,449,450,451,452,453,454,455,456,457,458,459,460,461,462,463,464,465,466,467,468,469,470,471,472,473,474,475,476,477,478,479,480,481,482,483,484,485,486,487,488,489,490,491,492,493,494,495,496,497,498,499,500],"tree_info":[0,0,0,0,0,0,0,0,0,0,0,0,0,0,0,0,0,0,0,0,0,0,0,0,0,0,0,0,0,0,0,0,0,0,0,0,0,0,0,0,0,0,0,0,0,0,0,0,0,0,0,0,0,0,0,0,0,0,0,0,0,0,0,0,0,0,0,0,0,0,0,0,0,0,0,0,0,0,0,0,0,0,0,0,0,0,0,0,0,0,0,0,0,0,0,0,0,0,0,0,0,0,0,0,0,0,0,0,0,0,0,0,0,0,0,0,0,0,0,0,0,0,0,0,0,0,0,0,0,0,0,0,0,0,0,0,0,0,0,0,0,0,0,0,0,0,0,0,0,0,0,0,0,0,0,0,0,0,0,0,0,0,0,0,0,0,0,0,0,0,0,0,0,0,0,0,0,0,0,0,0,0,0,0,0,0,0,0,0,0,0,0,0,0,0,0,0,0,0,0,0,0,0,0,0,0,0,0,0,0,0,0,0,0,0,0,0,0,0,0,0,0,0,0,0,0,0,0,0,0,0,0,0,0,0,0,0,0,0,0,0,0,0,0,0,0,0,0,0,0,0,0,0,0,0,0,0,0,0,0,0,0,0,0,0,0,0,0,0,0,0,0,0,0,0,0,0,0,0,0,0,0,0,0,0,0,0,0,0,0,0,0,0,0,0,0,0,0,0,0,0,0,0,0,0,0,0,0,0,0,0,0,0,0,0,0,0,0,0,0,0,0,0,0,0,0,0,0,0,0,0,0,0,0,0,0,0,0,0,0,0,0,0,0,0,0,0,0,0,0,0,0,0,0,0,0,0,0,0,0,0,0,0,0,0,0,0,0,0,0,0,0,0,0,0,0,0,0,0,0,0,0,0,0,0,0,0,0,0,0,0,0,0,0,0,0,0,0,0,0,0,0,0,0,0,0,0,0,0,0,0,0,0,0,0,0,0,0,0,0,0,0,0,0,0,0,0,0,0,0,0,0,0,0,0,0,0,0,0,0,0,0,0,0,0,0,0,0,0,0,0,0,0,0,0,0,0,0,0,0,0,0,0,0,0,0,0,0,0,0,0,0,0,0,0,0,0,0,0,0,0,0,0,0,0,0,0,0,0,0,0,0,0,0,0,0,0,0,0,0],"trees":[{"base_weights":[4.3348834E-8,1.2451143E0,-1.74316E-1,4.3110675E-1,2.1867554E0,1.0828169E-1,-2.524972E-3,2.8319833E-1,4.4814993E-2,1.2886667E-1,-1.9834995E-2,-8.501673E-3,2.7831674E-2],"categories":[],"categories_nodes":[],"categories_segments":[],"categories_sizes":[],"default_left":[0,0,0,0,0,0,0,0,0,0,0,0,0],"id":0,"left_children":[1,3,-1,5,7,-1,9,-1,-1,11,-1,-1,-1],"loss_changes":[2.60452E1,4.422797E0,0E0,1.4157448E0,2.0962353E0,0E0,1.2847976E-1,0E0,0E0,1.1955625E-1,0E0,0E0,0E0],"parents":[2147483647,0,0,1,1,3,3,4,4,6,6,9,9],"right_children":[2,4,-1,6,8,-1,10,-1,-1,12,-1,-1,-1],"split_conditions":[9.6889293E-1,9.6660566E-1,-1.74316E-1,4.9420556E-1,9.673681E-1,1.0828169E-1,9.653858E-1,2.8319833E-1,4.4814993E-2,4.9649283E-1,-1.9834995E-2,-8.501673E-3,2.7831674E-2],"split_indices":[0,0,0,0,0,0,0,0,0,0,0,0,0],"split_type":[0,0,0,0,0,0,0,0,0,0,0,0,0],"sum_hessian":[1E1,6E0,4E0,4E0,2E0,1E0,3E0,1E0,1E0,2E0,1E0,1E0,1E0],"tree_param":{"num_deleted":"0","num_feature":"2","num_nodes":"13","size_leaf_vector":"1"}},{"base_weights":[2.3770375E-2,1.1828586E0,-1.6037072E-1,4.0955144E-1,2.0774176E0,1.028676E-1,-2.3987293E-3,2.690384E-1,4.2574238E-2,1.2242333E-1,-1.8843247E-2,-8.076596E-3,2.6440097E-2],"categories":[],"categories_nodes":[],"categories_segments":[],"categories_sizes":[],"default_left":[0,0,0,0,0,0,0,0,0,0,0,0,0],"id":1,"left_children":[1,3,-1,5,7,-1,9,-1,-1,11,-1,-1,-1],"loss_changes":[2.264725E1,3.9915724E0,0E0,1.27771E0,1.8918552E0,0E0,1.15952976E-1,0E0,0E0,1.0789959E-1,0E0,0E0,0E0],"parents":[2147483647,0,0,1,1,3,3,4,4,6,6,9,9],"right_children":[2,4,-1,6,8,-1,10,-1,-1,12,-1,-1,-1],"split_conditions":[9.6889293E-1,9.6660566E-1,-1.6037072E-1,4.9420556E-1,9.673681E-1,1.028676E-1,9.653858E-1,2.690384E-1,4.2574238E-2,4.9649283E-1,-1.8843247E-2,-8.076596E-3,2.6440097E-2],"split_indices":[0,0,0,0,0,0,0,0,0,0,0,0,0],"split_type":[0,0,0,0,0,0,0,0,0,0,0,0,0],"sum_hessian":[1E1,6E0,4E0,4E0,2E0,1E0,3E0,1E0,1E0,2E0,1E0,1E0,1E0],"tree_param":{"num_deleted":"0","num_feature":"2","num_nodes":"13","size_leaf_vector":"1"}},{"base_weights":[4.4450585E-2,1.1237156E0,-1.4754106E0,3.8907385E-1,1.9735466E0,-1.7987867E-1,-6.6023093E-1,9.772422E-2,-2.2788048E-3,2.5558648E-1,4.0445518E-2,5.5949356E-2,-1.54984E-1,1.1630217E-1,-1.7901087E-2,-7.672763E-3,2.5118088E-2],"categories":[],"categories_nodes":[],"categories_segments":[],"categories_sizes":[],"default_left":[0,0,0,0,0,0,0,0,0,0,0,0,0,0,0,0,0],"id":2,"left_children":[1,3,5,7,9,-1,11,-1,13,-1,-1,-1,-1,15,-1,-1,-1],"loss_changes":[1.9701605E1,3.602394E0,1.3043404E-1,1.1531332E0,1.7073984E0,0E0,4.1223593E0,0E0,1.0464759E-1,0E0,0E0,0E0,0E0,9.737934E-2,0E0,0E0,0E0],"parents":[2147483647,0,0,1,1,2,2,3,3,4,4,6,6,8,8,13,13],"right_children":[2,4,6,8,10,-1,12,-1,14,-1,-1,-1,-1,16,-1,-1,-1],"split_conditions":[9.6889293E-1,9.6660566E-1,9.746874E-1,4.9420556E-1,9.673681E-1,-1.7987867E-1,9.882586E-1,9.772422E-2,9.653858E-1,2.5558648E-1,4.0445518E-2,5.5949356E-2,-1.54984E-1,4.9649283E-1,-1.7901087E-2,-7.672763E-3,2.5118088E-2],"split_indices":[0,0,0,0,0,0,0,0,0,0,0,0,0,0,0,0,0],"split_type":[0,0,0,0,0,0,0,0,0,0,0,0,0,0,0,0,0],"sum_hessian":[1E1,6E0,4E0,4E0,2E0,2E0,2E0,1E0,3E0,1E0,1E0,1E0,1E0,2E0,1E0,1E0,1E0],"tree_param":{"num_deleted":"0","num_feature":"2","num_nodes":"17","size_leaf_vector":"1"}},{"base_weights":[5.0404374E-2,1.0675298E0,-1.3836521E0,3.6962014E-1,1.8748693E0,-1.6788675E-1,-6.272194E-1,9.2838004E-2,-2.1648407E-3,2.4280715E-1,3.842325E-2,5.3151894E-2,-1.472348E-1,1.1048714E-1,-1.700604E-2,-7.2891237E-3,2.3862196E-2],"categories":[],"categories_nodes":[],"categories_segments":[],"categories_sizes":[],"default_left":[0,0,0,0,0,0,0,0,0,0,0,0,0,0,0,0,0],"id":3,"left_children":[1,3,5,7,9,-1,11,-1,13,-1,-1,-1,-1,15,-1,-1,-1],"loss_changes":[1.7521858E1,3.251161E0,6.353474E-2,1.0407023E0,1.540926E0,0E0,3.7204294E0,0E0,9.444456E-2,0E0,0E0,0E0,0E0,8.788491E-2,0E0,0E0,0E0],"parents":[2147483647,0,0,1,1,2,2,3,3,4,4,6,6,8,8,13,13],"right_children":[2,4,6,8,10,-1,12,-1,14,-1,-1,-1,-1,16,-1,-1,-1],"split_conditions":[9.6889293E-1,9.6660566E-1,9.746874E-1,4.9420556E-1,9.673681E-1,-1.6788675E-1,9.882586E-1,9.2838004E-2,9.653858E-1,2.4280715E-1,3.842325E-2,5.3151894E-2,-1.472348E-1,4.9649283E-1,-1.700604E-2,-7.2891237E-3,2.3862196E-2],"split_indices":[0,0,0,0,0,0,0,0,0,0,0,0,0,0,0,0,0],"split_type":[0,0,0,0,0,0,0,0,0,0,0,0,0,0,0,0,0],"sum_hessian":[1E1,6E0,4E0,4E0,2E0,2E0,2E0,1E0,3E0,1E0,1E0,1E0,1E0,2E0,1E0,1E0,1E0],"tree_param":{"num_deleted":"0","num_feature":"2","num_nodes":"17","size_leaf_vector":"1"}},{"base_weights":[5.5515334E-2,1.0141532E0,-1.2976809E0,3.5113907E-1,1.7811259E0,-1.5669431E-1,-5.958584E-1,8.819611E-2,-2.0567179E-3,2.3066679E-1,3.65021E-2,5.049429E-2,-1.3987306E-1,1.0496267E-1,-1.6155744E-2,-6.924677E-3,2.2669077E-2],"categories":[],"categories_nodes":[],"categories_segments":[],"categories_sizes":[],"default_left":[0,0,0,0,0,0,0,0,0,0,0,0,0,0,0,0,0],"id":4,"left_children":[1,3,5,7,9,-1,11,-1,13,-1,-1,-1,-1,15,-1,-1,-1],"loss_changes":[1.5585525E1,2.9341736E0,1.1195183E-2,9.392345E-1,1.3906851E0,0E0,3.357687E0,0E0,8.523617E-2,0E0,0E0,0E0,0E0,7.9316154E-2,0E0,0E0,0E0],"parents":[2147483647,0,0,1,1,2,2,3,3,4,4,6,6,8,8,13,13],"right_children":[2,4,6,8,10,-1,12,-1,14,-1,-1,-1,-1,16,-1,-1,-1],"split_conditions":[9.6889293E-1,9.6660566E-1,9.746874E-1,4.9420556E-1,9.673681E-1,-1.5669431E-1,9.882586E-1,8.819611E-2,9.653858E-1,2.3066679E-1,3.65021E-2,5.049429E-2,-1.3987306E-1,4.9649283E-1,-1.6155744E-2,-6.924677E-3,2.2669077E-2],"split_indices":[0,0,0,0,0,0,0,0,0,0,0,0,0,0,0,0,0],"split_type":[0,0,0,0,0,0,0,0,0,0,0,0,0,0,0,0,0],"sum_hessian":[1E1,6E0,4E0,4E0,2E0,2E0,2E0,1E0,3E0,1E0,1E0,1E0,1E0,2E0,1E0,1E0,1E0],"tree_param":{"num_deleted":"0","num_feature":"2","num_nodes":"17","size_leaf_vector":"1"}},{"base_weights":[5.986205E-2,9.634456E-1,-1.2171274E-1,3.335821E-1,1.6920695E0,8.37863E-2,-1.9538403E-3,2.1913342E-1,3.4677006E-2,9.97146E-2,-1.5347958E-2,-6.5784454E-3,2.1535635E-2],"categories":[],"categories_nodes":[],"categories_segments":[],"categories_sizes":[],"default_left":[0,0,0,0,0,0,0,0,0,0,0,0,0],"id":5,"left_children":[1,3,-1,5,7,-1,9,-1,-1,11,-1,-1,-1],"loss_changes":[1.3865169E1,2.6480904E0,0E0,8.4765875E-1,1.2550926E0,0E0,7.6925695E-2,0E0,0E0,7.1582906E-2,0E0,0E0,0E0],"parents":[2147483647,0,0,1,1,3,3,4,4,6,6,9,9],"right_children":[2,4,-1,6,8,-1,10,-1,-1,12,-1,-1,-1],"split_conditions":[9.6889293E-1,9.6660566E-1,-1.2171274E-1,4.9420556E-1,9.673681E-1,8.37863E-2,9.653858E-1,2.1913342E-1,3.4677006E-2,4.9649283E-1,-1.5347958E-2,-6.5784454E-3,2.1535635E-2],"split_indices":[0,0,0,0,0,0,0,0,0,0,0,0,0],"split_type":[0,0,0,0,0,0,0,0,0,0,0,0,0],"sum_hessian":[1E1,6E0,4E0,4E0,2E0,1E0,3E0,1E0,1E0,2E0,1E0,1E0,1E0],"tree_param":{"num_deleted":"0","num_feature":"2","num_nodes":"13","size_leaf_vector":"1"}},{"base_weights":[7.346613E-2,9.152733E-1,-1.1197572E0,3.1690302E-1,1.6074661E0,-1.3813382E-1,-4.849237E-1,7.9597E-2,-1.8562078E-3,2.0817676E-1,3.2943156E-2,5.4055214E-2,-1.2679377E-1,9.472879E-2,-1.458056E-2,-6.2495233E-3,2.0458842E-2],"categories":[],"categories_nodes":[],"categories_segments":[],"categories_sizes":[],"default_left":[0,0,0,0,0,0,0,0,0,0,0,0,0,0,0,0,0],"id":6,"left_children":[1,3,5,7,9,-1,11,-1,13,-1,-1,-1,-1,15,-1,-1,-1],"loss_changes":[1.2073988E1,2.3899016E0,1.6045904E-1,7.6501256E-1,1.1327214E0,0E0,3.0942721E0,0E0,6.942539E-2,0E0,0E0,0E0,0E0,6.4603515E-2,0E0,0E0,0E0],"parents":[2147483647,0,0,1,1,2,2,3,3,4,4,6,6,8,8,13,13],"right_children":[2,4,6,8,10,-1,12,-1,14,-1,-1,-1,-1,16,-1,-1,-1],"split_conditions":[9.6889293E-1,9.6660566E-1,9.746874E-1,4.9420556E-1,9.673681E-1,-1.3813382E-1,9.882586E-1,7.9597E-2,9.653858E-1,2.0817676E-1,3.2943156E-2,5.4055214E-2,-1.2679377E-1,4.9649283E-1,-1.458056E-2,-6.2495233E-3,2.0458842E-2],"split_indices":[0,0,0,0,0,0,0,0,0,0,0,0,0,0,0,0,0],"split_type":[0,0,0,0,0,0,0,0,0,0,0,0,0,0,0,0,0],"sum_hessian":[1E1,6E0,4E0,4E0,2E0,2E0,2E0,1E0,3E0,1E0,1E0,1E0,1E0,2E0,1E0,1E0,1E0],"tree_param":{"num_deleted":"0","num_feature":"2","num_nodes":"17","size_leaf_vector":"1"}},{"base_weights":[7.607174E-2,8.6950976E-1,-1.0499558E0,3.01058E-1,1.5270928E0,-1.2892489E-1,-4.6067747E-1,7.561717E-2,-1.7633438E-3,1.9776793E-1,3.1295992E-2,5.1352452E-2,-1.2045407E-1,8.999237E-2,-1.3851523E-2,-5.937052E-3,1.9435907E-2],"categories":[],"categories_nodes":[],"categories_segments":[],"categories_sizes":[],"default_left":[0,0,0,0,0,0,0,0,0,0,0,0,0,0,0,0,0],"id":7,"left_children":[1,3,5,7,9,-1,11,-1,13,-1,-1,-1,-1,15,-1,-1,-1],"loss_changes":[1.0740711E1,2.156886E0,1.1112356E-1,6.904241E-1,1.0222812E0,0E0,2.7925806E0,0E0,6.265638E-2,0E0,0E0,0E0,0E0,5.8304735E-2,0E0,0E0,0E0],"parents":[2147483647,0,0,1,1,2,2,3,3,4,4,6,6,8,8,13,13],"right_children":[2,4,6,8,10,-1,12,-1,14,-1,-1,-1,-1,16,-1,-1,-1],"split_conditions":[9.6889293E-1,9.6660566E-1,9.746874E-1,4.9420556E-1,9.673681E-1,-1.2892489E-1,9.882586E-1,7.561717E-2,9.653858E-1,1.9776793E-1,3.1295992E-2,5.1352452E-2,-1.2045407E-1,4.9649283E-1,-1.3851523E-2,-5.937052E-3,1.9435907E-2],"split_indices":[0,0,0,0,0,0,0,0,0,0,0,0,0,0,0,0,0],"split_type":[0,0,0,0,0,0,0,0,0,0,0,0,0,0,0,0,0],"sum_hessian":[1E1,6E0,4E0,4E0,2E0,2E0,2E0,1E0,3E0,1E0,1E0,1E0,1E0,2E0,1E0,1E0,1E0],"tree_param":{"num_deleted":"0","num_feature":"2","num_nodes":"17","size_leaf_vector":"1"}},{"base_weights":[7.812838E-2,8.2603437E-1,-9.845656E-1,2.860052E-1,1.4507381E0,-1.2032991E-1,-4.3764368E-1,7.183633E-2,-1.6751289E-3,1.8787952E-1,2.9731203E-2,4.878483E-2,-1.1443138E-1,8.549277E-2,-1.3158942E-2,-5.640197E-3,1.8464113E-2],"categories":[],"categories_nodes":[],"categories_segments":[],"categories_sizes":[],"default_left":[0,0,0,0,0,0,0,0,0,0,0,0,0,0,0,0,0],"id":8,"left_children":[1,3,5,7,9,-1,11,-1,13,-1,-1,-1,-1,15,-1,-1,-1],"loss_changes":[9.556032E0,1.9465895E0,7.153416E-2,6.231079E-1,9.226079E-1,0E0,2.5203042E0,0E0,5.6547362E-2,0E0,0E0,0E0,0E0,5.262001E-2,0E0,0E0,0E0],"parents":[2147483647,0,0,1,1,2,2,3,3,4,4,6,6,8,8,13,13],"right_children":[2,4,6,8,10,-1,12,-1,14,-1,-1,-1,-1,16,-1,-1,-1],"split_conditions":[9.6889293E-1,9.6660566E-1,9.746874E-1,4.9420556E-1,9.673681E-1,-1.2032991E-1,9.882586E-1,7.183633E-2,9.653858E-1,1.8787952E-1,2.9731203E-2,4.878483E-2,-1.1443138E-1,4.9649283E-1,-1.3158942E-2,-5.640197E-3,1.8464113E-2],"split_indices":[0,0,0,0,0,0,0,0,0,0,0,0,0,0,0,0,0],"split_type":[0,0,0,0,0,0,0,0,0,0,0,0,0,0,0,0,0],"sum_hessian":[1E1,6E0,4E0,4E0,2E0,2E0,2E0,1E0,3E0,1E0,1E0,1E0,1E0,2E0,1E0,1E0,1E0],"tree_param":{"num_deleted":"0","num_feature":"2","num_nodes":"17","size_leaf_vector":"1"}},{"base_weights":[7.9691455E-2,7.847325E-1,-9.233044E-1,2.7170485E-1,1.3782011E0,-1.1230792E-1,-4.1576147E-1,6.824451E-2,-1.591444E-3,1.7848554E-1,2.8244639E-2,4.634559E-2,-1.0870981E-1,8.1218086E-2,-1.2501001E-2,-5.3581954E-3,1.7540907E-2],"categories":[],"categories_nodes":[],"categories_segments":[],"categories_sizes":[],"default_left":[0,0,0,0,0,0,0,0,0,0,0,0,0,0,0,0,0],"id":9,"left_children":[1,3,5,7,9,-1,11,-1,13,-1,-1,-1,-1,15,-1,-1,-1],"loss_changes":[8.503233E0,1.7567968E0,4.0038586E-2,5.623549E-1,8.326545E-1,0E0,2.2745748E0,0E0,5.1034007E-2,0E0,0E0,0E0,0E0,4.7489613E-2,0E0,0E0,0E0],"parents":[2147483647,0,0,1,1,2,2,3,3,4,4,6,6,8,8,13,13],"right_children":[2,4,6,8,10,-1,12,-1,14,-1,-1,-1,-1,16,-1,-1,-1],"split_conditions":[9.6889293E-1,9.6660566E-1,9.746874E-1,4.9420556E-1,9.673681E-1,-1.1230792E-1,9.882586E-1,6.824451E-2,9.653858E-1,1.7848554E-1,2.8244639E-2,4.634559E-2,-1.0870981E-1,4.9649283E-1,-1.2501001E-2,-5.3581954E-3,1.7540907E-2],"split_indices":[0,0,0,0,0,0,0,0,0,0,0,0,0,0,0,0,0],"split_type":[0,0,0,0,0,0,0,0,0,0,0,0,0,0,0,0,0],"sum_hessian":[1E1,6E0,4E0,4E0,2E0,2E0,2E0,1E0,3E0,1E0,1E0,1E0,1E0,2E0,1E0,1E0,1E0],"tree_param":{"num_deleted":"0","num_feature":"2","num_nodes":"17","size_leaf_vector":"1"}},{"base_weights":[8.081176E-2,7.4549586E-1,-8.659083E-1,2.5811958E-1,1.309291E0,-1.0482072E-1,-3.9497343E-1,6.483226E-2,-1.5118122E-3,1.6956125E-1,2.6832415E-2,4.402831E-2,-1.0327432E-1,7.715718E-2,-1.187594E-2,-5.0902846E-3,1.6663862E-2],"categories":[],"categories_nodes":[],"categories_segments":[],"categories_sizes":[],"default_left":[0,0,0,0,0,0,0,0,0,0,0,0,0,0,0,0,0],"id":10,"left_children":[1,3,5,7,9,-1,11,-1,13,-1,-1,-1,-1,15,-1,-1,-1],"loss_changes":[7.5674987E0,1.5855091E0,1.5240431E-2,5.0752485E-1,7.514696E-1,0E0,2.0528035E0,0E0,4.6058137E-2,0E0,0E0,0E0,0E0,4.285936E-2,0E0,0E0,0E0],"parents":[2147483647,0,0,1,1,2,2,3,3,4,4,6,6,8,8,13,13],"right_children":[2,4,6,8,10,-1,12,-1,14,-1,-1,-1,-1,16,-1,-1,-1],"split_conditions":[9.6889293E-1,9.6660566E-1,9.746874E-1,4.9420556E-1,9.673681E-1,-1.0482072E-1,9.882586E-1,6.483226E-2,9.653858E-1,1.6956125E-1,2.6832415E-2,4.402831E-2,-1.0327432E-1,4.9649283E-1,-1.187594E-2,-5.0902846E-3,1.6663862E-2],"split_indices":[0,0,0,0,0,0,0,0,0,0,0,0,0,0,0,0,0],"split_type":[0,0,0,0,0,0,0,0,0,0,0,0,0,0,0,0,0],"sum_hessian":[1E1,6E0,4E0,4E0,2E0,2E0,2E0,1E0,3E0,1E0,1E0,1E0,1E0,2E0,1E0,1E0,1E0],"tree_param":{"num_deleted":"0","num_feature":"2","num_nodes":"17","size_leaf_vector":"1"}},{"base_weights":[8.153569E-2,7.0822096E-1,-8.121308E-2,2.4521351E-1,1.2438264E0,6.1590623E-2,-1.4362335E-3,1.6108318E-1,2.5490785E-2,7.329925E-2,-1.1282134E-2,-4.835773E-3,1.583066E-2],"categories":[],"categories_nodes":[],"categories_segments":[],"categories_sizes":[],"default_left":[0,0,0,0,0,0,0,0,0,0,0,0,0],"id":11,"left_children":[1,3,-1,5,7,-1,9,-1,-1,11,-1,-1,-1],"loss_changes":[6.735692E0,1.430922E0,0E0,4.580409E-1,6.782017E-1,0E0,4.1567396E-2,0E0,0E0,3.8680557E-2,0E0,0E0,0E0],"parents":[2147483647,0,0,1,1,3,3,4,4,6,6,9,9],"right_children":[2,4,-1,6,8,-1,10,-1,-1,12,-1,-1,-1],"split_conditions":[9.6889293E-1,9.6660566E-1,-8.121308E-2,4.9420556E-1,9.673681E-1,6.1590623E-2,9.653858E-1,1.6108318E-1,2.5490785E-2,4.9649283E-1,-1.1282134E-2,-4.835773E-3,1.583066E-2],"split_indices":[0,0,0,0,0,0,0,0,0,0,0,0,0],"split_type":[0,0,0,0,0,0,0,0,0,0,0,0,0],"sum_hessian":[1E1,6E0,4E0,4E0,2E0,1E0,3E0,1E0,1E0,2E0,1E0,1E0,1E0],"tree_param":{"num_deleted":"0","num_feature":"2","num_nodes":"13","size_leaf_vector":"1"}},{"base_weights":[8.85334E-2,6.7280996E-1,-7.4716043E-1,2.3295288E-1,1.181635E0,-9.241846E-2,-3.2108274E-1,5.8511116E-2,-1.3644695E-3,1.5302901E-1,2.4216248E-2,4.588754E-2,-9.404995E-2,6.963428E-2,-1.07180355E-2,-4.593992E-3,1.5039134E-2],"categories":[],"categories_nodes":[],"categories_segments":[],"categories_sizes":[],"default_left":[0,0,0,0,0,0,0,0,0,0,0,0,0,0,0,0,0],"id":12,"left_children":[1,3,5,7,9,-1,11,-1,13,-1,-1,-1,-1,15,-1,-1,-1],"loss_changes":[5.8737364E0,1.2914066E0,8.039045E-2,4.1338232E-1,6.1207676E-1,0E0,1.8809296E0,0E0,3.751461E-2,0E0,0E0,0E0,0E0,3.4909267E-2,0E0,0E0,0E0],"parents":[2147483647,0,0,1,1,2,2,3,3,4,4,6,6,8,8,13,13],"right_children":[2,4,6,8,10,-1,12,-1,14,-1,-1,-1,-1,16,-1,-1,-1],"split_conditions":[9.6889293E-1,9.6660566E-1,9.746874E-1,4.9420556E-1,9.673681E-1,-9.241846E-2,9.882586E-1,5.8511116E-2,9.653858E-1,1.5302901E-1,2.4216248E-2,4.588754E-2,-9.404995E-2,4.9649283E-1,-1.07180355E-2,-4.593992E-3,1.5039134E-2],"split_indices":[0,0,0,0,0,0,0,0,0,0,0,0,0,0,0,0,0],"split_type":[0,0,0,0,0,0,0,0,0,0,0,0,0,0,0,0,0],"sum_hessian":[1E1,6E0,4E0,4E0,2E0,2E0,2E0,1E0,3E0,1E0,1E0,1E0,1E0,2E0,1E0,1E0,1E0],"tree_param":{"num_deleted":"0","num_feature":"2","num_nodes":"17","size_leaf_vector":"1"}},{"base_weights":[8.83076E-2,6.391694E-1,-7.0056045E-1,2.2130528E-1,1.1225532E0,-8.625722E-2,-3.050286E-1,5.5585574E-2,-1.2962818E-3,1.4537755E-1,2.3005439E-2,4.359317E-2,-8.934746E-2,6.615257E-2,-1.0182142E-2,-4.3643E-3,1.4287186E-2],"categories":[],"categories_nodes":[],"categories_segments":[],"categories_sizes":[],"default_left":[0,0,0,0,0,0,0,0,0,0,0,0,0,0,0,0,0],"id":13,"left_children":[1,3,5,7,9,-1,11,-1,13,-1,-1,-1,-1,15,-1,-1,-1],"loss_changes":[5.2279067E0,1.1654944E0,5.7294846E-2,3.730778E-1,5.523989E-1,0E0,1.6975391E0,0E0,3.3856973E-2,0E0,0E0,0E0,0E0,3.1505667E-2,0E0,0E0,0E0],"parents":[2147483647,0,0,1,1,2,2,3,3,4,4,6,6,8,8,13,13],"right_children":[2,4,6,8,10,-1,12,-1,14,-1,-1,-1,-1,16,-1,-1,-1],"split_conditions":[9.6889293E-1,9.6660566E-1,9.746874E-1,4.9420556E-1,9.673681E-1,-8.625722E-2,9.882586E-1,5.5585574E-2,9.653858E-1,1.4537755E-1,2.3005439E-2,4.359317E-2,-8.934746E-2,4.9649283E-1,-1.0182142E-2,-4.3643E-3,1.4287186E-2],"split_indices":[0,0,0,0,0,0,0,0,0,0,0,0,0,0,0,0,0],"split_type":[0,0,0,0,0,0,0,0,0,0,0,0,0,0,0,0,0],"sum_hessian":[1E1,6E0,4E0,4E0,2E0,2E0,2E0,1E0,3E0,1E0,1E0,1E0,1E0,2E0,1E0,1E0,1E0],"tree_param":{"num_deleted":"0","num_feature":"2","num_nodes":"17","size_leaf_vector":"1"}},{"base_weights":[8.7812945E-2,6.07211E-1,-6.569069E-1,2.1023998E-1,1.0664257E0,-8.050676E-2,-2.8977728E-1,5.2806284E-2,-1.231432E-3,1.3810869E-1,2.1855164E-2,4.1413497E-2,-8.488009E-2,6.284507E-2,-9.673047E-3,-4.1460753E-3,1.3572836E-2],"categories":[],"categories_nodes":[],"categories_segments":[],"categories_sizes":[],"default_left":[0,0,0,0,0,0,0,0,0,0,0,0,0,0,0,0,0],"id":14,"left_children":[1,3,5,7,9,-1,11,-1,13,-1,-1,-1,-1,15,-1,-1,-1],"loss_changes":[4.653747E0,1.0518589E0,3.8680553E-2,3.3670253E-1,4.985404E-1,0E0,1.5320289E0,0E0,3.0556012E-2,0E0,0E0,0E0,0E0,2.8433856E-2,0E0,0E0,0E0],"parents":[2147483647,0,0,1,1,2,2,3,3,4,4,6,6,8,8,13,13],"right_children":[2,4,6,8,10,-1,12,-1,14,-1,-1,-1,-1,16,-1,-1,-1],"split_conditions":[9.6889293E-1,9.6660566E-1,9.746874E-1,4.9420556E-1,9.673681E-1,-8.050676E-2,9.882586E-1,5.2806284E-2,9.653858E-1,1.3810869E-1,2.1855164E-2,4.1413497E-2,-8.488009E-2,4.9649283E-1,-9.673047E-3,-4.1460753E-3,1.3572836E-2],"split_indices":[0,0,0,0,0,0,0,0,0,0,0,0,0,0,0,0,0],"split_type":[0,0,0,0,0,0,0,0,0,0,0,0,0,0,0,0,0],"sum_hessian":[1E1,6E0,4E0,4E0,2E0,2E0,2E0,1E0,3E0,1E0,1E0,1E0,1E0,2E0,1E0,1E0,1E0],"tree_param":{"num_deleted":"0","num_feature":"2","num_nodes":"17","size_leaf_vector":"1"}},{"base_weights":[8.708178E-2,5.7685053E-1,-6.1601084E-1,1.997281E-1,1.0131044E0,-7.5139634E-2,-2.7528843E-1,5.016599E-2,-1.1698008E-3,1.3120328E-1,2.0762397E-2,3.934283E-2,-8.06361E-2,5.9702873E-2,-9.1893915E-3,-3.9387704E-3,1.2894201E-2],"categories":[],"categories_nodes":[],"categories_segments":[],"categories_sizes":[],"default_left":[0,0,0,0,0,0,0,0,0,0,0,0,0,0,0,0,0],"id":15,"left_children":[1,3,5,7,9,-1,11,-1,13,-1,-1,-1,-1,15,-1,-1,-1],"loss_changes":[4.143227E0,9.493027E-1,2.3793697E-2,3.0387414E-1,4.499333E-1,0E0,1.3826566E0,0E0,2.7576806E-2,0E0,0E0,0E0,0E0,2.566157E-2,0E0,0E0,0E0],"parents":[2147483647,0,0,1,1,2,2,3,3,4,4,6,6,8,8,13,13],"right_children":[2,4,6,8,10,-1,12,-1,14,-1,-1,-1,-1,16,-1,-1,-1],"split_conditions":[9.6889293E-1,9.6660566E-1,9.746874E-1,4.9420556E-1,9.673681E-1,-7.5139634E-2,9.882586E-1,5.016599E-2,9.653858E-1,1.3120328E-1,2.0762397E-2,3.934283E-2,-8.06361E-2,4.9649283E-1,-9.1893915E-3,-3.9387704E-3,1.2894201E-2],"split_indices":[0,0,0,0,0,0,0,0,0,0,0,0,0,0,0,0,0],"split_type":[0,0,0,0,0,0,0,0,0,0,0,0,0,0,0,0,0],"sum_hessian":[1E1,6E0,4E0,4E0,2E0,2E0,2E0,1E0,3E0,1E0,1E0,1E0,1E0,2E0,1E0,1E0,1E0],"tree_param":{"num_deleted":"0","num_feature":"2","num_nodes":"17","size_leaf_vector":"1"}},{"base_weights":[8.614306E-2,5.4800797E-1,-5.7769644E-1,1.897417E-1,9.624491E-1,-7.013033E-2,-2.6152405E-1,4.765768E-2,-1.111269E-3,1.2464309E-1,1.9724274E-2,3.737569E-2,-7.66043E-2,5.6717712E-2,-8.729911E-3,-3.7418366E-3,1.2249494E-2],"categories":[],"categories_nodes":[],"categories_segments":[],"categories_sizes":[],"default_left":[0,0,0,0,0,0,0,0,0,0,0,0,0,0,0,0,0],"id":16,"left_children":[1,3,5,7,9,-1,11,-1,13,-1,-1,-1,-1,15,-1,-1,-1],"loss_changes":[3.6892278E0,8.5674524E-1,1.1997938E-2,2.7424628E-1,4.060645E-1,0E0,1.2478476E0,0E0,2.4888026E-2,0E0,0E0,0E0,0E0,2.315959E-2,0E0,0E0,0E0],"parents":[2147483647,0,0,1,1,2,2,3,3,4,4,6,6,8,8,13,13],"right_children":[2,4,6,8,10,-1,12,-1,14,-1,-1,-1,-1,16,-1,-1,-1],"split_conditions":[9.6889293E-1,9.6660566E-1,9.746874E-1,4.9420556E-1,9.673681E-1,-7.013033E-2,9.882586E-1,4.765768E-2,9.653858E-1,1.2464309E-1,1.9724274E-2,3.737569E-2,-7.66043E-2,4.9649283E-1,-8.729911E-3,-3.7418366E-3,1.2249494E-2],"split_indices":[0,0,0,0,0,0,0,0,0,0,0,0,0,0,0,0,0],"split_type":[0,0,0,0,0,0,0,0,0,0,0,0,0,0,0,0,0],"sum_hessian":[1E1,6E0,4E0,4E0,2E0,2E0,2E0,1E0,3E0,1E0,1E0,1E0,1E0,2E0,1E0,1E0,1E0],"tree_param":{"num_deleted":"0","num_feature":"2","num_nodes":"17","size_leaf_vector":"1"}},{"base_weights":[8.5023664E-2,5.2060753E-1,-5.417985E-1,1.8025455E-1,9.1432667E-1,-6.545498E-2,-2.4844773E-1,4.5274783E-2,-1.0557175E-3,1.1841092E-1,1.873808E-2,3.5506915E-2,-7.2774075E-2,5.3881805E-2,-8.2934145E-3,-3.5547495E-3,1.163702E-2],"categories":[],"categories_nodes":[],"categories_segments":[],"categories_sizes":[],"default_left":[0,0,0,0,0,0,0,0,0,0,0,0,0,0,0,0,0],"id":17,"left_children":[1,3,5,7,9,-1,11,-1,13,-1,-1,-1,-1,15,-1,-1,-1],"loss_changes":[3.2854342E0,7.7321255E-1,2.7569532E-3,2.4750714E-1,3.6647272E-1,0E0,1.1261827E0,0E0,2.2461433E-2,0E0,0E0,0E0,0E0,2.090155E-2,0E0,0E0,0E0],"parents":[2147483647,0,0,1,1,2,2,3,3,4,4,6,6,8,8,13,13],"right_children":[2,4,6,8,10,-1,12,-1,14,-1,-1,-1,-1,16,-1,-1,-1],"split_conditions":[9.6889293E-1,9.6660566E-1,9.746874E-1,4.9420556E-1,9.673681E-1,-6.545498E-2,9.882586E-1,4.5274783E-2,9.653858E-1,1.1841092E-1,1.873808E-2,3.5506915E-2,-7.2774075E-2,4.9649283E-1,-8.2934145E-3,-3.5547495E-3,1.163702E-2],"split_indices":[0,0,0,0,0,0,0,0,0,0,0,0,0,0,0,0,0],"split_type":[0,0,0,0,0,0,0,0,0,0,0,0,0,0,0,0,0],"sum_hessian":[1E1,6E0,4E0,4E0,2E0,2E0,2E0,1E0,3E0,1E0,1E0,1E0,1E0,2E0,1E0,1E0,1E0],"tree_param":{"num_deleted":"0","num_feature":"2","num_nodes":"17","size_leaf_vector":"1"}},{"base_weights":[8.374774E-2,4.945772E-1,-5.081631E-1,1.7124185E-1,8.686104E-1,-2.8952694E-1,-6.913538E-2,4.3011047E-2,-1.0029078E-3,1.1249037E-1,1.780119E-2,-6.109131E-2,3.373158E-2,5.1187675E-2,-7.878733E-3,-3.3770085E-3,1.1055159E-2],"categories":[],"categories_nodes":[],"categories_segments":[],"categories_sizes":[],"default_left":[0,0,0,0,0,0,0,0,0,0,0,0,0,0,0,0,0],"id":18,"left_children":[1,3,5,7,9,11,-1,-1,13,-1,-1,-1,-1,15,-1,-1,-1],"loss_changes":[2.926244E0,6.978247E-1,9.5009804E-5,2.2337517E-1,3.3074093E-1,1.011905E0,0E0,0E0,2.0271396E-2,0E0,0E0,0E0,0E0,1.8863613E-2,0E0,0E0,0E0],"parents":[2147483647,0,0,1,1,2,2,3,3,4,4,5,5,8,8,13,13],"right_children":[2,4,6,8,10,12,-1,-1,14,-1,-1,-1,-1,16,-1,-1,-1],"split_conditions":[9.6889293E-1,9.6660566E-1,9.882586E-1,4.9420556E-1,9.673681E-1,9.746874E-1,-6.913538E-2,4.3011047E-2,9.653858E-1,1.1249037E-1,1.780119E-2,-6.109131E-2,3.373158E-2,4.9649283E-1,-7.878733E-3,-3.3770085E-3,1.1055159E-2],"split_indices":[0,0,0,0,0,0,0,0,0,0,0,0,0,0,0,0,0],"split_type":[0,0,0,0,0,0,0,0,0,0,0,0,0,0,0,0,0],"sum_hessian":[1E1,6E0,4E0,4E0,2E0,3E0,1E0,1E0,3E0,1E0,1E0,2E0,1E0,2E0,1E0,1E0,1E0],"tree_param":{"num_deleted":"0","num_feature":"2","num_nodes":"17","size_leaf_vector":"1"}},{"base_weights":[8.233725E-2,4.6984836E-1,-4.7664577E-1,1.6267987E-1,8.2517976E-1,-2.674141E-1,-6.567862E-2,4.086051E-2,-9.5272064E-4,1.0686584E-1,1.6911125E-2,-5.701855E-2,3.2045007E-2,4.862833E-2,-7.4847937E-3,-3.2081604E-3,1.050241E-2],"categories":[],"categories_nodes":[],"categories_segments":[],"categories_sizes":[],"default_left":[0,0,0,0,0,0,0,0,0,0,0,0,0,0,0,0,0],"id":19,"left_children":[1,3,5,7,9,11,-1,-1,13,-1,-1,-1,-1,15,-1,-1,-1],"loss_changes":[2.6066844E0,6.2978625E-1,1.2821555E-2,2.0159619E-1,2.9849386E-1,8.946697E-1,0E0,0E0,1.829494E-2,0E0,0E0,0E0,0E0,1.7024437E-2,0E0,0E0,0E0],"parents":[2147483647,0,0,1,1,2,2,3,3,4,4,5,5,8,8,13,13],"right_children":[2,4,6,8,10,12,-1,-1,14,-1,-1,-1,-1,16,-1,-1,-1],"split_conditions":[9.6889293E-1,9.6660566E-1,9.882586E-1,4.9420556E-1,9.673681E-1,9.746874E-1,-6.567862E-2,4.086051E-2,9.653858E-1,1.0686584E-1,1.6911125E-2,-5.701855E-2,3.2045007E-2,4.9649283E-1,-7.4847937E-3,-3.2081604E-3,1.050241E-2],"split_indices":[0,0,0,0,0,0,0,0,0,0,0,0,0,0,0,0,0],"split_type":[0,0,0,0,0,0,0,0,0,0,0,0,0,0,0,0,0],"sum_hessian":[1E1,6E0,4E0,4E0,2E0,3E0,1E0,1E0,3E0,1E0,1E0,2E0,1E0,2E0,1E0,1E0,1E0],"tree_param":{"num_deleted":"0","num_feature":"2","num_nodes":"17","size_leaf_vector":"1"}},{"base_weights":[8.081219E-2,4.4635597E-1,-4.4711152E-1,1.5454598E-1,7.839206E-1,-2.4691594E-1,-6.239469E-2,3.8817503E-2,-9.050369E-4,1.0152254E-1,1.6065551E-2,-5.32173E-2,3.0442763E-2,4.6196938E-2,-7.110548E-3,-3.0477524E-3,9.977293E-3],"categories":[],"categories_nodes":[],"categories_segments":[],"categories_sizes":[],"default_left":[0,0,0,0,0,0,0,0,0,0,0,0,0,0,0,0,0],"id":20,"left_children":[1,3,5,7,9,11,-1,-1,13,-1,-1,-1,-1,15,-1,-1,-1],"loss_changes":[2.3223422E0,5.683814E-1,2.294594E-2,1.8194067E-1,2.693913E-1,7.911068E-1,0E0,0E0,1.6511174E-2,0E0,0E0,0E0,0E0,1.5364563E-2,0E0,0E0,0E0],"parents":[2147483647,0,0,1,1,2,2,3,3,4,4,5,5,8,8,13,13],"right_children":[2,4,6,8,10,12,-1,-1,14,-1,-1,-1,-1,16,-1,-1,-1],"split_conditions":[9.6889293E-1,9.6660566E-1,9.882586E-1,4.9420556E-1,9.673681E-1,9.746874E-1,-6.239469E-2,3.8817503E-2,9.653858E-1,1.0152254E-1,1.6065551E-2,-5.32173E-2,3.0442763E-2,4.9649283E-1,-7.110548E-3,-3.0477524E-3,9.977293E-3],"split_indices":[0,0,0,0,0,0,0,0,0,0,0,0,0,0,0,0,0],"split_type":[0,0,0,0,0,0,0,0,0,0,0,0,0,0,0,0,0],"sum_hessian":[1E1,6E0,4E0,4E0,2E0,3E0,1E0,1E0,3E0,1E0,1E0,2E0,1E0,2E0,1E0,1E0,1E0],"tree_param":{"num_deleted":"0","num_feature":"2","num_nodes":"17","size_leaf_vector":"1"}},{"base_weights":[7.9190604E-2,4.240382E-1,-4.1943416E-1,1.4681873E-1,7.447246E-1,-2.2791791E-1,-5.927496E-2,3.687663E-2,-8.597374E-4,9.644642E-2,1.526227E-2,-4.966947E-2,2.8920626E-2,4.388714E-2,-6.755018E-3,-2.8953552E-3,9.478427E-3],"categories":[],"categories_nodes":[],"categories_segments":[],"categories_sizes":[],"default_left":[0,0,0,0,0,0,0,0,0,0,0,0,0,0,0,0,0],"id":21,"left_children":[1,3,5,7,9,11,-1,-1,13,-1,-1,-1,-1,15,-1,-1,-1],"loss_changes":[2.0693014E0,5.12964E-1,3.0865371E-2,1.6420144E-1,2.4312556E-1,6.9961107E-1,0E0,0E0,1.4901339E-2,0E0,0E0,0E0,0E0,1.3866488E-2,0E0,0E0,0E0],"parents":[2147483647,0,0,1,1,2,2,3,3,4,4,5,5,8,8,13,13],"right_children":[2,4,6,8,10,12,-1,-1,14,-1,-1,-1,-1,16,-1,-1,-1],"split_conditions":[9.6889293E-1,9.6660566E-1,9.882586E-1,4.9420556E-1,9.673681E-1,9.746874E-1,-5.927496E-2,3.687663E-2,9.653858E-1,9.644642E-2,1.526227E-2,-4.966947E-2,2.8920626E-2,4.9649283E-1,-6.755018E-3,-2.8953552E-3,9.478427E-3],"split_indices":[0,0,0,0,0,0,0,0,0,0,0,0,0,0,0,0,0],"split_type":[0,0,0,0,0,0,0,0,0,0,0,0,0,0,0,0,0],"sum_hessian":[1E1,6E0,4E0,4E0,2E0,3E0,1E0,1E0,3E0,1E0,1E0,2E0,1E0,2E0,1E0,1E0,1E0],"tree_param":{"num_deleted":"0","num_feature":"2","num_nodes":"17","size_leaf_vector":"1"}},{"base_weights":[7.748873E-2,4.0283626E-1,-3.9349556E-1,1.3947773E-1,7.0748836E-1,-2.1031344E-1,-5.63112E-2,3.5032798E-2,-8.1682205E-4,9.162412E-2,1.449914E-2,-4.635819E-2,2.7474595E-2,4.1692734E-2,-6.4172745E-3,-2.7505874E-3,9.004498E-3],"categories":[],"categories_nodes":[],"categories_segments":[],"categories_sizes":[],"default_left":[0,0,0,0,0,0,0,0,0,0,0,0,0,0,0,0,0],"id":22,"left_children":[1,3,5,7,9,11,-1,-1,13,-1,-1,-1,-1,15,-1,-1,-1],"loss_changes":[1.8440835E0,4.629501E-1,3.6923528E-2,1.4819187E-1,2.1942139E-1,6.187682E-1,0E0,0E0,1.3448466E-2,0E0,0E0,0E0,0E0,1.2514489E-2,0E0,0E0,0E0],"parents":[2147483647,0,0,1,1,2,2,3,3,4,4,5,5,8,8,13,13],"right_children":[2,4,6,8,10,12,-1,-1,14,-1,-1,-1,-1,16,-1,-1,-1],"split_conditions":[9.6889293E-1,9.6660566E-1,9.882586E-1,4.9420556E-1,9.673681E-1,9.746874E-1,-5.63112E-2,3.5032798E-2,9.653858E-1,9.162412E-2,1.449914E-2,-4.635819E-2,2.7474595E-2,4.9649283E-1,-6.4172745E-3,-2.7505874E-3,9.004498E-3],"split_indices":[0,0,0,0,0,0,0,0,0,0,0,0,0,0,0,0,0],"split_type":[0,0,0,0,0,0,0,0,0,0,0,0,0,0,0,0,0],"sum_hessian":[1E1,6E0,4E0,4E0,2E0,3E0,1E0,1E0,3E0,1E0,1E0,2E0,1E0,2E0,1E0,1E0,1E0],"tree_param":{"num_deleted":"0","num_feature":"2","num_nodes":"17","size_leaf_vector":"1"}},{"base_weights":[7.5721435E-2,3.826944E-1,-3.6918497E-1,1.325037E-1,6.721141E-1,-1.9400299E-1,-5.3495646E-2,3.3281136E-2,-7.760525E-4,8.7042905E-2,1.3774204E-2,-4.326765E-2,2.6100874E-2,3.9608E-2,-6.096411E-3,-2.6130676E-3,8.554268E-3],"categories":[],"categories_nodes":[],"categories_segments":[],"categories_sizes":[],"default_left":[0,0,0,0,0,0,0,0,0,0,0,0,0,0,0,0,0],"id":23,"left_children":[1,3,5,7,9,11,-1,-1,13,-1,-1,-1,-1,15,-1,-1,-1],"loss_changes":[1.6436014E0,4.1781318E-1,4.1417778E-2,1.3374306E-1,1.9802737E-1,5.4732925E-1,0E0,0E0,1.21372165E-2,0E0,0E0,0E0,0E0,1.1294344E-2,0E0,0E0,0E0],"parents":[2147483647,0,0,1,1,2,2,3,3,4,4,5,5,8,8,13,13],"right_children":[2,4,6,8,10,12,-1,-1,14,-1,-1,-1,-1,16,-1,-1,-1],"split_conditions":[9.6889293E-1,9.6660566E-1,9.882586E-1,4.9420556E-1,9.673681E-1,9.746874E-1,-5.3495646E-2,3.3281136E-2,9.653858E-1,8.7042905E-2,1.3774204E-2,-4.326765E-2,2.6100874E-2,4.9649283E-1,-6.096411E-3,-2.6130676E-3,8.554268E-3],"split_indices":[0,0,0,0,0,0,0,0,0,0,0,0,0,0,0,0,0],"split_type":[0,0,0,0,0,0,0,0,0,0,0,0,0,0,0,0,0],"sum_hessian":[1E1,6E0,4E0,4E0,2E0,3E0,1E0,1E0,3E0,1E0,1E0,2E0,1E0,2E0,1E0,1E0,1E0],"tree_param":{"num_deleted":"0","num_feature":"2","num_nodes":"17","size_leaf_vector":"1"}},{"base_weights":[7.390204E-2,3.6355966E-1,-3.46399E-1,1.2587842E-1,6.385085E-1,-1.788944E-1,-5.0820876E-2,3.161707E-2,-7.3730946E-4,8.269077E-2,1.3085509E-2,-4.0383134E-2,2.479582E-2,3.7627537E-2,-5.791593E-3,-2.4824142E-3,8.126545E-3],"categories":[],"categories_nodes":[],"categories_segments":[],"categories_sizes":[],"default_left":[0,0,0,0,0,0,0,0,0,0,0,0,0,0,0,0,0],"id":24,"left_children":[1,3,5,7,9,11,-1,-1,13,-1,-1,-1,-1,15,-1,-1,-1],"loss_changes":[1.4651142E0,3.770767E-1,4.4603705E-2,1.20703086E-1,1.787194E-1,4.841929E-1,0E0,0E0,1.095383E-2,0E0,0E0,0E0,0E0,1.0193127E-2,0E0,0E0,0E0],"parents":[2147483647,0,0,1,1,2,2,3,3,4,4,5,5,8,8,13,13],"right_children":[2,4,6,8,10,12,-1,-1,14,-1,-1,-1,-1,16,-1,-1,-1],"split_conditions":[9.6889293E-1,9.6660566E-1,9.882586E-1,4.9420556E-1,9.673681E-1,9.746874E-1,-5.0820876E-2,3.161707E-2,9.653858E-1,8.269077E-2,1.3085509E-2,-4.0383134E-2,2.479582E-2,4.9649283E-1,-5.791593E-3,-2.4824142E-3,8.126545E-3],"split_indices":[0,0,0,0,0,0,0,0,0,0,0,0,0,0,0,0,0],"split_type":[0,0,0,0,0,0,0,0,0,0,0,0,0,0,0,0,0],"sum_hessian":[1E1,6E0,4E0,4E0,2E0,3E0,1E0,1E0,3E0,1E0,1E0,2E0,1E0,2E0,1E0,1E0,1E0],"tree_param":{"num_deleted":"0","num_feature":"2","num_nodes":"17","size_leaf_vector":"1"}},{"base_weights":[7.204251E-2,3.453816E-1,-3.2504073E-1,1.1958446E-1,6.0658294E-1,-1.6490173E-1,-4.8279833E-2,3.0036211E-2,-7.004738E-4,7.85562E-2,1.2431241E-2,-3.769091E-2,2.3556018E-2,3.5746098E-2,-5.5020093E-3,-2.3582936E-3,7.7202083E-3],"categories":[],"categories_nodes":[],"categories_segments":[],"categories_sizes":[],"default_left":[0,0,0,0,0,0,0,0,0,0,0,0,0,0,0,0,0],"id":25,"left_children":[1,3,5,7,9,11,-1,-1,13,-1,-1,-1,-1,15,-1,-1,-1],"loss_changes":[1.3061851E0,3.403117E-1,4.670143E-2,1.0893454E-1,1.6129386E-1,4.283883E-1,0E0,0E0,9.885809E-3,0E0,0E0,0E0,0E0,9.199281E-3,0E0,0E0,0E0],"parents":[2147483647,0,0,1,1,2,2,3,3,4,4,5,5,8,8,13,13],"right_children":[2,4,6,8,10,12,-1,-1,14,-1,-1,-1,-1,16,-1,-1,-1],"split_conditions":[9.6889293E-1,9.6660566E-1,9.882586E-1,4.9420556E-1,9.673681E-1,9.746874E-1,-4.8279833E-2,3.0036211E-2,9.653858E-1,7.85562E-2,1.2431241E-2,-3.769091E-2,2.3556018E-2,4.9649283E-1,-5.5020093E-3,-2.3582936E-3,7.7202083E-3],"split_indices":[0,0,0,0,0,0,0,0,0,0,0,0,0,0,0,0,0],"split_type":[0,0,0,0,0,0,0,0,0,0,0,0,0,0,0,0,0],"sum_hessian":[1E1,6E0,4E0,4E0,2E0,3E0,1E0,1E0,3E0,1E0,1E0,2E0,1E0,2E0,1E0,1E0,1E0],"tree_param":{"num_deleted":"0","num_feature":"2","num_nodes":"17","size_leaf_vector":"1"}},{"base_weights":[7.015371E-2,3.2811266E-1,-3.0501956E-1,1.136054E-1,5.762539E-1,-1.5194523E-1,-4.5865845E-2,2.8534412E-2,-6.6530704E-4,7.4628405E-2,1.1809683E-2,-3.517817E-2,2.2378206E-2,3.3958912E-2,-5.2268985E-3,-2.2403717E-3,7.3342086E-3],"categories":[],"categories_nodes":[],"categories_segments":[],"categories_sizes":[],"default_left":[0,0,0,0,0,0,0,0,0,0,0,0,0,0,0,0,0],"id":26,"left_children":[1,3,5,7,9,11,-1,-1,13,-1,-1,-1,-1,15,-1,-1,-1],"loss_changes":[1.1646532E0,3.0713105E-1,4.7899902E-2,9.831338E-2,1.4556783E-1,3.7905848E-1,0E0,0E0,8.9219455E-3,0E0,0E0,0E0,0E0,8.302352E-3,0E0,0E0,0E0],"parents":[2147483647,0,0,1,1,2,2,3,3,4,4,5,5,8,8,13,13],"right_children":[2,4,6,8,10,12,-1,-1,14,-1,-1,-1,-1,16,-1,-1,-1],"split_conditions":[9.6889293E-1,9.6660566E-1,9.882586E-1,4.9420556E-1,9.673681E-1,9.746874E-1,-4.5865845E-2,2.8534412E-2,9.653858E-1,7.4628405E-2,1.1809683E-2,-3.517817E-2,2.2378206E-2,4.9649283E-1,-5.2268985E-3,-2.2403717E-3,7.3342086E-3],"split_indices":[0,0,0,0,0,0,0,0,0,0,0,0,0,0,0,0,0],"split_type":[0,0,0,0,0,0,0,0,0,0,0,0,0,0,0,0,0],"sum_hessian":[1E1,6E0,4E0,4E0,2E0,3E0,1E0,1E0,3E0,1E0,1E0,2E0,1E0,2E0,1E0,1E0,1E0],"tree_param":{"num_deleted":"0","num_feature":"2","num_nodes":"17","size_leaf_vector":"1"}},{"base_weights":[6.824502E-2,3.1170696E-1,-2.8625068E-1,1.07925035E-1,5.474412E-1,-1.3995063E-1,-4.3572545E-2,2.7107669E-2,-6.3204765E-4,7.089696E-2,1.1219216E-2,-3.2832958E-2,2.1259308E-2,3.2260895E-2,-4.9655437E-3,-2.1283627E-3,6.967497E-3],"categories":[],"categories_nodes":[],"categories_segments":[],"categories_sizes":[],"default_left":[0,0,0,0,0,0,0,0,0,0,0,0,0,0,0,0,0],"id":27,"left_children":[1,3,5,7,9,11,-1,-1,13,-1,-1,-1,-1,15,-1,-1,-1],"loss_changes":[1.0385946E0,2.7718598E-1,4.8360765E-2,8.872766E-2,1.3137436E-1,3.3544785E-1,0E0,0E0,8.052023E-3,0E0,0E0,0E0,0E0,7.4928924E-3,0E0,0E0,0E0],"parents":[2147483647,0,0,1,1,2,2,3,3,4,4,5,5,8,8,13,13],"right_children":[2,4,6,8,10,12,-1,-1,14,-1,-1,-1,-1,16,-1,-1,-1],"split_conditions":[9.6889293E-1,9.6660566E-1,9.882586E-1,4.9420556E-1,9.673681E-1,9.746874E-1,-4.3572545E-2,2.7107669E-2,9.653858E-1,7.089696E-2,1.1219216E-2,-3.2832958E-2,2.1259308E-2,4.9649283E-1,-4.9655437E-3,-2.1283627E-3,6.967497E-3],"split_indices":[0,0,0,0,0,0,0,0,0,0,0,0,0,0,0,0,0],"split_type":[0,0,0,0,0,0,0,0,0,0,0,0,0,0,0,0,0],"sum_hessian":[1E1,6E0,4E0,4E0,2E0,3E0,1E0,1E0,3E0,1E0,1E0,2E0,1E0,2E0,1E0,1E0,1E0],"tree_param":{"num_deleted":"0","num_feature":"2","num_nodes":"17","size_leaf_vector":"1"}},{"base_weights":[6.632519E-2,2.961216E-1,-2.6865482E-1,1.02528766E-1,5.200691E-1,-1.2884891E-1,-4.1393925E-2,2.5752306E-2,-6.005764E-4,6.735211E-2,1.0658264E-2,-3.0644083E-2,2.0196343E-2,3.0647755E-2,-4.7172788E-3,-2.0219565E-3,6.6191196E-3],"categories":[],"categories_nodes":[],"categories_segments":[],"categories_sizes":[],"default_left":[0,0,0,0,0,0,0,0,0,0,0,0,0,0,0,0,0],"id":28,"left_children":[1,3,5,7,9,11,-1,-1,13,-1,-1,-1,-1,15,-1,-1,-1],"loss_changes":[9.2630374E-1,2.5016046E-1,4.8222482E-2,8.007696E-2,1.1856526E-1,2.9688823E-1,0E0,0E0,7.2669555E-3,0E0,0E0,0E0,0E0,6.7623556E-3,0E0,0E0,0E0],"parents":[2147483647,0,0,1,1,2,2,3,3,4,4,5,5,8,8,13,13],"right_children":[2,4,6,8,10,12,-1,-1,14,-1,-1,-1,-1,16,-1,-1,-1],"split_conditions":[9.6889293E-1,9.6660566E-1,9.882586E-1,4.9420556E-1,9.673681E-1,9.746874E-1,-4.1393925E-2,2.5752306E-2,9.653858E-1,6.735211E-2,1.0658264E-2,-3.0644083E-2,2.0196343E-2,4.9649283E-1,-4.7172788E-3,-2.0219565E-3,6.6191196E-3],"split_indices":[0,0,0,0,0,0,0,0,0,0,0,0,0,0,0,0,0],"split_type":[0,0,0,0,0,0,0,0,0,0,0,0,0,0,0,0,0],"sum_hessian":[1E1,6E0,4E0,4E0,2E0,3E0,1E0,1E0,3E0,1E0,1E0,2E0,1E0,2E0,1E0,1E0,1E0],"tree_param":{"num_deleted":"0","num_feature":"2","num_nodes":"17","size_leaf_vector":"1"}},{"base_weights":[6.44018E-2,2.8131554E-1,-2.5215778E-1,9.740238E-2,4.940656E-1,-1.1857605E-1,-3.9324235E-2,2.4464702E-2,-5.7053566E-4,6.398449E-2,1.0125351E-2,-2.8601155E-1,1.9186521E-2,2.9115358E-2,-4.481411E-3,-8.575869E-3,-3.4325864E-2,-1.920867E-3,6.288171E-3],"categories":[],"categories_nodes":[],"categories_segments":[],"categories_sizes":[],"default_left":[0,0,0,0,0,0,0,0,0,0,0,0,0,0,0,0,0,0,0],"id":29,"left_children":[1,3,5,7,9,11,-1,-1,13,-1,-1,15,-1,17,-1,-1,-1,-1,-1],"loss_changes":[8.2626325E-1,2.2576952E-1,4.7602504E-2,7.2269514E-2,1.0700506E-1,2.627912E-1,0E0,0E0,6.558419E-3,0E0,0E0,4.9542636E-3,0E0,6.103052E-3,0E0,0E0,0E0,0E0,0E0],"parents":[2147483647,0,0,1,1,2,2,3,3,4,4,5,5,8,8,11,11,13,13],"right_children":[2,4,6,8,10,12,-1,-1,14,-1,-1,16,-1,18,-1,-1,-1,-1,-1],"split_conditions":[9.6889293E-1,9.6660566E-1,9.882586E-1,4.9420556E-1,9.673681E-1,9.746874E-1,-3.9324235E-2,2.4464702E-2,9.653858E-1,6.398449E-2,1.0125351E-2,9.7407746E-1,1.9186521E-2,4.9649283E-1,-4.481411E-3,-8.575869E-3,-3.4325864E-2,-1.920867E-3,6.288171E-3],"split_indices":[0,0,0,0,0,0,0,0,0,0,0,0,0,0,0,0,0,0,0],"split_type":[0,0,0,0,0,0,0,0,0,0,0,0,0,0,0,0,0,0,0],"sum_hessian":[1E1,6E0,4E0,4E0,2E0,3E0,1E0,1E0,3E0,1E0,1E0,2E0,1E0,2E0,1E0,1E0,1E0,1E0,1E0],"tree_param":{"num_deleted":"0","num_feature":"2","num_nodes":"19","size_leaf_vector":"1"}},{"base_weights":[6.118172E-2,2.6724973E-1,-2.3954983E-1,9.2532255E-2,4.6936226E-1,-1.12647176E-1,-3.7358023E-2,2.3241473E-2,-5.4204464E-4,6.0785245E-2,9.6190935E-3,-2.7171087E-1,1.8227195E-2,2.7659575E-2,-4.257345E-3,-8.147073E-3,-3.260956E-2,-1.8248319E-3,5.9737684E-3],"categories":[],"categories_nodes":[],"categories_segments":[],"categories_sizes":[],"default_left":[0,0,0,0,0,0,0,0,0,0,0,0,0,0,0,0,0,0,0],"id":30,"left_children":[1,3,5,7,9,11,-1,-1,13,-1,-1,15,-1,17,-1,-1,-1,-1,-1],"loss_changes":[7.4570227E-1,2.0375702E-1,4.29613E-2,6.52233E-2,9.65718E-2,2.3716898E-1,0E0,0E0,5.9189787E-3,0E0,0E0,4.4712275E-3,0E0,5.508027E-3,0E0,0E0,0E0,0E0,0E0],"parents":[2147483647,0,0,1,1,2,2,3,3,4,4,5,5,8,8,11,11,13,13],"right_children":[2,4,6,8,10,12,-1,-1,14,-1,-1,16,-1,18,-1,-1,-1,-1,-1],"split_conditions":[9.6889293E-1,9.6660566E-1,9.882586E-1,4.9420556E-1,9.673681E-1,9.746874E-1,-3.7358023E-2,2.3241473E-2,9.653858E-1,6.0785245E-2,9.6190935E-3,9.7407746E-1,1.8227195E-2,4.9649283E-1,-4.257345E-3,-8.147073E-3,-3.260956E-2,-1.8248319E-3,5.9737684E-3],"split_indices":[0,0,0,0,0,0,0,0,0,0,0,0,0,0,0,0,0,0,0],"split_type":[0,0,0,0,0,0,0,0,0,0,0,0,0,0,0,0,0,0,0],"sum_hessian":[1E1,6E0,4E0,4E0,2E0,3E0,1E0,1E0,3E0,1E0,1E0,2E0,1E0,2E0,1E0,1E0,1E0,1E0,1E0],"tree_param":{"num_deleted":"0","num_feature":"2","num_nodes":"19","size_leaf_vector":"1"}},{"base_weights":[5.812268E-2,2.5388733E-1,-2.2757235E-1,8.790569E-2,4.4589424E-1,-1.07014775E-1,-3.5490133E-2,2.2079421E-2,-5.1498413E-4,5.7745982E-2,9.138155E-3,-2.581253E-1,1.731584E-2,2.6276588E-2,-4.0444853E-3,-7.739711E-3,-3.0979086E-2,-1.7335892E-3,5.6750774E-3],"categories":[],"categories_nodes":[],"categories_segments":[],"categories_sizes":[],"default_left":[0,0,0,0,0,0,0,0,0,0,0,0,0,0,0,0,0,0,0],"id":31,"left_children":[1,3,5,7,9,11,-1,-1,13,-1,-1,15,-1,17,-1,-1,-1,-1,-1],"loss_changes":[6.729966E-1,1.838907E-1,3.8772643E-2,5.8864165E-2,8.715576E-2,2.1404505E-1,0E0,0E0,5.3418884E-3,0E0,0E0,4.0353388E-3,0E0,4.9709897E-3,0E0,0E0,0E0,0E0,0E0],"parents":[2147483647,0,0,1,1,2,2,3,3,4,4,5,5,8,8,11,11,13,13],"right_children":[2,4,6,8,10,12,-1,-1,14,-1,-1,16,-1,18,-1,-1,-1,-1,-1],"split_conditions":[9.6889293E-1,9.6660566E-1,9.882586E-1,4.9420556E-1,9.673681E-1,9.746874E-1,-3.5490133E-2,2.2079421E-2,9.653858E-1,5.7745982E-2,9.138155E-3,9.7407746E-1,1.731584E-2,4.9649283E-1,-4.0444853E-3,-7.739711E-3,-3.0979086E-2,-1.7335892E-3,5.6750774E-3],"split_indices":[0,0,0,0,0,0,0,0,0,0,0,0,0,0,0,0,0,0,0],"split_type":[0,0,0,0,0,0,0,0,0,0,0,0,0,0,0,0,0,0,0],"sum_hessian":[1E1,6E0,4E0,4E0,2E0,3E0,1E0,1E0,3E0,1E0,1E0,2E0,1E0,2E0,1E0,1E0,1E0,1E0,1E0],"tree_param":{"num_deleted":"0","num_feature":"2","num_nodes":"19","size_leaf_vector":"1"}},{"base_weights":[5.521653E-2,2.4119295E-1,-2.1619377E-1,8.35104E-2,4.2359957E-1,-1.0166407E-1,-3.371563E-2,2.0975446E-2,-4.892349E-4,5.4858685E-2,8.68125E-3,-2.4521907E-1,1.6450047E-2,2.4962744E-2,-3.8422586E-3,-7.3527335E-3,-2.9430127E-2,-1.6469002E-3,5.391312E-3],"categories":[],"categories_nodes":[],"categories_segments":[],"categories_sizes":[],"default_left":[0,0,0,0,0,0,0,0,0,0,0,0,0,0,0,0,0,0,0],"id":32,"left_children":[1,3,5,7,9,11,-1,-1,13,-1,-1,15,-1,17,-1,-1,-1,-1,-1],"loss_changes":[6.073795E-1,1.6596138E-1,3.4992337E-2,5.3124905E-2,7.8658104E-2,1.9317564E-1,0E0,0E0,4.8210486E-3,0E0,0E0,3.6418438E-3,0E0,4.486289E-3,0E0,0E0,0E0,0E0,0E0],"parents":[2147483647,0,0,1,1,2,2,3,3,4,4,5,5,8,8,11,11,13,13],"right_children":[2,4,6,8,10,12,-1,-1,14,-1,-1,16,-1,18,-1,-1,-1,-1,-1],"split_conditions":[9.6889293E-1,9.6660566E-1,9.882586E-1,4.9420556E-1,9.673681E-1,9.746874E-1,-3.371563E-2,2.0975446E-2,9.653858E-1,5.4858685E-2,8.68125E-3,9.7407746E-1,1.6450047E-2,4.9649283E-1,-3.8422586E-3,-7.3527335E-3,-2.9430127E-2,-1.6469002E-3,5.391312E-3],"split_indices":[0,0,0,0,0,0,0,0,0,0,0,0,0,0,0,0,0,0,0],"split_type":[0,0,0,0,0,0,0,0,0,0,0,0,0,0,0,0,0,0,0],"sum_hessian":[1E1,6E0,4E0,4E0,2E0,3E0,1E0,1E0,3E0,1E0,1E0,2E0,1E0,2E0,1E0,1E0,1E0,1E0,1E0],"tree_param":{"num_deleted":"0","num_feature":"2","num_nodes":"19","size_leaf_vector":"1"}},{"base_weights":[5.245577E-2,2.2913347E-1,-2.0538417E-1,7.933502E-2,4.0241972E-1,-9.658098E-2,-3.2029845E-2,1.9926691E-2,-4.646778E-4,5.2115776E-2,8.247185E-3,-2.3295815E-1,1.5627528E-2,2.37147E-2,-3.6501407E-3,-6.985092E-3,-2.7958632E-2,-1.5645504E-3,5.121756E-3],"categories":[],"categories_nodes":[],"categories_segments":[],"categories_sizes":[],"default_left":[0,0,0,0,0,0,0,0,0,0,0,0,0,0,0,0,0,0,0],"id":33,"left_children":[1,3,5,7,9,11,-1,-1,13,-1,-1,15,-1,17,-1,-1,-1,-1,-1],"loss_changes":[5.4816055E-1,1.497801E-1,3.1580463E-2,4.7945242E-2,7.09891E-2,1.7434089E-1,0E0,0E0,4.3510026E-3,0E0,0E0,3.2868087E-3,0E0,4.048879E-3,0E0,0E0,0E0,0E0,0E0],"parents":[2147483647,0,0,1,1,2,2,3,3,4,4,5,5,8,8,11,11,13,13],"right_children":[2,4,6,8,10,12,-1,-1,14,-1,-1,16,-1,18,-1,-1,-1,-1,-1],"split_conditions":[9.6889293E-1,9.6660566E-1,9.882586E-1,4.9420556E-1,9.673681E-1,9.746874E-1,-3.2029845E-2,1.9926691E-2,9.653858E-1,5.2115776E-2,8.247185E-3,9.7407746E-1,1.5627528E-2,4.9649283E-1,-3.6501407E-3,-6.985092E-3,-2.7958632E-2,-1.5645504E-3,5.121756E-3],"split_indices":[0,0,0,0,0,0,0,0,0,0,0,0,0,0,0,0,0,0,0],"split_type":[0,0,0,0,0,0,0,0,0,0,0,0,0,0,0,0,0,0,0],"sum_hessian":[1E1,6E0,4E0,4E0,2E0,3E0,1E0,1E0,3E0,1E0,1E0,2E0,1E0,2E0,1E0,1E0,1E0,1E0,1E0],"tree_param":{"num_deleted":"0","num_feature":"2","num_nodes":"19","size_leaf_vector":"1"}},{"base_weights":[4.983295E-2,2.1767677E-1,-1.95115E-1,7.536821E-2,3.822988E-1,-9.175193E-2,-3.0428363E-2,1.893034E-2,-4.41432E-4,4.9510002E-2,7.834816E-3,-2.2131014E-1,1.4846134E-2,2.2528967E-2,-3.4676313E-3,-6.635833E-3,-2.6560688E-2,-1.4863253E-3,4.86567E-3],"categories":[],"categories_nodes":[],"categories_segments":[],"categories_sizes":[],"default_left":[0,0,0,0,0,0,0,0,0,0,0,0,0,0,0,0,0,0,0],"id":34,"left_children":[1,3,5,7,9,11,-1,-1,13,-1,-1,15,-1,17,-1,-1,-1,-1,-1],"loss_changes":[4.94715E-1,1.3517669E-1,2.8501406E-2,4.32705E-2,6.406781E-2,1.5734239E-1,0E0,0E0,3.926777E-3,0E0,0E0,2.9663593E-3,0E0,3.6541186E-3,0E0,0E0,0E0,0E0,0E0],"parents":[2147483647,0,0,1,1,2,2,3,3,4,4,5,5,8,8,11,11,13,13],"right_children":[2,4,6,8,10,12,-1,-1,14,-1,-1,16,-1,18,-1,-1,-1,-1,-1],"split_conditions":[9.6889293E-1,9.6660566E-1,9.882586E-1,4.9420556E-1,9.673681E-1,9.746874E-1,-3.0428363E-2,1.893034E-2,9.653858E-1,4.9510002E-2,7.834816E-3,9.7407746E-1,1.4846134E-2,4.9649283E-1,-3.4676313E-3,-6.635833E-3,-2.6560688E-2,-1.4863253E-3,4.86567E-3],"split_indices":[0,0,0,0,0,0,0,0,0,0,0,0,0,0,0,0,0,0,0],"split_type":[0,0,0,0,0,0,0,0,0,0,0,0,0,0,0,0,0,0,0],"sum_hessian":[1E1,6E0,4E0,4E0,2E0,3E0,1E0,1E0,3E0,1E0,1E0,2E0,1E0,2E0,1E0,1E0,1E0,1E0,1E0],"tree_param":{"num_deleted":"0","num_feature":"2","num_nodes":"19","size_leaf_vector":"1"}},{"base_weights":[4.7341347E-2,2.0679297E-1,-1.853592E-1,7.159977E-2,3.6318398E-1,-8.716428E-2,-2.8906941E-2,1.7983818E-2,-4.1937828E-4,4.7034502E-2,7.443094E-3,-2.1024466E-1,1.4103842E-2,2.1402517E-2,-3.2942535E-3,-6.3040494E-3,-2.5232648E-2,-1.4120102E-3,4.622388E-3],"categories":[],"categories_nodes":[],"categories_segments":[],"categories_sizes":[],"default_left":[0,0,0,0,0,0,0,0,0,0,0,0,0,0,0,0,0,0,0],"id":35,"left_children":[1,3,5,7,9,11,-1,-1,13,-1,-1,15,-1,17,-1,-1,-1,-1,-1],"loss_changes":[4.4648024E-1,1.2199715E-1,2.5722563E-2,3.9051607E-2,5.7821006E-2,1.4200166E-1,0E0,0E0,3.5439208E-3,0E0,0E0,2.677068E-3,0E0,3.2978454E-3,0E0,0E0,0E0,0E0,0E0],"parents":[2147483647,0,0,1,1,2,2,3,3,4,4,5,5,8,8,11,11,13,13],"right_children":[2,4,6,8,10,12,-1,-1,14,-1,-1,16,-1,18,-1,-1,-1,-1,-1],"split_conditions":[9.6889293E-1,9.6660566E-1,9.882586E-1,4.9420556E-1,9.673681E-1,9.746874E-1,-2.8906941E-2,1.7983818E-2,9.653858E-1,4.7034502E-2,7.443094E-3,9.7407746E-1,1.4103842E-2,4.9649283E-1,-3.2942535E-3,-6.3040494E-3,-2.5232648E-2,-1.4120102E-3,4.622388E-3],"split_indices":[0,0,0,0,0,0,0,0,0,0,0,0,0,0,0,0,0,0,0],"split_type":[0,0,0,0,0,0,0,0,0,0,0,0,0,0,0,0,0,0,0],"sum_hessian":[1E1,6E0,4E0,4E0,2E0,3E0,1E0,1E0,3E0,1E0,1E0,2E0,1E0,2E0,1E0,1E0,1E0,1E0,1E0],"tree_param":{"num_deleted":"0","num_feature":"2","num_nodes":"19","size_leaf_vector":"1"}},{"base_weights":[4.497437E-2,1.9645344E-1,-1.760912E-1,6.8019964E-2,3.4502473E-1,-8.280599E-2,-2.7461601E-2,1.7084647E-2,-3.9827824E-4,4.468279E-2,7.0709228E-3,-1.997323E-1,1.3398647E-2,2.0332495E-2,-3.12953E-3,-5.9888363E-3,-2.397101E-2,-1.3414145E-3,4.391289E-3],"categories":[],"categories_nodes":[],"categories_segments":[],"categories_sizes":[],"default_left":[0,0,0,0,0,0,0,0,0,0,0,0,0,0,0,0,0,0,0],"id":36,"left_children":[1,3,5,7,9,11,-1,-1,13,-1,-1,15,-1,17,-1,-1,-1,-1,-1],"loss_changes":[4.0294856E-1,1.1010215E-1,2.3214698E-2,3.5244085E-2,5.2183688E-2,1.2815641E-1,0E0,0E0,3.1983883E-3,0E0,0E0,2.4161115E-3,0E0,2.976331E-3,0E0,0E0,0E0,0E0,0E0],"parents":[2147483647,0,0,1,1,2,2,3,3,4,4,5,5,8,8,11,11,13,13],"right_children":[2,4,6,8,10,12,-1,-1,14,-1,-1,16,-1,18,-1,-1,-1,-1,-1],"split_conditions":[9.6889293E-1,9.6660566E-1,9.882586E-1,4.9420556E-1,9.673681E-1,9.746874E-1,-2.7461601E-2,1.7084647E-2,9.653858E-1,4.468279E-2,7.0709228E-3,9.7407746E-1,1.3398647E-2,4.9649283E-1,-3.12953E-3,-5.9888363E-3,-2.397101E-2,-1.3414145E-3,4.391289E-3],"split_indices":[0,0,0,0,0,0,0,0,0,0,0,0,0,0,0,0,0,0,0],"split_type":[0,0,0,0,0,0,0,0,0,0,0,0,0,0,0,0,0,0,0],"sum_hessian":[1E1,6E0,4E0,4E0,2E0,3E0,1E0,1E0,3E0,1E0,1E0,2E0,1E0,2E0,1E0,1E0,1E0,1E0,1E0],"tree_param":{"num_deleted":"0","num_feature":"2","num_nodes":"19","size_leaf_vector":"1"}},{"base_weights":[4.2725563E-2,1.8663073E-1,-1.6728678E-1,6.461878E-2,3.2777372E-1,-7.866585E-2,-2.6088525E-2,1.6230393E-2,-3.784895E-4,4.2448666E-2,6.717396E-3,-1.8974574E-1,1.2728691E-2,1.931572E-2,-2.973056E-3,-5.6894063E-3,-2.2772456E-2,-1.2743473E-3,4.1717053E-3],"categories":[],"categories_nodes":[],"categories_segments":[],"categories_sizes":[],"default_left":[0,0,0,0,0,0,0,0,0,0,0,0,0,0,0,0,0,0,0],"id":37,"left_children":[1,3,5,7,9,11,-1,-1,13,-1,-1,15,-1,17,-1,-1,-1,-1,-1],"loss_changes":[3.6366132E-1,9.9367574E-2,2.0951137E-2,3.180777E-2,4.7095656E-2,1.15661E-1,0E0,0E0,2.8865302E-3,0E0,0E0,2.1804646E-3,0E0,2.6861262E-3,0E0,0E0,0E0,0E0,0E0],"parents":[2147483647,0,0,1,1,2,2,3,3,4,4,5,5,8,8,11,11,13,13],"right_children":[2,4,6,8,10,12,-1,-1,14,-1,-1,16,-1,18,-1,-1,-1,-1,-1],"split_conditions":[9.6889293E-1,9.6660566E-1,9.882586E-1,4.9420556E-1,9.673681E-1,9.746874E-1,-2.6088525E-2,1.6230393E-2,9.653858E-1,4.2448666E-2,6.717396E-3,9.7407746E-1,1.2728691E-2,4.9649283E-1,-2.973056E-3,-5.6894063E-3,-2.2772456E-2,-1.2743473E-3,4.1717053E-3],"split_indices":[0,0,0,0,0,0,0,0,0,0,0,0,0,0,0,0,0,0,0],"split_type":[0,0,0,0,0,0,0,0,0,0,0,0,0,0,0,0,0,0,0],"sum_hessian":[1E1,6E0,4E0,4E0,2E0,3E0,1E0,1E0,3E0,1E0,1E0,2E0,1E0,2E0,1E0,1E0,1E0,1E0,1E0],"tree_param":{"num_deleted":"0","num_feature":"2","num_nodes":"19","size_leaf_vector":"1"}},{"base_weights":[4.0589288E-2,1.7729916E-1,-1.5892239E-1,6.138792E-2,3.1138483E-1,-7.473254E-2,-2.4784088E-2,1.5418864E-2,-3.59416E-4,4.0326215E-2,6.3815117E-3,-1.8025844E-1,1.2092257E-2,1.8350124E-2,-2.824402E-3,-5.4049254E-3,-2.163384E-2,-1.2106181E-3,3.9631366E-3],"categories":[],"categories_nodes":[],"categories_segments":[],"categories_sizes":[],"default_left":[0,0,0,0,0,0,0,0,0,0,0,0,0,0,0,0,0,0,0],"id":38,"left_children":[1,3,5,7,9,11,-1,-1,13,-1,-1,15,-1,17,-1,-1,-1,-1,-1],"loss_changes":[3.2820415E-1,8.967897E-2,1.8908396E-2,2.8706402E-2,4.2503893E-2,1.0438403E-1,0E0,0E0,2.605114E-3,0E0,0E0,1.9679368E-3,0E0,2.4242285E-3,0E0,0E0,0E0,0E0,0E0],"parents":[2147483647,0,0,1,1,2,2,3,3,4,4,5,5,8,8,11,11,13,13],"right_children":[2,4,6,8,10,12,-1,-1,14,-1,-1,16,-1,18,-1,-1,-1,-1,-1],"split_conditions":[9.6889293E-1,9.6660566E-1,9.882586E-1,4.9420556E-1,9.673681E-1,9.746874E-1,-2.4784088E-2,1.5418864E-2,9.653858E-1,4.0326215E-2,6.3815117E-3,9.7407746E-1,1.2092257E-2,4.9649283E-1,-2.824402E-3,-5.4049254E-3,-2.163384E-2,-1.2106181E-3,3.9631366E-3],"split_indices":[0,0,0,0,0,0,0,0,0,0,0,0,0,0,0,0,0,0,0],"split_type":[0,0,0,0,0,0,0,0,0,0,0,0,0,0,0,0,0,0,0],"sum_hessian":[1E1,6E0,4E0,4E0,2E0,3E0,1E0,1E0,3E0,1E0,1E0,2E0,1E0,2E0,1E0,1E0,1E0,1E0,1E0],"tree_param":{"num_deleted":"0","num_feature":"2","num_nodes":"19","size_leaf_vector":"1"}},{"base_weights":[3.8559698E-2,1.6843407E-1,-1.5097637E-1,5.8318425E-2,2.9581547E-1,-7.0996046E-2,-2.3544883E-2,1.4647913E-2,-3.4153461E-4,3.830991E-2,6.062412E-3,-1.7124557E-1,1.1487627E-2,1.7432531E-2,-2.6831867E-3,-5.134678E-3,-2.0552158E-2,-1.1500836E-3,3.7649632E-3],"categories":[],"categories_nodes":[],"categories_segments":[],"categories_sizes":[],"default_left":[0,0,0,0,0,0,0,0,0,0,0,0,0,0,0,0,0,0,0],"id":39,"left_children":[1,3,5,7,9,11,-1,-1,13,-1,-1,15,-1,17,-1,-1,-1,-1,-1],"loss_changes":[2.9620424E-1,8.0935314E-2,1.7064735E-2,2.5907543E-2,3.836E-2,9.4206505E-2,0E0,0E0,2.3511108E-3,0E0,0E0,1.7760843E-3,0E0,2.1878486E-3,0E0,0E0,0E0,0E0,0E0],"parents":[2147483647,0,0,1,1,2,2,3,3,4,4,5,5,8,8,11,11,13,13],"right_children":[2,4,6,8,10,12,-1,-1,14,-1,-1,16,-1,18,-1,-1,-1,-1,-1],"split_conditions":[9.6889293E-1,9.6660566E-1,9.882586E-1,4.9420556E-1,9.673681E-1,9.746874E-1,-2.3544883E-2,1.4647913E-2,9.653858E-1,3.830991E-2,6.062412E-3,9.7407746E-1,1.1487627E-2,4.9649283E-1,-2.6831867E-3,-5.134678E-3,-2.0552158E-2,-1.1500836E-3,3.7649632E-3],"split_indices":[0,0,0,0,0,0,0,0,0,0,0,0,0,0,0,0,0,0,0],"split_type":[0,0,0,0,0,0,0,0,0,0,0,0,0,0,0,0,0,0,0],"sum_hessian":[1E1,6E0,4E0,4E0,2E0,3E0,1E0,1E0,3E0,1E0,1E0,2E0,1E0,2E0,1E0,1E0,1E0,1E0,1E0],"tree_param":{"num_deleted":"0","num_feature":"2","num_nodes":"19","size_leaf_vector":"1"}},{"base_weights":[3.663167E-2,1.6001238E-1,-1.4342766E-1,5.5402566E-2,2.810246E-1,-6.744635E-2,-2.2367645E-2,1.3915539E-2,-3.244877E-4,3.6394406E-2,5.759287E-3,-1.6268332E-1,1.091323E-2,1.6560873E-2,-2.5490285E-3,-4.8779487E-3,-1.952455E-2,-1.092577E-3,3.5767078E-3],"categories":[],"categories_nodes":[],"categories_segments":[],"categories_sizes":[],"default_left":[0,0,0,0,0,0,0,0,0,0,0,0,0,0,0,0,0,0,0],"id":40,"left_children":[1,3,5,7,9,11,-1,-1,13,-1,-1,15,-1,17,-1,-1,-1,-1,-1],"loss_changes":[2.6732454E-1,7.3044E-2,1.5400872E-2,2.3381645E-2,3.4619913E-2,8.502127E-2,0E0,0E0,2.1218755E-3,0E0,0E0,1.6028956E-3,0E0,1.9745252E-3,0E0,0E0,0E0,0E0,0E0],"parents":[2147483647,0,0,1,1,2,2,3,3,4,4,5,5,8,8,11,11,13,13],"right_children":[2,4,6,8,10,12,-1,-1,14,-1,-1,16,-1,18,-1,-1,-1,-1,-1],"split_conditions":[9.6889293E-1,9.6660566E-1,9.882586E-1,4.9420556E-1,9.673681E-1,9.746874E-1,-2.2367645E-2,1.3915539E-2,9.653858E-1,3.6394406E-2,5.759287E-3,9.7407746E-1,1.091323E-2,4.9649283E-1,-2.5490285E-3,-4.8779487E-3,-1.952455E-2,-1.092577E-3,3.5767078E-3],"split_indices":[0,0,0,0,0,0,0,0,0,0,0,0,0,0,0,0,0,0,0],"split_type":[0,0,0,0,0,0,0,0,0,0,0,0,0,0,0,0,0,0,0],"sum_hessian":[1E1,6E0,4E0,4E0,2E0,3E0,1E0,1E0,3E0,1E0,1E0,2E0,1E0,2E0,1E0,1E0,1E0,1E0,1E0],"tree_param":{"num_deleted":"0","num_feature":"2","num_nodes":"19","size_leaf_vector":"1"}},{"base_weights":[3.4800228E-2,1.5201195E-1,-1.3625622E-1,5.263262E-2,2.669735E-1,-6.407392E-2,-2.124927E-2,1.3219786E-2,-3.08156E-4,3.45747E-2,5.471325E-3,-1.5454912E-1,1.0367584E-2,1.5732924E-2,-2.4215698E-3,-4.6340465E-3,-1.8548323E-2,-1.0379553E-3,3.3978939E-3],"categories":[],"categories_nodes":[],"categories_segments":[],"categories_sizes":[],"default_left":[0,0,0,0,0,0,0,0,0,0,0,0,0,0,0,0,0,0,0],"id":41,"left_children":[1,3,5,7,9,11,-1,-1,13,-1,-1,15,-1,17,-1,-1,-1,-1,-1],"loss_changes":[2.4126059E-1,6.59221E-2,1.38993785E-2,2.1101967E-2,3.1244487E-2,7.6731786E-2,0E0,0E0,1.9149949E-3,0E0,0E0,1.4466345E-3,0E0,1.7820322E-3,0E0,0E0,0E0,0E0,0E0],"parents":[2147483647,0,0,1,1,2,2,3,3,4,4,5,5,8,8,11,11,13,13],"right_children":[2,4,6,8,10,12,-1,-1,14,-1,-1,16,-1,18,-1,-1,-1,-1,-1],"split_conditions":[9.6889293E-1,9.6660566E-1,9.882586E-1,4.9420556E-1,9.673681E-1,9.746874E-1,-2.124927E-2,1.3219786E-2,9.653858E-1,3.45747E-2,5.471325E-3,9.7407746E-1,1.0367584E-2,4.9649283E-1,-2.4215698E-3,-4.6340465E-3,-1.8548323E-2,-1.0379553E-3,3.3978939E-3],"split_indices":[0,0,0,0,0,0,0,0,0,0,0,0,0,0,0,0,0,0,0],"split_type":[0,0,0,0,0,0,0,0,0,0,0,0,0,0,0,0,0,0,0],"sum_hessian":[1E1,6E0,4E0,4E0,2E0,3E0,1E0,1E0,3E0,1E0,1E0,2E0,1E0,2E0,1E0,1E0,1E0,1E0,1E0],"tree_param":{"num_deleted":"0","num_feature":"2","num_nodes":"19","size_leaf_vector":"1"}},{"base_weights":[3.306025E-2,1.4441136E-1,-1.2944336E-1,5.0000954E-2,2.5362492E-1,-6.087017E-2,-2.0186806E-2,1.2558795E-2,-2.9277802E-4,3.2845974E-2,5.1977634E-3,-1.4682166E-1,9.849215E-3,1.49463015E-2,-2.3005009E-3,-4.4023516E-3,-1.7620897E-2,-9.860516E-4,3.2279969E-3],"categories":[],"categories_nodes":[],"categories_segments":[],"categories_sizes":[],"default_left":[0,0,0,0,0,0,0,0,0,0,0,0,0,0,0,0,0,0,0],"id":42,"left_children":[1,3,5,7,9,11,-1,-1,13,-1,-1,15,-1,17,-1,-1,-1,-1,-1],"loss_changes":[2.1773763E-1,5.949478E-2,1.2544215E-2,1.904453E-2,2.8198168E-2,6.9250494E-2,0E0,0E0,1.7282938E-3,0E0,0E0,1.3055503E-3,0E0,1.6082763E-3,0E0,0E0,0E0,0E0,0E0],"parents":[2147483647,0,0,1,1,2,2,3,3,4,4,5,5,8,8,11,11,13,13],"right_children":[2,4,6,8,10,12,-1,-1,14,-1,-1,16,-1,18,-1,-1,-1,-1,-1],"split_conditions":[9.6889293E-1,9.6660566E-1,9.882586E-1,4.9420556E-1,9.673681E-1,9.746874E-1,-2.0186806E-2,1.2558795E-2,9.653858E-1,3.2845974E-2,5.1977634E-3,9.7407746E-1,9.849215E-3,4.9649283E-1,-2.3005009E-3,-4.4023516E-3,-1.7620897E-2,-9.860516E-4,3.2279969E-3],"split_indices":[0,0,0,0,0,0,0,0,0,0,0,0,0,0,0,0,0,0,0],"split_type":[0,0,0,0,0,0,0,0,0,0,0,0,0,0,0,0,0,0,0],"sum_hessian":[1E1,6E0,4E0,4E0,2E0,3E0,1E0,1E0,3E0,1E0,1E0,2E0,1E0,2E0,1E0,1E0,1E0,1E0,1E0],"tree_param":{"num_deleted":"0","num_feature":"2","num_nodes":"19","size_leaf_vector":"1"}},{"base_weights":[3.140727E-2,1.371909E-1,-1.2297125E-1,4.7500897E-2,2.4094391E-1,-5.7826757E-2,-1.9177461E-2,1.1930848E-2,-2.7811527E-4,3.12037E-2,4.937887E-3,-1.3948059E-1,9.356737E-3,1.4198939E-2,-2.185464E-3,-4.1822433E-3,-1.6739845E-2,-9.367466E-4,3.0665875E-3],"categories":[],"categories_nodes":[],"categories_segments":[],"categories_sizes":[],"default_left":[0,0,0,0,0,0,0,0,0,0,0,0,0,0,0,0,0,0,0],"id":43,"left_children":[1,3,5,7,9,11,-1,-1,13,-1,-1,15,-1,17,-1,-1,-1,-1,-1],"loss_changes":[1.9650844E-1,5.3694203E-2,1.1321098E-2,1.7187655E-2,2.54488E-2,6.2498473E-2,0E0,0E0,1.5597707E-3,0E0,0E0,1.1782087E-3,0E0,1.4514611E-3,0E0,0E0,0E0,0E0,0E0],"parents":[2147483647,0,0,1,1,2,2,3,3,4,4,5,5,8,8,11,11,13,13],"right_children":[2,4,6,8,10,12,-1,-1,14,-1,-1,16,-1,18,-1,-1,-1,-1,-1],"split_conditions":[9.6889293E-1,9.6660566E-1,9.882586E-1,4.9420556E-1,9.673681E-1,9.746874E-1,-1.9177461E-2,1.1930848E-2,9.653858E-1,3.12037E-2,4.937887E-3,9.7407746E-1,9.356737E-3,4.9649283E-1,-2.185464E-3,-4.1822433E-3,-1.6739845E-2,-9.367466E-4,3.0665875E-3],"split_indices":[0,0,0,0,0,0,0,0,0,0,0,0,0,0,0,0,0,0,0],"split_type":[0,0,0,0,0,0,0,0,0,0,0,0,0,0,0,0,0,0,0],"sum_hessian":[1E1,6E0,4E0,4E0,2E0,3E0,1E0,1E0,3E0,1E0,1E0,2E0,1E0,2E0,1E0,1E0,1E0,1E0,1E0],"tree_param":{"num_deleted":"0","num_feature":"2","num_nodes":"19","size_leaf_vector":"1"}},{"base_weights":[2.9836958E-2,1.3033138E-1,-1.1682262E-1,4.5125864E-2,2.2889678E-1,-5.4935336E-2,-1.821859E-2,1.1334324E-2,-2.64287E-4,2.9643536E-2,4.690981E-3,-1.3250653E-1,8.888912E-3,1.3488929E-2,-2.0761967E-3,-3.9731264E-3,-1.5902853E-2,-8.8989735E-4,2.9132366E-3],"categories":[],"categories_nodes":[],"categories_segments":[],"categories_sizes":[],"default_left":[0,0,0,0,0,0,0,0,0,0,0,0,0,0,0,0,0,0,0],"id":44,"left_children":[1,3,5,7,9,11,-1,-1,13,-1,-1,15,-1,17,-1,-1,-1,-1,-1],"loss_changes":[1.7734882E-1,4.8459046E-2,1.0217339E-2,1.5511939E-2,2.2967696E-2,5.6404926E-2,0E0,0E0,1.4076927E-3,0E0,0E0,1.0633543E-3,0E0,1.3099194E-3,0E0,0E0,0E0,0E0,0E0],"parents":[2147483647,0,0,1,1,2,2,3,3,4,4,5,5,8,8,11,11,13,13],"right_children":[2,4,6,8,10,12,-1,-1,14,-1,-1,16,-1,18,-1,-1,-1,-1,-1],"split_conditions":[9.6889293E-1,9.6660566E-1,9.882586E-1,4.9420556E-1,9.673681E-1,9.746874E-1,-1.821859E-2,1.1334324E-2,9.653858E-1,2.9643536E-2,4.690981E-3,9.7407746E-1,8.888912E-3,4.9649283E-1,-2.0761967E-3,-3.9731264E-3,-1.5902853E-2,-8.8989735E-4,2.9132366E-3],"split_indices":[0,0,0,0,0,0,0,0,0,0,0,0,0,0,0,0,0,0,0],"split_type":[0,0,0,0,0,0,0,0,0,0,0,0,0,0,0,0,0,0,0],"sum_hessian":[1E1,6E0,4E0,4E0,2E0,3E0,1E0,1E0,3E0,1E0,1E0,2E0,1E0,2E0,1E0,1E0,1E0,1E0,1E0],"tree_param":{"num_deleted":"0","num_feature":"2","num_nodes":"19","size_leaf_vector":"1"}},{"base_weights":[2.8345065E-2,1.23814784E-1,-1.1098156E-1,4.286947E-2,2.1745205E-1,-5.2188635E-2,-1.7307663E-2,1.0767603E-2,-2.5117397E-4,2.8161382E-2,4.4564246E-3,-1.258812E-1,8.444453E-3,1.28143625E-2,-1.9723892E-3,-3.774476E-3,-1.5107703E-2,-8.454085E-4,2.7675629E-3],"categories":[],"categories_nodes":[],"categories_segments":[],"categories_sizes":[],"default_left":[0,0,0,0,0,0,0,0,0,0,0,0,0,0,0,0,0,0,0],"id":45,"left_children":[1,3,5,7,9,11,-1,-1,13,-1,-1,15,-1,17,-1,-1,-1,-1,-1],"loss_changes":[1.6005738E-1,4.373443E-2,9.221122E-3,1.3999547E-2,2.0728469E-2,5.0905365E-2,0E0,0E0,1.2704352E-3,0E0,0E0,9.5964596E-4,0E0,1.1822002E-3,0E0,0E0,0E0,0E0,0E0],"parents":[2147483647,0,0,1,1,2,2,3,3,4,4,5,5,8,8,11,11,13,13],"right_children":[2,4,6,8,10,12,-1,-1,14,-1,-1,16,-1,18,-1,-1,-1,-1,-1],"split_conditions":[9.6889293E-1,9.6660566E-1,9.882586E-1,4.9420556E-1,9.673681E-1,9.746874E-1,-1.7307663E-2,1.0767603E-2,9.653858E-1,2.8161382E-2,4.4564246E-3,9.7407746E-1,8.444453E-3,4.9649283E-1,-1.9723892E-3,-3.774476E-3,-1.5107703E-2,-8.454085E-4,2.7675629E-3],"split_indices":[0,0,0,0,0,0,0,0,0,0,0,0,0,0,0,0,0,0,0],"split_type":[0,0,0,0,0,0,0,0,0,0,0,0,0,0,0,0,0,0,0],"sum_hessian":[1E1,6E0,4E0,4E0,2E0,3E0,1E0,1E0,3E0,1E0,1E0,2E0,1E0,2E0,1E0,1E0,1E0,1E0,1E0],"tree_param":{"num_deleted":"0","num_feature":"2","num_nodes":"19","size_leaf_vector":"1"}},{"base_weights":[2.6927775E-2,1.1762401E-1,-1.0543251E-1,4.0725898E-2,2.0657952E-1,-4.9579263E-2,-1.6442275E-2,1.0229207E-2,-2.38657E-4,2.675333E-2,4.2335987E-3,-1.195871E-1,8.022213E-3,1.2173653E-2,-1.8737793E-3,-3.585744E-3,-1.4352322E-2,-8.0313685E-4,2.6291849E-3],"categories":[],"categories_nodes":[],"categories_segments":[],"categories_sizes":[],"default_left":[0,0,0,0,0,0,0,0,0,0,0,0,0,0,0,0,0,0,0],"id":46,"left_children":[1,3,5,7,9,11,-1,-1,13,-1,-1,15,-1,17,-1,-1,-1,-1,-1],"loss_changes":[1.4445177E-1,3.947044E-2,8.322023E-3,1.2634566E-2,1.8707499E-2,4.5941994E-2,0E0,0E0,1.1465754E-3,0E0,0E0,8.661151E-4,0E0,1.0669348E-3,0E0,0E0,0E0,0E0,0E0],"parents":[2147483647,0,0,1,1,2,2,3,3,4,4,5,5,8,8,11,11,13,13],"right_children":[2,4,6,8,10,12,-1,-1,14,-1,-1,16,-1,18,-1,-1,-1,-1,-1],"split_conditions":[9.6889293E-1,9.6660566E-1,9.882586E-1,4.9420556E-1,9.673681E-1,9.746874E-1,-1.6442275E-2,1.0229207E-2,9.653858E-1,2.675333E-2,4.2335987E-3,9.7407746E-1,8.022213E-3,4.9649283E-1,-1.8737793E-3,-3.585744E-3,-1.4352322E-2,-8.0313685E-4,2.6291849E-3],"split_indices":[0,0,0,0,0,0,0,0,0,0,0,0,0,0,0,0,0,0,0],"split_type":[0,0,0,0,0,0,0,0,0,0,0,0,0,0,0,0,0,0,0],"sum_hessian":[1E1,6E0,4E0,4E0,2E0,3E0,1E0,1E0,3E0,1E0,1E0,2E0,1E0,2E0,1E0,1E0,1E0,1E0,1E0],"tree_param":{"num_deleted":"0","num_feature":"2","num_nodes":"19","size_leaf_vector":"1"}},{"base_weights":[2.5581403E-2,1.1174284E-1,-1.0016088E-1,3.8689613E-2,1.962506E-1,-4.7100306E-2,-1.562016E-2,9.71775E-3,-2.2673607E-4,2.5415659E-2,4.021931E-3,-1.1360773E-1,7.621098E-3,1.1564891E-2,-1.7800808E-3,-3.4064532E-3,-1.3634706E-2,-7.629871E-4,2.4977208E-3],"categories":[],"categories_nodes":[],"categories_segments":[],"categories_sizes":[],"default_left":[0,0,0,0,0,0,0,0,0,0,0,0,0,0,0,0,0,0,0],"id":47,"left_children":[1,3,5,7,9,11,-1,-1,13,-1,-1,15,-1,17,-1,-1,-1,-1,-1],"loss_changes":[1.3036776E-1,3.562209E-2,7.510621E-3,1.1402709E-2,1.6883448E-2,4.1462615E-2,0E0,0E0,1.034772E-3,0E0,0E0,7.8167766E-4,0E0,9.629115E-4,0E0,0E0,0E0,0E0,0E0],"parents":[2147483647,0,0,1,1,2,2,3,3,4,4,5,5,8,8,11,11,13,13],"right_children":[2,4,6,8,10,12,-1,-1,14,-1,-1,16,-1,18,-1,-1,-1,-1,-1],"split_conditions":[9.6889293E-1,9.6660566E-1,9.882586E-1,4.9420556E-1,9.673681E-1,9.746874E-1,-1.562016E-2,9.71775E-3,9.653858E-1,2.5415659E-2,4.021931E-3,9.7407746E-1,7.621098E-3,4.9649283E-1,-1.7800808E-3,-3.4064532E-3,-1.3634706E-2,-7.629871E-4,2.4977208E-3],"split_indices":[0,0,0,0,0,0,0,0,0,0,0,0,0,0,0,0,0,0,0],"split_type":[0,0,0,0,0,0,0,0,0,0,0,0,0,0,0,0,0,0,0],"sum_hessian":[1E1,6E0,4E0,4E0,2E0,3E0,1E0,1E0,3E0,1E0,1E0,2E0,1E0,2E0,1E0,1E0,1E0,1E0,1E0],"tree_param":{"num_deleted":"0","num_feature":"2","num_nodes":"19","size_leaf_vector":"1"}},{"base_weights":[2.4302395E-2,1.0615574E-1,-9.515276E-2,3.6755085E-2,1.8643825E-1,-4.4745207E-2,-1.4839149E-2,9.231853E-3,-2.1541119E-4,2.4144888E-2,3.8208484E-3,-1.0792732E-1,7.240057E-3,1.0986646E-2,-1.6910791E-3,-3.2361269E-3,-1.2952971E-2,-7.2484015E-4,2.3728372E-3],"categories":[],"categories_nodes":[],"categories_segments":[],"categories_sizes":[],"default_left":[0,0,0,0,0,0,0,0,0,0,0,0,0,0,0,0,0,0,0],"id":48,"left_children":[1,3,5,7,9,11,-1,-1,13,-1,-1,15,-1,17,-1,-1,-1,-1,-1],"loss_changes":[1.1765686E-1,3.2149047E-2,6.778363E-3,1.0290928E-2,1.5237249E-2,3.742007E-2,0E0,0E0,9.338833E-4,0E0,0E0,7.0547685E-4,0E0,8.690307E-4,0E0,0E0,0E0,0E0,0E0],"parents":[2147483647,0,0,1,1,2,2,3,3,4,4,5,5,8,8,11,11,13,13],"right_children":[2,4,6,8,10,12,-1,-1,14,-1,-1,16,-1,18,-1,-1,-1,-1,-1],"split_conditions":[9.6889293E-1,9.6660566E-1,9.882586E-1,4.9420556E-1,9.673681E-1,9.746874E-1,-1.4839149E-2,9.231853E-3,9.653858E-1,2.4144888E-2,3.8208484E-3,9.7407746E-1,7.240057E-3,4.9649283E-1,-1.6910791E-3,-3.2361269E-3,-1.2952971E-2,-7.2484015E-4,2.3728372E-3],"split_indices":[0,0,0,0,0,0,0,0,0,0,0,0,0,0,0,0,0,0,0],"split_type":[0,0,0,0,0,0,0,0,0,0,0,0,0,0,0,0,0,0,0],"sum_hessian":[1E1,6E0,4E0,4E0,2E0,3E0,1E0,1E0,3E0,1E0,1E0,2E0,1E0,2E0,1E0,1E0,1E0,1E0,1E0],"tree_param":{"num_deleted":"0","num_feature":"2","num_nodes":"19","size_leaf_vector":"1"}},{"base_weights":[2.3087285E-2,1.00848E-1,-9.039517E-2,3.4917355E-2,1.771164E-1,-4.2508006E-2,-1.409719E-2,8.770275E-3,-2.0468235E-4,2.2937631E-2,3.6298276E-3,-1.02530956E-1,6.878042E-3,1.0437329E-2,-1.606536E-3,-3.0743123E-3,-1.2305331E-2,-6.886005E-4,2.2542E-3],"categories":[],"categories_nodes":[],"categories_segments":[],"categories_sizes":[],"default_left":[0,0,0,0,0,0,0,0,0,0,0,0,0,0,0,0,0,0,0],"id":49,"left_children":[1,3,5,7,9,11,-1,-1,13,-1,-1,15,-1,17,-1,-1,-1,-1,-1],"loss_changes":[1.0618541E-1,2.9014528E-2,6.117448E-3,9.287605E-3,1.375147E-2,3.377156E-2,0E0,0E0,8.428375E-4,0E0,0E0,6.367229E-4,0E0,7.843041E-4,0E0,0E0,0E0,0E0,0E0],"parents":[2147483647,0,0,1,1,2,2,3,3,4,4,5,5,8,8,11,11,13,13],"right_children":[2,4,6,8,10,12,-1,-1,14,-1,-1,16,-1,18,-1,-1,-1,-1,-1],"split_conditions":[9.6889293E-1,9.6660566E-1,9.882586E-1,4.9420556E-1,9.673681E-1,9.746874E-1,-1.409719E-2,8.770275E-3,9.653858E-1,2.2937631E-2,3.6298276E-3,9.7407746E-1,6.878042E-3,4.9649283E-1,-1.606536E-3,-3.0743123E-3,-1.2305331E-2,-6.886005E-4,2.2542E-3],"split_indices":[0,0,0,0,0,0,0,0,0,0,0,0,0,0,0,0,0,0,0],"split_type":[0,0,0,0,0,0,0,0,0,0,0,0,0,0,0,0,0,0,0],"sum_hessian":[1E1,6E0,4E0,4E0,2E0,3E0,1E0,1E0,3E0,1E0,1E0,2E0,1E0,2E0,1E0,1E0,1E0,1E0,1E0],"tree_param":{"num_deleted":"0","num_feature":"2","num_nodes":"19","size_leaf_vector":"1"}},{"base_weights":[2.1932906E-2,9.580558E-2,-8.5875414E-2,3.3171464E-2,1.6826057E-1,-4.0382624E-2,-1.3392329E-2,8.331776E-3,-1.9454956E-4,2.1790743E-2,3.4483434E-3,-9.740448E-2,6.5341475E-3,9.915352E-3,-1.5262127E-3,-2.9206038E-3,-1.1690068E-2,-6.541729E-4,2.1414757E-3],"categories":[],"categories_nodes":[],"categories_segments":[],"categories_sizes":[],"default_left":[0,0,0,0,0,0,0,0,0,0,0,0,0,0,0,0,0,0,0],"id":50,"left_children":[1,3,5,7,9,11,-1,-1,13,-1,-1,15,-1,17,-1,-1,-1,-1,-1],"loss_changes":[9.5832326E-2,2.6185632E-2,5.5209845E-3,8.382119E-3,1.2410656E-2,3.0478891E-2,0E0,0E0,7.6065626E-4,0E0,0E0,5.7462417E-4,0E0,7.078295E-4,0E0,0E0,0E0,0E0,0E0],"parents":[2147483647,0,0,1,1,2,2,3,3,4,4,5,5,8,8,11,11,13,13],"right_children":[2,4,6,8,10,12,-1,-1,14,-1,-1,16,-1,18,-1,-1,-1,-1,-1],"split_conditions":[9.6889293E-1,9.6660566E-1,9.882586E-1,4.9420556E-1,9.673681E-1,9.746874E-1,-1.3392329E-2,8.331776E-3,9.653858E-1,2.1790743E-2,3.4483434E-3,9.7407746E-1,6.5341475E-3,4.9649283E-1,-1.5262127E-3,-2.9206038E-3,-1.1690068E-2,-6.541729E-4,2.1414757E-3],"split_indices":[0,0,0,0,0,0,0,0,0,0,0,0,0,0,0,0,0,0,0],"split_type":[0,0,0,0,0,0,0,0,0,0,0,0,0,0,0,0,0,0,0],"sum_hessian":[1E1,6E0,4E0,4E0,2E0,3E0,1E0,1E0,3E0,1E0,1E0,2E0,1E0,2E0,1E0,1E0,1E0,1E0,1E0],"tree_param":{"num_deleted":"0","num_feature":"2","num_nodes":"19","size_leaf_vector":"1"}},{"base_weights":[2.083618E-2,9.1015205E-2,-8.158169E-2,3.1512737E-2,1.5984757E-1,-3.8363576E-2,-1.2722707E-2,7.915163E-3,-1.8489361E-4,2.0701218E-2,3.275919E-3,-9.253422E-2,6.2074186E-3,9.419441E-3,-1.449895E-3,-2.7745725E-3,-1.1105562E-2,-6.214619E-4,2.034378E-3],"categories":[],"categories_nodes":[],"categories_segments":[],"categories_sizes":[],"default_left":[0,0,0,0,0,0,0,0,0,0,0,0,0,0,0,0,0,0,0],"id":51,"left_children":[1,3,5,7,9,11,-1,-1,13,-1,-1,15,-1,17,-1,-1,-1,-1,-1],"loss_changes":[8.648862E-2,2.363263E-2,4.9826503E-3,7.5648343E-3,1.1200666E-2,2.7507098E-2,0E0,0E0,6.864799E-4,0E0,0E0,5.186014E-4,0E0,6.3880417E-4,0E0,0E0,0E0,0E0,0E0],"parents":[2147483647,0,0,1,1,2,2,3,3,4,4,5,5,8,8,11,11,13,13],"right_children":[2,4,6,8,10,12,-1,-1,14,-1,-1,16,-1,18,-1,-1,-1,-1,-1],"split_conditions":[9.6889293E-1,9.6660566E-1,9.882586E-1,4.9420556E-1,9.673681E-1,9.746874E-1,-1.2722707E-2,7.915163E-3,9.653858E-1,2.0701218E-2,3.275919E-3,9.7407746E-1,6.2074186E-3,4.9649283E-1,-1.449895E-3,-2.7745725E-3,-1.1105562E-2,-6.214619E-4,2.034378E-3],"split_indices":[0,0,0,0,0,0,0,0,0,0,0,0,0,0,0,0,0,0,0],"split_type":[0,0,0,0,0,0,0,0,0,0,0,0,0,0,0,0,0,0,0],"sum_hessian":[1E1,6E0,4E0,4E0,2E0,3E0,1E0,1E0,3E0,1E0,1E0,2E0,1E0,2E0,1E0,1E0,1E0,1E0,1E0],"tree_param":{"num_deleted":"0","num_feature":"2","num_nodes":"19","size_leaf_vector":"1"}},{"base_weights":[1.9794334E-2,8.6464405E-2,-7.750263E-2,2.9937077E-2,1.5185516E-1,-3.644538E-2,-1.2086582E-2,7.519388E-3,-1.7559528E-4,1.9666148E-2,3.1121254E-3,-8.790747E-2,5.897045E-3,8.948485E-3,-1.3773919E-3,-2.6358366E-3,-1.0550285E-2,-5.9039594E-4,1.9326687E-3],"categories":[],"categories_nodes":[],"categories_segments":[],"categories_sizes":[],"default_left":[0,0,0,0,0,0,0,0,0,0,0,0,0,0,0,0,0,0,0],"id":52,"left_children":[1,3,5,7,9,11,-1,-1,13,-1,-1,15,-1,17,-1,-1,-1,-1,-1],"loss_changes":[7.805597E-2,2.1328453E-2,4.496865E-3,6.82722E-3,1.0108568E-2,2.4825137E-2,0E0,0E0,6.195445E-4,0E0,0E0,4.680548E-4,0E0,5.7652895E-4,0E0,0E0,0E0,0E0,0E0],"parents":[2147483647,0,0,1,1,2,2,3,3,4,4,5,5,8,8,11,11,13,13],"right_children":[2,4,6,8,10,12,-1,-1,14,-1,-1,16,-1,18,-1,-1,-1,-1,-1],"split_conditions":[9.6889293E-1,9.6660566E-1,9.882586E-1,4.9420556E-1,9.673681E-1,9.746874E-1,-1.2086582E-2,7.519388E-3,9.653858E-1,1.9666148E-2,3.1121254E-3,9.7407746E-1,5.897045E-3,4.9649283E-1,-1.3773919E-3,-2.6358366E-3,-1.0550285E-2,-5.9039594E-4,1.9326687E-3],"split_indices":[0,0,0,0,0,0,0,0,0,0,0,0,0,0,0,0,0,0,0],"split_type":[0,0,0,0,0,0,0,0,0,0,0,0,0,0,0,0,0,0,0],"sum_hessian":[1E1,6E0,4E0,4E0,2E0,3E0,1E0,1E0,3E0,1E0,1E0,2E0,1E0,2E0,1E0,1E0,1E0,1E0,1E0],"tree_param":{"num_deleted":"0","num_feature":"2","num_nodes":"19","size_leaf_vector":"1"}},{"base_weights":[1.8804593E-2,8.21412E-2,-7.362757E-2,2.8440094E-2,1.4426263E-1,-3.4623146E-2,-1.1482263E-2,7.143402E-3,-1.66893E-4,1.8682862E-2,2.9565336E-3,-8.3511986E-2,5.6021693E-3,8.500894E-3,-1.3085128E-3,-2.5040389E-3,-1.0022759E-2,-5.608797E-4,1.8360139E-3],"categories":[],"categories_nodes":[],"categories_segments":[],"categories_sizes":[],"default_left":[0,0,0,0,0,0,0,0,0,0,0,0,0,0,0,0,0,0,0],"id":53,"left_children":[1,3,5,7,9,11,-1,-1,13,-1,-1,15,-1,17,-1,-1,-1,-1,-1],"loss_changes":[7.044558E-2,1.9249085E-2,4.0584262E-3,6.1615556E-3,9.12296E-3,2.2404568E-2,0E0,0E0,5.5912527E-4,0E0,0E0,4.2242557E-4,0E0,5.203109E-4,0E0,0E0,0E0,0E0,0E0],"parents":[2147483647,0,0,1,1,2,2,3,3,4,4,5,5,8,8,11,11,13,13],"right_children":[2,4,6,8,10,12,-1,-1,14,-1,-1,16,-1,18,-1,-1,-1,-1,-1],"split_conditions":[9.6889293E-1,9.6660566E-1,9.882586E-1,4.9420556E-1,9.673681E-1,9.746874E-1,-1.1482263E-2,7.143402E-3,9.653858E-1,1.8682862E-2,2.9565336E-3,9.7407746E-1,5.6021693E-3,4.9649283E-1,-1.3085128E-3,-2.5040389E-3,-1.0022759E-2,-5.608797E-4,1.8360139E-3],"split_indices":[0,0,0,0,0,0,0,0,0,0,0,0,0,0,0,0,0,0,0],"split_type":[0,0,0,0,0,0,0,0,0,0,0,0,0,0,0,0,0,0,0],"sum_hessian":[1E1,6E0,4E0,4E0,2E0,3E0,1E0,1E0,3E0,1E0,1E0,2E0,1E0,2E0,1E0,1E0,1E0,1E0,1E0],"tree_param":{"num_deleted":"0","num_feature":"2","num_nodes":"19","size_leaf_vector":"1"}},{"base_weights":[1.7864443E-2,7.803427E-2,-6.994619E-2,2.7018165E-2,1.3704967E-1,-3.289199E-2,-1.0908151E-2,6.786251E-3,-1.5854836E-4,1.7748738E-2,2.808714E-3,-7.933649E-2,5.322075E-3,8.075873E-3,-1.2430906E-3,-2.3788454E-3,-9.521628E-3,-5.328417E-4,1.7442227E-3],"categories":[],"categories_nodes":[],"categories_segments":[],"categories_sizes":[],"default_left":[0,0,0,0,0,0,0,0,0,0,0,0,0,0,0,0,0,0,0],"id":54,"left_children":[1,3,5,7,9,11,-1,-1,13,-1,-1,15,-1,17,-1,-1,-1,-1,-1],"loss_changes":[6.357726E-2,1.7372321E-2,3.6627315E-3,5.560835E-3,8.2334615E-3,2.0220198E-2,0E0,0E0,5.046135E-4,0E0,0E0,3.8122572E-4,0E0,4.6958745E-4,0E0,0E0,0E0,0E0,0E0],"parents":[2147483647,0,0,1,1,2,2,3,3,4,4,5,5,8,8,11,11,13,13],"right_children":[2,4,6,8,10,12,-1,-1,14,-1,-1,16,-1,18,-1,-1,-1,-1,-1],"split_conditions":[9.6889293E-1,9.6660566E-1,9.882586E-1,4.9420556E-1,9.673681E-1,9.746874E-1,-1.0908151E-2,6.786251E-3,9.653858E-1,1.7748738E-2,2.808714E-3,9.7407746E-1,5.322075E-3,4.9649283E-1,-1.2430906E-3,-2.3788454E-3,-9.521628E-3,-5.328417E-4,1.7442227E-3],"split_indices":[0,0,0,0,0,0,0,0,0,0,0,0,0,0,0,0,0,0,0],"split_type":[0,0,0,0,0,0,0,0,0,0,0,0,0,0,0,0,0,0,0],"sum_hessian":[1E1,6E0,4E0,4E0,2E0,3E0,1E0,1E0,3E0,1E0,1E0,2E0,1E0,2E0,1E0,1E0,1E0,1E0,1E0],"tree_param":{"num_deleted":"0","num_feature":"2","num_nodes":"19","size_leaf_vector":"1"}},{"base_weights":[1.6971154E-2,7.413251E-2,-6.644897E-2,2.566719E-2,1.3019721E-1,-3.1247497E-2,-1.0362744E-2,6.446934E-3,-1.5068054E-4,1.6861295E-2,2.6682855E-3,-7.536968E-2,5.0559524E-3,7.671992E-3,-1.180935E-3,-2.2598982E-3,-9.045553E-3,-5.062103E-4,1.6570091E-3],"categories":[],"categories_nodes":[],"categories_segments":[],"categories_sizes":[],"default_left":[0,0,0,0,0,0,0,0,0,0,0,0,0,0,0,0,0,0,0],"id":55,"left_children":[1,3,5,7,9,11,-1,-1,13,-1,-1,15,-1,17,-1,-1,-1,-1,-1],"loss_changes":[5.7378512E-2,1.5678558E-2,3.305586E-3,5.018659E-3,7.4306726E-3,1.824867E-2,0E0,0E0,4.5540906E-4,0E0,0E0,3.4407154E-4,0E0,4.2380719E-4,0E0,0E0,0E0,0E0,0E0],"parents":[2147483647,0,0,1,1,2,2,3,3,4,4,5,5,8,8,11,11,13,13],"right_children":[2,4,6,8,10,12,-1,-1,14,-1,-1,16,-1,18,-1,-1,-1,-1,-1],"split_conditions":[9.6889293E-1,9.6660566E-1,9.882586E-1,4.9420556E-1,9.673681E-1,9.746874E-1,-1.0362744E-2,6.446934E-3,9.653858E-1,1.6861295E-2,2.6682855E-3,9.7407746E-1,5.0559524E-3,4.9649283E-1,-1.180935E-3,-2.2598982E-3,-9.045553E-3,-5.062103E-4,1.6570091E-3],"split_indices":[0,0,0,0,0,0,0,0,0,0,0,0,0,0,0,0,0,0,0],"split_type":[0,0,0,0,0,0,0,0,0,0,0,0,0,0,0,0,0,0,0],"sum_hessian":[1E1,6E0,4E0,4E0,2E0,3E0,1E0,1E0,3E0,1E0,1E0,2E0,1E0,2E0,1E0,1E0,1E0,1E0,1E0],"tree_param":{"num_deleted":"0","num_feature":"2","num_nodes":"19","size_leaf_vector":"1"}},{"base_weights":[1.6122557E-2,7.042592E-2,-6.312666E-2,2.4383832E-2,1.23687424E-1,-2.9685259E-2,-9.844613E-3,6.124592E-3,-1.4317036E-4,1.6018247E-2,2.5348663E-3,-7.1601234E-2,4.803133E-3,7.288297E-3,-1.1218786E-3,-2.1469116E-3,-8.593273E-3,-4.8089027E-4,1.5741348E-3],"categories":[],"categories_nodes":[],"categories_segments":[],"categories_sizes":[],"default_left":[0,0,0,0,0,0,0,0,0,0,0,0,0,0,0,0,0,0,0],"id":56,"left_children":[1,3,5,7,9,11,-1,-1,13,-1,-1,15,-1,17,-1,-1,-1,-1,-1],"loss_changes":[5.178424E-2,1.4149927E-2,2.9832646E-3,4.529351E-3,6.706219E-3,1.6469367E-2,0E0,0E0,4.1099815E-4,0E0,0E0,3.1050574E-4,0E0,3.8247337E-4,0E0,0E0,0E0,0E0,0E0],"parents":[2147483647,0,0,1,1,2,2,3,3,4,4,5,5,8,8,11,11,13,13],"right_children":[2,4,6,8,10,12,-1,-1,14,-1,-1,16,-1,18,-1,-1,-1,-1,-1],"split_conditions":[9.6889293E-1,9.6660566E-1,9.882586E-1,4.9420556E-1,9.673681E-1,9.746874E-1,-9.844613E-3,6.124592E-3,9.653858E-1,1.6018247E-2,2.5348663E-3,9.7407746E-1,4.803133E-3,4.9649283E-1,-1.1218786E-3,-2.1469116E-3,-8.593273E-3,-4.8089027E-4,1.5741348E-3],"split_indices":[0,0,0,0,0,0,0,0,0,0,0,0,0,0,0,0,0,0,0],"split_type":[0,0,0,0,0,0,0,0,0,0,0,0,0,0,0,0,0,0,0],"sum_hessian":[1E1,6E0,4E0,4E0,2E0,3E0,1E0,1E0,3E0,1E0,1E0,2E0,1E0,2E0,1E0,1E0,1E0,1E0,1E0],"tree_param":{"num_deleted":"0","num_feature":"2","num_nodes":"19","size_leaf_vector":"1"}},{"base_weights":[1.5316486E-2,6.690468E-2,-5.9970282E-2,2.3164654E-2,1.17503166E-1,-2.8200984E-2,-9.352374E-3,5.818367E-3,-1.360178E-4,1.5217352E-2,2.408123E-3,-6.80213E-2,4.5629977E-3,6.9238343E-3,-1.0657788E-3,-2.0395757E-3,-8.163619E-3,-4.5683383E-4,1.4954091E-3],"categories":[],"categories_nodes":[],"categories_segments":[],"categories_sizes":[],"default_left":[0,0,0,0,0,0,0,0,0,0,0,0,0,0,0,0,0,0,0],"id":57,"left_children":[1,3,5,7,9,11,-1,-1,13,-1,-1,15,-1,17,-1,-1,-1,-1,-1],"loss_changes":[4.6735287E-2,1.2770332E-2,2.6923884E-3,4.087747E-3,6.0523897E-3,1.48637E-2,0E0,0E0,3.709213E-4,0E0,0E0,2.8021727E-4,0E0,3.451706E-4,0E0,0E0,0E0,0E0,0E0],"parents":[2147483647,0,0,1,1,2,2,3,3,4,4,5,5,8,8,11,11,13,13],"right_children":[2,4,6,8,10,12,-1,-1,14,-1,-1,16,-1,18,-1,-1,-1,-1,-1],"split_conditions":[9.6889293E-1,9.6660566E-1,9.882586E-1,4.9420556E-1,9.673681E-1,9.746874E-1,-9.352374E-3,5.818367E-3,9.653858E-1,1.5217352E-2,2.408123E-3,9.7407746E-1,4.5629977E-3,4.9649283E-1,-1.0657788E-3,-2.0395757E-3,-8.163619E-3,-4.5683383E-4,1.4954091E-3],"split_indices":[0,0,0,0,0,0,0,0,0,0,0,0,0,0,0,0,0,0,0],"split_type":[0,0,0,0,0,0,0,0,0,0,0,0,0,0,0,0,0,0,0],"sum_hessian":[1E1,6E0,4E0,4E0,2E0,3E0,1E0,1E0,3E0,1E0,1E0,2E0,1E0,2E0,1E0,1E0,1E0,1E0,1E0],"tree_param":{"num_deleted":"0","num_feature":"2","num_nodes":"19","size_leaf_vector":"1"}},{"base_weights":[1.45505555E-2,6.35594E-2,-5.697193E-2,2.2006417E-2,1.116279E-1,-2.6791096E-2,-8.884764E-3,5.527449E-3,-1.2922287E-4,1.4456463E-2,2.2877217E-3,-6.462034E-2,4.334831E-3,6.5776506E-3,-1.0124922E-3,-1.9376039E-3,-7.7554467E-3,-4.3399335E-4,1.420641E-3],"categories":[],"categories_nodes":[],"categories_segments":[],"categories_sizes":[],"default_left":[0,0,0,0,0,0,0,0,0,0,0,0,0,0,0,0,0,0,0],"id":58,"left_children":[1,3,5,7,9,11,-1,-1,13,-1,-1,15,-1,17,-1,-1,-1,-1,-1],"loss_changes":[4.217868E-2,1.1525195E-2,2.4298504E-3,3.6891925E-3,5.4622404E-3,1.3414465E-2,0E0,0E0,3.3475776E-4,0E0,0E0,2.528876E-4,0E0,3.1151774E-4,0E0,0E0,0E0,0E0,0E0],"parents":[2147483647,0,0,1,1,2,2,3,3,4,4,5,5,8,8,11,11,13,13],"right_children":[2,4,6,8,10,12,-1,-1,14,-1,-1,16,-1,18,-1,-1,-1,-1,-1],"split_conditions":[9.6889293E-1,9.6660566E-1,9.882586E-1,4.9420556E-1,9.673681E-1,9.746874E-1,-8.884764E-3,5.527449E-3,9.653858E-1,1.4456463E-2,2.2877217E-3,9.7407746E-1,4.334831E-3,4.9649283E-1,-1.0124922E-3,-1.9376039E-3,-7.7554467E-3,-4.3399335E-4,1.420641E-3],"split_indices":[0,0,0,0,0,0,0,0,0,0,0,0,0,0,0,0,0,0,0],"split_type":[0,0,0,0,0,0,0,0,0,0,0,0,0,0,0,0,0,0,0],"sum_hessian":[1E1,6E0,4E0,4E0,2E0,3E0,1E0,1E0,3E0,1E0,1E0,2E0,1E0,2E0,1E0,1E0,1E0,1E0,1E0],"tree_param":{"num_deleted":"0","num_feature":"2","num_nodes":"19","size_leaf_vector":"1"}},{"base_weights":[1.3822946E-2,6.0381275E-2,-5.4123305E-2,2.0905972E-2,1.06046356E-1,-2.5451541E-2,-8.440519E-3,5.2510737E-3,-1.2290478E-4,1.3733625E-2,2.1733285E-3,-6.1389446E-2,4.1181087E-3,6.248633E-3,-9.6187595E-4,-1.8407345E-3,-7.3676826E-3,-4.1229726E-4,1.3495922E-3],"categories":[],"categories_nodes":[],"categories_segments":[],"categories_sizes":[],"default_left":[0,0,0,0,0,0,0,0,0,0,0,0,0,0,0,0,0,0,0],"id":59,"left_children":[1,3,5,7,9,11,-1,-1,13,-1,-1,15,-1,17,-1,-1,-1,-1,-1],"loss_changes":[3.8066138E-2,1.0401502E-2,2.1929322E-3,3.3295176E-3,4.929673E-3,1.2106633E-2,0E0,0E0,3.0211688E-4,0E0,0E0,2.282178E-4,0E0,2.811414E-4,0E0,0E0,0E0,0E0,0E0],"parents":[2147483647,0,0,1,1,2,2,3,3,4,4,5,5,8,8,11,11,13,13],"right_children":[2,4,6,8,10,12,-1,-1,14,-1,-1,16,-1,18,-1,-1,-1,-1,-1],"split_conditions":[9.6889293E-1,9.6660566E-1,9.882586E-1,4.9420556E-1,9.673681E-1,9.746874E-1,-8.440519E-3,5.2510737E-3,9.653858E-1,1.3733625E-2,2.1733285E-3,9.7407746E-1,4.1181087E-3,4.9649283E-1,-9.6187595E-4,-1.8407345E-3,-7.3676826E-3,-4.1229726E-4,1.3495922E-3],"split_indices":[0,0,0,0,0,0,0,0,0,0,0,0,0,0,0,0,0,0,0],"split_type":[0,0,0,0,0,0,0,0,0,0,0,0,0,0,0,0,0,0,0],"sum_hessian":[1E1,6E0,4E0,4E0,2E0,3E0,1E0,1E0,3E0,1E0,1E0,2E0,1E0,2E0,1E0,1E0,1E0,1E0,1E0],"tree_param":{"num_deleted":"0","num_feature":"2","num_nodes":"19","size_leaf_vector":"1"}},{"base_weights":[1.3131792E-2,5.7362217E-2,-5.141716E-2,1.9860744E-2,1.0074393E-1,-2.4178982E-2,-8.018494E-3,4.9885274E-3,-1.16705894E-4,1.3046932E-2,2.0646572E-3,-5.8320045E-2,3.9122105E-3,5.9363046E-3,-9.137869E-4,-1.7487049E-3,-6.999302E-3,-3.9167405E-4,1.2821198E-3],"categories":[],"categories_nodes":[],"categories_segments":[],"categories_sizes":[],"default_left":[0,0,0,0,0,0,0,0,0,0,0,0,0,0,0,0,0,0,0],"id":60,"left_children":[1,3,5,7,9,11,-1,-1,13,-1,-1,15,-1,17,-1,-1,-1,-1,-1],"loss_changes":[3.4354705E-2,9.387296E-3,1.9791182E-3,3.0048897E-3,4.449034E-3,1.0926269E-2,0E0,0E0,2.7266596E-4,0E0,0E0,2.059564E-4,0E0,2.5372877E-4,0E0,0E0,0E0,0E0,0E0],"parents":[2147483647,0,0,1,1,2,2,3,3,4,4,5,5,8,8,11,11,13,13],"right_children":[2,4,6,8,10,12,-1,-1,14,-1,-1,16,-1,18,-1,-1,-1,-1,-1],"split_conditions":[9.6889293E-1,9.6660566E-1,9.882586E-1,4.9420556E-1,9.673681E-1,9.746874E-1,-8.018494E-3,4.9885274E-3,9.653858E-1,1.3046932E-2,2.0646572E-3,9.7407746E-1,3.9122105E-3,4.9649283E-1,-9.137869E-4,-1.7487049E-3,-6.999302E-3,-3.9167405E-4,1.2821198E-3],"split_indices":[0,0,0,0,0,0,0,0,0,0,0,0,0,0,0,0,0,0,0],"split_type":[0,0,0,0,0,0,0,0,0,0,0,0,0,0,0,0,0,0,0],"sum_hessian":[1E1,6E0,4E0,4E0,2E0,3E0,1E0,1E0,3E0,1E0,1E0,2E0,1E0,2E0,1E0,1E0,1E0,1E0,1E0],"tree_param":{"num_deleted":"0","num_feature":"2","num_nodes":"19","size_leaf_vector":"1"}},{"base_weights":[1.2475187E-2,5.4494042E-2,-4.8846245E-2,1.8867683E-2,9.570662E-2,-2.2969961E-2,-7.617569E-3,4.739094E-3,-1.1086464E-4,1.2394572E-2,1.961422E-3,-5.5404026E-2,3.716612E-3,5.639553E-3,-8.681059E-4,-1.6612768E-3,-6.6493275E-3,-3.720999E-4,1.2180329E-3],"categories":[],"categories_nodes":[],"categories_segments":[],"categories_sizes":[],"default_left":[0,0,0,0,0,0,0,0,0,0,0,0,0,0,0,0,0,0,0],"id":61,"left_children":[1,3,5,7,9,11,-1,-1,13,-1,-1,15,-1,17,-1,-1,-1,-1,-1],"loss_changes":[3.100505E-2,8.472018E-3,1.7861696E-3,2.7119038E-3,4.015239E-3,9.860983E-3,0E0,0E0,2.4608607E-4,0E0,0E0,1.8585939E-4,0E0,2.2899878E-4,0E0,0E0,0E0,0E0,0E0],"parents":[2147483647,0,0,1,1,2,2,3,3,4,4,5,5,8,8,11,11,13,13],"right_children":[2,4,6,8,10,12,-1,-1,14,-1,-1,16,-1,18,-1,-1,-1,-1,-1],"split_conditions":[9.6889293E-1,9.6660566E-1,9.882586E-1,4.9420556E-1,9.673681E-1,9.746874E-1,-7.617569E-3,4.739094E-3,9.653858E-1,1.2394572E-2,1.961422E-3,9.7407746E-1,3.716612E-3,4.9649283E-1,-8.681059E-4,-1.6612768E-3,-6.6493275E-3,-3.720999E-4,1.2180329E-3],"split_indices":[0,0,0,0,0,0,0,0,0,0,0,0,0,0,0,0,0,0,0],"split_type":[0,0,0,0,0,0,0,0,0,0,0,0,0,0,0,0,0,0,0],"sum_hessian":[1E1,6E0,4E0,4E0,2E0,3E0,1E0,1E0,3E0,1E0,1E0,2E0,1E0,2E0,1E0,1E0,1E0,1E0,1E0],"tree_param":{"num_deleted":"0","num_feature":"2","num_nodes":"19","size_leaf_vector":"1"}},{"base_weights":[1.1851441E-2,5.1769324E-2,-4.6403885E-2,1.7924404E-2,9.092108E-2,-2.182138E-2,-7.2366954E-3,4.5021535E-3,-1.052618E-4,1.1774826E-2,1.8633365E-3,-5.2633762E-2,3.5307885E-3,5.3575835E-3,-8.2468987E-4,-1.5782118E-3,-6.3168528E-3,-3.5350324E-4,1.1571407E-3],"categories":[],"categories_nodes":[],"categories_segments":[],"categories_sizes":[],"default_left":[0,0,0,0,0,0,0,0,0,0,0,0,0,0,0,0,0,0,0],"id":62,"left_children":[1,3,5,7,9,11,-1,-1,13,-1,-1,15,-1,17,-1,-1,-1,-1,-1],"loss_changes":[2.7982019E-2,7.6459106E-3,1.6120402E-3,2.4475001E-3,3.6237817E-3,8.899542E-3,0E0,0E0,2.2208944E-4,0E0,0E0,1.6773678E-4,0E0,2.0667675E-4,0E0,0E0,0E0,0E0,0E0],"parents":[2147483647,0,0,1,1,2,2,3,3,4,4,5,5,8,8,11,11,13,13],"right_children":[2,4,6,8,10,12,-1,-1,14,-1,-1,16,-1,18,-1,-1,-1,-1,-1],"split_conditions":[9.6889293E-1,9.6660566E-1,9.882586E-1,4.9420556E-1,9.673681E-1,9.746874E-1,-7.2366954E-3,4.5021535E-3,9.653858E-1,1.1774826E-2,1.8633365E-3,9.7407746E-1,3.5307885E-3,4.9649283E-1,-8.2468987E-4,-1.5782118E-3,-6.3168528E-3,-3.5350324E-4,1.1571407E-3],"split_indices":[0,0,0,0,0,0,0,0,0,0,0,0,0,0,0,0,0,0,0],"split_type":[0,0,0,0,0,0,0,0,0,0,0,0,0,0,0,0,0,0,0],"sum_hessian":[1E1,6E0,4E0,4E0,2E0,3E0,1E0,1E0,3E0,1E0,1E0,2E0,1E0,2E0,1E0,1E0,1E0,1E0,1E0],"tree_param":{"num_deleted":"0","num_feature":"2","num_nodes":"19","size_leaf_vector":"1"}},{"base_weights":[1.1258819E-2,4.918078E-2,-4.4083692E-2,1.7028142E-2,8.6374916E-2,-2.0730257E-2,-6.8748714E-3,4.277039E-3,-1.00016594E-4,1.1186075E-2,1.7701626E-3,-5.0002098E-2,3.3542633E-3,5.08976E-3,-7.834673E-4,-1.4992952E-3,-6.0010194E-3,-3.358364E-4,1.0993005E-3],"categories":[],"categories_nodes":[],"categories_segments":[],"categories_sizes":[],"default_left":[0,0,0,0,0,0,0,0,0,0,0,0,0,0,0,0,0,0,0],"id":63,"left_children":[1,3,5,7,9,11,-1,-1,13,-1,-1,15,-1,17,-1,-1,-1,-1,-1],"loss_changes":[2.5253734E-2,6.9004223E-3,1.454886E-3,2.2088639E-3,3.2704715E-3,8.031871E-3,0E0,0E0,2.0044117E-4,0E0,0E0,1.5139487E-4,0E0,1.865325E-4,0E0,0E0,0E0,0E0,0E0],"parents":[2147483647,0,0,1,1,2,2,3,3,4,4,5,5,8,8,11,11,13,13],"right_children":[2,4,6,8,10,12,-1,-1,14,-1,-1,16,-1,18,-1,-1,-1,-1,-1],"split_conditions":[9.6889293E-1,9.6660566E-1,9.882586E-1,4.9420556E-1,9.673681E-1,9.746874E-1,-6.8748714E-3,4.277039E-3,9.653858E-1,1.1186075E-2,1.7701626E-3,9.7407746E-1,3.3542633E-3,4.9649283E-1,-7.834673E-4,-1.4992952E-3,-6.0010194E-3,-3.358364E-4,1.0993005E-3],"split_indices":[0,0,0,0,0,0,0,0,0,0,0,0,0,0,0,0,0,0,0],"split_type":[0,0,0,0,0,0,0,0,0,0,0,0,0,0,0,0,0,0,0],"sum_hessian":[1E1,6E0,4E0,4E0,2E0,3E0,1E0,1E0,3E0,1E0,1E0,2E0,1E0,2E0,1E0,1E0,1E0,1E0,1E0],"tree_param":{"num_deleted":"0","num_feature":"2","num_nodes":"19","size_leaf_vector":"1"}},{"base_weights":[1.06958905E-2,4.672173E-2,-4.1879464E-2,1.6176606E-2,8.2056366E-2,-1.9693732E-2,-6.5311193E-3,4.0631774E-3,-9.512901E-5,1.0626793E-2,1.6816616E-3,-4.750204E-2,3.1865598E-3,4.835129E-3,-7.4429513E-4,-1.4243365E-3,-5.7009696E-3,-3.1905176E-4,1.0443211E-3],"categories":[],"categories_nodes":[],"categories_segments":[],"categories_sizes":[],"default_left":[0,0,0,0,0,0,0,0,0,0,0,0,0,0,0,0,0,0,0],"id":64,"left_children":[1,3,5,7,9,11,-1,-1,13,-1,-1,15,-1,17,-1,-1,-1,-1,-1],"loss_changes":[2.2791464E-2,6.227713E-3,1.3130289E-3,1.993505E-3,2.9516034E-3,7.2487914E-3,0E0,0E0,1.8089425E-4,0E0,0E0,1.3662642E-4,0E0,1.6834468E-4,0E0,0E0,0E0,0E0,0E0],"parents":[2147483647,0,0,1,1,2,2,3,3,4,4,5,5,8,8,11,11,13,13],"right_children":[2,4,6,8,10,12,-1,-1,14,-1,-1,16,-1,18,-1,-1,-1,-1,-1],"split_conditions":[9.6889293E-1,9.6660566E-1,9.882586E-1,4.9420556E-1,9.673681E-1,9.746874E-1,-6.5311193E-3,4.0631774E-3,9.653858E-1,1.0626793E-2,1.6816616E-3,9.7407746E-1,3.1865598E-3,4.9649283E-1,-7.4429513E-4,-1.4243365E-3,-5.7009696E-3,-3.1905176E-4,1.0443211E-3],"split_indices":[0,0,0,0,0,0,0,0,0,0,0,0,0,0,0,0,0,0,0],"split_type":[0,0,0,0,0,0,0,0,0,0,0,0,0,0,0,0,0,0,0],"sum_hessian":[1E1,6E0,4E0,4E0,2E0,3E0,1E0,1E0,3E0,1E0,1E0,2E0,1E0,2E0,1E0,1E0,1E0,1E0,1E0],"tree_param":{"num_deleted":"0","num_feature":"2","num_nodes":"19","size_leaf_vector":"1"}},{"base_weights":[1.016114E-2,4.4385638E-2,-3.9785385E-2,1.5367699E-2,7.795366E-2,-1.8708944E-2,-6.2045576E-3,3.8599968E-3,-9.036064E-5,1.0095454E-2,1.5975953E-3,-4.5126915E-2,3.0272484E-3,4.5933723E-3,-7.0707797E-4,-1.3531208E-3,-5.4159164E-3,-3.0310155E-4,9.921074E-4],"categories":[],"categories_nodes":[],"categories_segments":[],"categories_sizes":[],"default_left":[0,0,0,0,0,0,0,0,0,0,0,0,0,0,0,0,0,0,0],"id":65,"left_children":[1,3,5,7,9,11,-1,-1,13,-1,-1,15,-1,17,-1,-1,-1,-1,-1],"loss_changes":[2.0569243E-2,5.620555E-3,1.1850204E-3,1.799117E-3,2.66378E-3,6.5420642E-3,0E0,0E0,1.6325641E-4,0E0,0E0,1.2330199E-4,0E0,1.5193231E-4,0E0,0E0,0E0,0E0,0E0],"parents":[2147483647,0,0,1,1,2,2,3,3,4,4,5,5,8,8,11,11,13,13],"right_children":[2,4,6,8,10,12,-1,-1,14,-1,-1,16,-1,18,-1,-1,-1,-1,-1],"split_conditions":[9.6889293E-1,9.6660566E-1,9.882586E-1,4.9420556E-1,9.673681E-1,9.746874E-1,-6.2045576E-3,3.8599968E-3,9.653858E-1,1.0095454E-2,1.5975953E-3,9.7407746E-1,3.0272484E-3,4.9649283E-1,-7.0707797E-4,-1.3531208E-3,-5.4159164E-3,-3.0310155E-4,9.921074E-4],"split_indices":[0,0,0,0,0,0,0,0,0,0,0,0,0,0,0,0,0,0,0],"split_type":[0,0,0,0,0,0,0,0,0,0,0,0,0,0,0,0,0,0,0],"sum_hessian":[1E1,6E0,4E0,4E0,2E0,3E0,1E0,1E0,3E0,1E0,1E0,2E0,1E0,2E0,1E0,1E0,1E0,1E0,1E0],"tree_param":{"num_deleted":"0","num_feature":"2","num_nodes":"19","size_leaf_vector":"1"}},{"base_weights":[9.653222E-3,4.2166505E-2,-3.779602E-2,1.4599514E-2,7.405599E-2,-1.777339E-2,-5.894327E-3,3.667021E-3,-8.571148E-5,9.590673E-3,1.5177251E-3,-4.287052E-2,2.8759004E-3,4.363855E-3,-6.7172054E-4,-1.2854576E-3,-5.145121E-3,-2.8793814E-4,9.425163E-4],"categories":[],"categories_nodes":[],"categories_segments":[],"categories_sizes":[],"default_left":[0,0,0,0,0,0,0,0,0,0,0,0,0,0,0,0,0,0,0],"id":66,"left_children":[1,3,5,7,9,11,-1,-1,13,-1,-1,15,-1,17,-1,-1,-1,-1,-1],"loss_changes":[1.8563762E-2,5.0724996E-3,1.0694964E-3,1.6237086E-3,2.4040323E-3,5.904232E-3,0E0,0E0,1.47342E-4,0E0,0E0,1.1128839E-4,0E0,1.371194E-4,0E0,0E0,0E0,0E0,0E0],"parents":[2147483647,0,0,1,1,2,2,3,3,4,4,5,5,8,8,11,11,13,13],"right_children":[2,4,6,8,10,12,-1,-1,14,-1,-1,16,-1,18,-1,-1,-1,-1,-1],"split_conditions":[9.6889293E-1,9.6660566E-1,9.882586E-1,4.9420556E-1,9.673681E-1,9.746874E-1,-5.894327E-3,3.667021E-3,9.653858E-1,9.590673E-3,1.5177251E-3,9.7407746E-1,2.8759004E-3,4.9649283E-1,-6.7172054E-4,-1.2854576E-3,-5.145121E-3,-2.8793814E-4,9.425163E-4],"split_indices":[0,0,0,0,0,0,0,0,0,0,0,0,0,0,0,0,0,0,0],"split_type":[0,0,0,0,0,0,0,0,0,0,0,0,0,0,0,0,0,0,0],"sum_hessian":[1E1,6E0,4E0,4E0,2E0,3E0,1E0,1E0,3E0,1E0,1E0,2E0,1E0,2E0,1E0,1E0,1E0,1E0,1E0],"tree_param":{"num_deleted":"0","num_feature":"2","num_nodes":"19","size_leaf_vector":"1"}},{"base_weights":[9.170576E-3,4.0058274E-2,-3.5906315E-2,1.3869667E-2,7.035319E-2,-1.6884804E-2,-5.599618E-3,3.483677E-3,-8.1300735E-5,9.1111185E-3,1.4418602E-3,-4.072698E-2,2.7320862E-3,4.145781E-3,-6.381273E-4,-1.22118E-3,-4.8878673E-3,-2.7353765E-4,8.9540484E-4],"categories":[],"categories_nodes":[],"categories_segments":[],"categories_sizes":[],"default_left":[0,0,0,0,0,0,0,0,0,0,0,0,0,0,0,0,0,0,0],"id":67,"left_children":[1,3,5,7,9,11,-1,-1,13,-1,-1,15,-1,17,-1,-1,-1,-1,-1],"loss_changes":[1.675388E-2,4.5778966E-3,9.6521294E-4,1.4653893E-3,2.1695746E-3,5.3285332E-3,0E0,0E0,1.3297737E-4,0E0,0E0,1.0044407E-4,0E0,1.2375202E-4,0E0,0E0,0E0,0E0,0E0],"parents":[2147483647,0,0,1,1,2,2,3,3,4,4,5,5,8,8,11,11,13,13],"right_children":[2,4,6,8,10,12,-1,-1,14,-1,-1,16,-1,18,-1,-1,-1,-1,-1],"split_conditions":[9.6889293E-1,9.6660566E-1,9.882586E-1,4.9420556E-1,9.673681E-1,9.746874E-1,-5.599618E-3,3.483677E-3,9.653858E-1,9.1111185E-3,1.4418602E-3,9.7407746E-1,2.7320862E-3,4.9649283E-1,-6.381273E-4,-1.22118E-3,-4.8878673E-3,-2.7353765E-4,8.9540484E-4],"split_indices":[0,0,0,0,0,0,0,0,0,0,0,0,0,0,0,0,0,0,0],"split_type":[0,0,0,0,0,0,0,0,0,0,0,0,0,0,0,0,0,0,0],"sum_hessian":[1E1,6E0,4E0,4E0,2E0,3E0,1E0,1E0,3E0,1E0,1E0,2E0,1E0,2E0,1E0,1E0,1E0,1E0,1E0],"tree_param":{"num_deleted":"0","num_feature":"2","num_nodes":"19","size_leaf_vector":"1"}},{"base_weights":[8.711988E-3,3.8055282E-2,-3.4111023E-2,1.3176155E-2,6.68354E-2,-1.6040564E-2,-5.3196433E-3,3.3094883E-3,-7.724762E-5,8.655548E-3,1.3697625E-3,-3.8690567E-2,2.5954724E-3,3.938516E-3,-6.062269E-4,-1.1601209E-3,-4.643464E-3,-2.5985242E-4,8.506298E-4],"categories":[],"categories_nodes":[],"categories_segments":[],"categories_sizes":[],"default_left":[0,0,0,0,0,0,0,0,0,0,0,0,0,0,0,0,0,0,0],"id":68,"left_children":[1,3,5,7,9,11,-1,-1,13,-1,-1,15,-1,17,-1,-1,-1,-1,-1],"loss_changes":[1.5120355E-2,4.131536E-3,8.711098E-4,1.3225114E-3,1.9580387E-3,4.8089763E-3,0E0,0E0,1.2001408E-4,0E0,0E0,9.0647954E-5,0E0,1.1168314E-4,0E0,0E0,0E0,0E0,0E0],"parents":[2147483647,0,0,1,1,2,2,3,3,4,4,5,5,8,8,11,11,13,13],"right_children":[2,4,6,8,10,12,-1,-1,14,-1,-1,16,-1,18,-1,-1,-1,-1,-1],"split_conditions":[9.6889293E-1,9.6660566E-1,9.882586E-1,4.9420556E-1,9.673681E-1,9.746874E-1,-5.3196433E-3,3.3094883E-3,9.653858E-1,8.655548E-3,1.3697625E-3,9.7407746E-1,2.5954724E-3,4.9649283E-1,-6.062269E-4,-1.1601209E-3,-4.643464E-3,-2.5985242E-4,8.506298E-4],"split_indices":[0,0,0,0,0,0,0,0,0,0,0,0,0,0,0,0,0,0,0],"split_type":[0,0,0,0,0,0,0,0,0,0,0,0,0,0,0,0,0,0,0],"sum_hessian":[1E1,6E0,4E0,4E0,2E0,3E0,1E0,1E0,3E0,1E0,1E0,2E0,1E0,2E0,1E0,1E0,1E0,1E0,1E0],"tree_param":{"num_deleted":"0","num_feature":"2","num_nodes":"19","size_leaf_vector":"1"}},{"base_weights":[8.276376E-3,3.6152568E-2,-3.2405566E-2,1.2517357E-2,6.349373E-2,-1.5238643E-2,-5.053663E-3,3.1440258E-3,-7.343292E-5,8.222771E-3,1.3012886E-3,-3.675604E-2,2.4656772E-3,3.7415822E-3,-5.7592394E-4,-1.1021137E-3,-4.4112923E-3,-2.468586E-4,8.0809597E-4],"categories":[],"categories_nodes":[],"categories_segments":[],"categories_sizes":[],"default_left":[0,0,0,0,0,0,0,0,0,0,0,0,0,0,0,0,0,0,0],"id":69,"left_children":[1,3,5,7,9,11,-1,-1,13,-1,-1,15,-1,17,-1,-1,-1,-1,-1],"loss_changes":[1.3646178E-2,3.728725E-3,7.861634E-4,1.1935802E-3,1.7671017E-3,4.340067E-3,0E0,0E0,1.08314416E-4,0E0,0E0,8.1811566E-5,0E0,1.0079332E-4,0E0,0E0,0E0,0E0,0E0],"parents":[2147483647,0,0,1,1,2,2,3,3,4,4,5,5,8,8,11,11,13,13],"right_children":[2,4,6,8,10,12,-1,-1,14,-1,-1,16,-1,18,-1,-1,-1,-1,-1],"split_conditions":[9.6889293E-1,9.6660566E-1,9.882586E-1,4.9420556E-1,9.673681E-1,9.746874E-1,-5.053663E-3,3.1440258E-3,9.653858E-1,8.222771E-3,1.3012886E-3,9.7407746E-1,2.4656772E-3,4.9649283E-1,-5.7592394E-4,-1.1021137E-3,-4.4112923E-3,-2.468586E-4,8.0809597E-4],"split_indices":[0,0,0,0,0,0,0,0,0,0,0,0,0,0,0,0,0,0,0],"split_type":[0,0,0,0,0,0,0,0,0,0,0,0,0,0,0,0,0,0,0],"sum_hessian":[1E1,6E0,4E0,4E0,2E0,3E0,1E0,1E0,3E0,1E0,1E0,2E0,1E0,2E0,1E0,1E0,1E0,1E0,1E0],"tree_param":{"num_deleted":"0","num_feature":"2","num_nodes":"19","size_leaf_vector":"1"}},{"base_weights":[7.8626545E-3,3.4345083E-2,-3.0785274E-2,1.1891556E-2,6.0319263E-2,-1.4476657E-2,-4.8009874E-3,2.9868127E-3,-6.9618225E-5,7.811642E-3,1.2362481E-3,-3.491831E-2,2.3424148E-3,3.554662E-3,-5.4712297E-4,-1.0470152E-3,-4.1907313E-3,-2.3450852E-4,7.677078E-4],"categories":[],"categories_nodes":[],"categories_segments":[],"categories_sizes":[],"default_left":[0,0,0,0,0,0,0,0,0,0,0,0,0,0,0,0,0,0,0],"id":70,"left_children":[1,3,5,7,9,11,-1,-1,13,-1,-1,15,-1,17,-1,-1,-1,-1,-1],"loss_changes":[1.2315724E-2,3.3651935E-3,7.0952484E-4,1.0771838E-3,1.5947698E-3,3.916952E-3,0E0,0E0,9.775619E-5,0E0,0E0,7.382897E-5,0E0,9.096705E-5,0E0,0E0,0E0,0E0,0E0],"parents":[2147483647,0,0,1,1,2,2,3,3,4,4,5,5,8,8,11,11,13,13],"right_children":[2,4,6,8,10,12,-1,-1,14,-1,-1,16,-1,18,-1,-1,-1,-1,-1],"split_conditions":[9.6889293E-1,9.6660566E-1,9.882586E-1,4.9420556E-1,9.673681E-1,9.746874E-1,-4.8009874E-3,2.9868127E-3,9.653858E-1,7.811642E-3,1.2362481E-3,9.7407746E-1,2.3424148E-3,4.9649283E-1,-5.4712297E-4,-1.0470152E-3,-4.1907313E-3,-2.3450852E-4,7.677078E-4],"split_indices":[0,0,0,0,0,0,0,0,0,0,0,0,0,0,0,0,0,0,0],"split_type":[0,0,0,0,0,0,0,0,0,0,0,0,0,0,0,0,0,0,0],"sum_hessian":[1E1,6E0,4E0,4E0,2E0,3E0,1E0,1E0,3E0,1E0,1E0,2E0,1E0,2E0,1E0,1E0,1E0,1E0,1E0],"tree_param":{"num_deleted":"0","num_feature":"2","num_nodes":"19","size_leaf_vector":"1"}},{"base_weights":[7.4695675E-3,3.2627854E-2,-2.9245948E-2,1.129694E-2,5.730343E-2,-1.3752699E-2,-4.5609474E-3,2.8374672E-3,-6.6161156E-5,7.4210647E-3,1.1744499E-3,-3.317229E-2,2.2253038E-3,3.3769608E-3,-5.1977637E-4,-9.946584E-4,-3.981185E-3,-2.2277833E-4,7.2932243E-4],"categories":[],"categories_nodes":[],"categories_segments":[],"categories_sizes":[],"default_left":[0,0,0,0,0,0,0,0,0,0,0,0,0,0,0,0,0,0,0],"id":71,"left_children":[1,3,5,7,9,11,-1,-1,13,-1,-1,15,-1,17,-1,-1,-1,-1,-1],"loss_changes":[1.1114927E-2,3.0371146E-3,6.403676E-4,9.721573E-4,1.4392566E-3,3.535051E-3,0E0,0E0,8.822758E-5,0E0,0E0,6.6633336E-5,0E0,8.209668E-5,0E0,0E0,0E0,0E0,0E0],"parents":[2147483647,0,0,1,1,2,2,3,3,4,4,5,5,8,8,11,11,13,13],"right_children":[2,4,6,8,10,12,-1,-1,14,-1,-1,16,-1,18,-1,-1,-1,-1,-1],"split_conditions":[9.6889293E-1,9.6660566E-1,9.882586E-1,4.9420556E-1,9.673681E-1,9.746874E-1,-4.5609474E-3,2.8374672E-3,9.653858E-1,7.4210647E-3,1.1744499E-3,9.7407746E-1,2.2253038E-3,4.9649283E-1,-5.1977637E-4,-9.946584E-4,-3.981185E-3,-2.2277833E-4,7.2932243E-4],"split_indices":[0,0,0,0,0,0,0,0,0,0,0,0,0,0,0,0,0,0,0],"split_type":[0,0,0,0,0,0,0,0,0,0,0,0,0,0,0,0,0,0,0],"sum_hessian":[1E1,6E0,4E0,4E0,2E0,3E0,1E0,1E0,3E0,1E0,1E0,2E0,1E0,2E0,1E0,1E0,1E0,1E0,1E0],"tree_param":{"num_deleted":"0","num_feature":"2","num_nodes":"19","size_leaf_vector":"1"}},{"base_weights":[7.0960303E-3,3.0996323E-2,-2.7783584E-2,1.0732079E-2,5.4437954E-2,-1.30649805E-2,-4.3329E-3,2.6956082E-3,-6.2942505E-5,7.04999E-3,1.1157036E-3,-3.151369E-2,2.1140575E-3,3.2080014E-3,-4.9378874E-4,-9.4492437E-4,-3.7821294E-3,-2.1164418E-4,6.928444E-4],"categories":[],"categories_nodes":[],"categories_segments":[],"categories_sizes":[],"default_left":[0,0,0,0,0,0,0,0,0,0,0,0,0,0,0,0,0,0,0],"id":72,"left_children":[1,3,5,7,9,11,-1,-1,13,-1,-1,15,-1,17,-1,-1,-1,-1,-1],"loss_changes":[1.0031152E-2,2.7409573E-3,5.779413E-4,8.773889E-4,1.2989566E-3,3.190411E-3,0E0,0E0,7.962344E-5,0E0,0E0,6.013876E-5,0E0,7.40915E-5,0E0,0E0,0E0,0E0,0E0],"parents":[2147483647,0,0,1,1,2,2,3,3,4,4,5,5,8,8,11,11,13,13],"right_children":[2,4,6,8,10,12,-1,-1,14,-1,-1,16,-1,18,-1,-1,-1,-1,-1],"split_conditions":[9.6889293E-1,9.6660566E-1,9.882586E-1,4.9420556E-1,9.673681E-1,9.746874E-1,-4.3329E-3,2.6956082E-3,9.653858E-1,7.04999E-3,1.1157036E-3,9.7407746E-1,2.1140575E-3,4.9649283E-1,-4.9378874E-4,-9.4492437E-4,-3.7821294E-3,-2.1164418E-4,6.928444E-4],"split_indices":[0,0,0,0,0,0,0,0,0,0,0,0,0,0,0,0,0,0,0],"split_type":[0,0,0,0,0,0,0,0,0,0,0,0,0,0,0,0,0,0,0],"sum_hessian":[1E1,6E0,4E0,4E0,2E0,3E0,1E0,1E0,3E0,1E0,1E0,2E0,1E0,2E0,1E0,1E0,1E0,1E0,1E0],"tree_param":{"num_deleted":"0","num_feature":"2","num_nodes":"19","size_leaf_vector":"1"}},{"base_weights":[6.741307E-3,2.9446602E-2,-2.6394367E-2,1.0195541E-2,5.1716167E-2,-1.2411714E-2,-4.1162493E-3,2.5608062E-3,-5.9604645E-5,6.6975118E-3,1.0599137E-3,-2.9937902E-2,2.0083429E-3,3.047784E-3,-4.6908855E-4,-8.976698E-4,-3.5930157E-3,-2.0105838E-4,6.58226E-4],"categories":[],"categories_nodes":[],"categories_segments":[],"categories_sizes":[],"default_left":[0,0,0,0,0,0,0,0,0,0,0,0,0,0,0,0,0,0,0],"id":73,"left_children":[1,3,5,7,9,11,-1,-1,13,-1,-1,15,-1,17,-1,-1,-1,-1,-1],"loss_changes":[9.053132E-3,2.4737143E-3,5.215907E-4,7.918146E-4,1.1723302E-3,2.8793197E-3,0E0,0E0,7.186157E-5,0E0,0E0,5.4280274E-5,0E0,6.687022E-5,0E0,0E0,0E0,0E0,0E0],"parents":[2147483647,0,0,1,1,2,2,3,3,4,4,5,5,8,8,11,11,13,13],"right_children":[2,4,6,8,10,12,-1,-1,14,-1,-1,16,-1,18,-1,-1,-1,-1,-1],"split_conditions":[9.6889293E-1,9.6660566E-1,9.882586E-1,4.9420556E-1,9.673681E-1,9.746874E-1,-4.1162493E-3,2.5608062E-3,9.653858E-1,6.6975118E-3,1.0599137E-3,9.7407746E-1,2.0083429E-3,4.9649283E-1,-4.6908855E-4,-8.976698E-4,-3.5930157E-3,-2.0105838E-4,6.58226E-4],"split_indices":[0,0,0,0,0,0,0,0,0,0,0,0,0,0,0,0,0,0,0],"split_type":[0,0,0,0,0,0,0,0,0,0,0,0,0,0,0,0,0,0,0],"sum_hessian":[1E1,6E0,4E0,4E0,2E0,3E0,1E0,1E0,3E0,1E0,1E0,2E0,1E0,2E0,1E0,1E0,1E0,1E0,1E0],"tree_param":{"num_deleted":"0","num_feature":"2","num_nodes":"19","size_leaf_vector":"1"}},{"base_weights":[6.4043133E-3,2.79744E-2,-2.5074672E-2,9.685898E-3,4.913044E-2,-1.179111E-2,-3.910446E-3,2.4327755E-3,-5.6505203E-5,6.362629E-3,1.006937E-3,-2.8440952E-2,1.9079208E-3,2.8955142E-3,-4.4562816E-4,-8.527756E-4,-3.4133673E-3,-1.9099713E-4,6.2532426E-4],"categories":[],"categories_nodes":[],"categories_segments":[],"categories_sizes":[],"default_left":[0,0,0,0,0,0,0,0,0,0,0,0,0,0,0,0,0,0,0],"id":74,"left_children":[1,3,5,7,9,11,-1,-1,13,-1,-1,15,-1,17,-1,-1,-1,-1,-1],"loss_changes":[8.170499E-3,2.2325139E-3,4.7074282E-4,7.1460905E-4,1.0579932E-3,2.5985744E-3,0E0,0E0,6.485613E-5,0E0,0E0,4.8997113E-5,0E0,6.0350052E-5,0E0,0E0,0E0,0E0,0E0],"parents":[2147483647,0,0,1,1,2,2,3,3,4,4,5,5,8,8,11,11,13,13],"right_children":[2,4,6,8,10,12,-1,-1,14,-1,-1,16,-1,18,-1,-1,-1,-1,-1],"split_conditions":[9.6889293E-1,9.6660566E-1,9.882586E-1,4.9420556E-1,9.673681E-1,9.746874E-1,-3.910446E-3,2.4327755E-3,9.653858E-1,6.362629E-3,1.006937E-3,9.7407746E-1,1.9079208E-3,4.9649283E-1,-4.4562816E-4,-8.527756E-4,-3.4133673E-3,-1.9099713E-4,6.2532426E-4],"split_indices":[0,0,0,0,0,0,0,0,0,0,0,0,